{"learner":{"attributes":{"scikit_learn":"{\"_estimator_type\": \"regressor\"}"},"feature_names":["user_id","learning_language","lexeme_id","accuracy_rate","session_accuracy","delta_days"],"feature_types":["int","int","int","float","float","float"],"gradient_booster":{"model":{"gbtree_model_param":{"num_parallel_tree":"1","num_trees":"100"},"iteration_indptr":[0,1,2,3,4,5,6,7,8,9,10,11,12,13,14,15,16,17,18,19,20,21,22,23,24,25,26,27,28,29,30,31,32,33,34,35,36,37,38,39,40,41,42,43,44,45,46,47,48,49,50,51,52,53,54,55,56,57,58,59,60,61,62,63,64,65,66,67,68,69,70,71,72,73,74,75,76,77,78,79,80,81,82,83,84,85,86,87,88,89,90,91,92,93,94,95,96,97,98,99,100],"tree_info":[0,0,0,0,0,0,0,0,0,0,0,0,0,0,0,0,0,0,0,0,0,0,0,0,0,0,0,0,0,0,0,0,0,0,0,0,0,0,0,0,0,0,0,0,0,0,0,0,0,0,0,0,0,0,0,0,0,0,0,0,0,0,0,0,0,0,0,0,0,0,0,0,0,0,0,0,0,0,0,0,0,0,0,0,0,0,0,0,0,0,0,0,0,0,0,0,0,0,0,0],"trees":[{"base_weights":[5.748966E-9,-7.290059E-1,8.643655E-2,-8.980839E-2,-4.0758452E-1,-1.7374136E-1,1.01578385E-1,-5.631016E-1,-3.9792904E-1,-2.3408829E-1,-1.1530321E-1,-6.4055715E-3,1.01854995E-1,-5.682218E-2,-4.9081836E-2,-3.9811708E-2,-3.1854752E-2,-2.9658943E-2,-2.3006582E-1,-1.4773257E-1,-8.097776E-2,-1.8070713E-2,1.4958627E-2,4.1458956E-3,1.0185571E-2,-2.3145933E-2,-1.8445313E-2,-1.4817528E-2,-1.202667E-2,-9.7961664E-2,-5.701427E-2,-2.3348413E-3,-9.2491945E-3,4.8601595E-3,2.805971E-2,-9.820149E-3,-7.930706E-3,-6.4774915E-3,-4.1295234E-3,-9.301123E-4,-2.2714537E-4,1.8411217E-4,1.0773169E-3,2.173737E-3,3.4342476E-3],"categories":[],"categories_nodes":[],"categories_segments":[],"categories_sizes":[],"default_left":[0,0,0,0,0,0,0,0,0,0,0,0,0,0,0,0,0,0,0,0,0,0,0,0,0,0,0,0,0,0,0,0,0,0,0,0,0,0,0,0,0,0,0,0,0],"id":0,"left_children":[1,3,5,-1,7,9,11,13,15,17,19,21,23,-1,-1,-1,-1,-1,25,27,29,31,33,-1,-1,-1,-1,-1,-1,35,37,-1,39,41,43,-1,-1,-1,-1,-1,-1,-1,-1,-1,-1],"loss_changes":[2.712056E4,2.4789746E3,1.5158699E3,0E0,2.3392822E1,7.460211E1,1.0861572E1,6.0516357E-2,9.423828E-2,2.5489502E0,1.1957764E1,2.3204158E-1,1.1474609E-2,0E0,0E0,0E0,0E0,0E0,5.7922363E-1,4.940033E-2,2.1213646E0,2.7811557E-2,4.3390602E-2,0E0,0E0,0E0,0E0,0E0,0E0,5.886078E-3,2.6204348E-1,0E0,6.112456E-5,3.3184136E-3,4.9337074E-3,0E0,0E0,0E0,0E0,0E0,0E0,0E0,0E0,0E0,0E0],"parents":[2147483647,0,0,1,1,2,2,4,4,5,5,6,6,7,7,8,8,9,9,10,10,11,11,12,12,18,18,19,19,20,20,21,21,22,22,29,29,30,30,32,32,33,33,34,34],"right_children":[2,4,6,-1,8,10,12,14,16,18,20,22,24,-1,-1,-1,-1,-1,26,28,30,32,34,-1,-1,-1,-1,-1,-1,36,38,-1,40,42,44,-1,-1,-1,-1,-1,-1,-1,-1,-1,-1],"split_conditions":[6E-1,2.5E-1,8.666667E-1,-8.980839E-2,5E-1,7.2727275E-1,9.4736844E-1,4E-1,5.714286E-1,6.363636E-1,7.8571427E-1,9E-1,1E0,-5.682218E-2,-4.9081836E-2,-3.9811708E-2,-3.1854752E-2,-2.9658943E-2,6.923077E-1,7.692308E-1,8.235294E-1,8.8235295E-1,9.166667E-1,4.1458956E-3,1.0185571E-2,-2.3145933E-2,-1.8445313E-2,-1.4817528E-2,-1.202667E-2,8.125E-1,8.4615386E-1,-2.3348413E-3,8.947368E-1,9.0909094E-1,9.285714E-1,-9.820149E-3,-7.930706E-3,-6.4774915E-3,-4.1295234E-3,-9.301123E-4,-2.2714537E-4,1.8411217E-4,1.0773169E-3,2.173737E-3,3.4342476E-3],"split_indices":[4,4,4,0,4,4,4,4,4,4,4,4,4,0,0,0,0,0,4,4,4,4,4,0,0,0,0,0,0,4,4,0,4,4,4,0,0,0,0,0,0,0,0,0,0],"split_type":[0,0,0,0,0,0,0,0,0,0,0,0,0,0,0,0,0,0,0,0,0,0,0,0,0,0,0,0,0,0,0,0,0,0,0,0,0,0,0,0,0,0,0,0,0],"sum_hessian":[4.30396E5,4.5621E4,3.84775E5,2.9894E4,1.5727E4,2.1161E4,3.63614E5,9.16E2,1.4811E4,1.0409E4,1.0752E4,9.29E2,3.62685E5,8.49E2,6.7E1,1.4772E4,3.9E1,6.25E2,9.784E3,5.527E3,5.225E3,6.01E2,3.28E2,5E0,3.6268E5,9.49E3,2.94E2,5.435E3,9.2E1,3.056E3,2.169E3,3.75E2,2.26E2,1.86E2,1.42E2,3.013E3,4.3E1,1.45E3,7.19E2,2.24E2,2E0,1.24E2,6.2E1,7.3E1,6.9E1],"tree_param":{"num_deleted":"0","num_feature":"6","num_nodes":"45","size_leaf_vector":"1"}},{"base_weights":[-8.9051434E-7,-6.561111E-1,7.7792585E-2,-8.079813E-1,-3.662506E-1,-1.563732E-1,9.142056E-2,-8.083086E-2,-5.8267813E-2,-5.02956E-1,-3.5814098E-1,-2.1068631E-1,-1.0377802E-1,-5.761379E-3,9.166951E-2,-5.074194E-2,-4.4245828E-2,-3.5830803E-2,-2.8748915E-2,-2.6688764E-2,-2.0705704E-1,-1.3296416E-1,-7.28854E-2,-1.6269442E-2,1.348365E-2,3.8004022E-3,9.167015E-3,-2.0830063E-2,-1.6577728E-2,-1.33360475E-2,-1.0836936E-2,-8.817129E-2,-5.1317744E-2,-2.0971036E-2,-8.241879E-3,4.3808925E-3,2.5292967E-2,-8.838459E-3,-7.1556605E-3,-5.813898E-3,-3.6818713E-3,-2.6900768E-3,-2.070385E-3,-8.287481E-4,-2.120018E-4,1.6584758E-4,9.7129744E-4,1.9593022E-3,3.0957293E-3],"categories":[],"categories_nodes":[],"categories_segments":[],"categories_sizes":[],"default_left":[0,0,0,0,0,0,0,0,0,0,0,0,0,0,0,0,0,0,0,0,0,0,0,0,0,0,0,0,0,0,0,0,0,0,0,0,0,0,0,0,0,0,0,0,0,0,0,0,0],"id":1,"left_children":[1,3,5,7,9,11,13,-1,-1,15,17,19,21,23,25,-1,-1,-1,-1,-1,27,29,31,33,35,-1,-1,-1,-1,-1,-1,37,39,41,43,45,47,-1,-1,-1,-1,-1,-1,-1,-1,-1,-1,-1,-1],"loss_changes":[2.1967984E4,2.0080371E3,1.2279141E3,1.7363281E0,1.7210938E1,6.0429688E1,8.797363E0,0E0,0E0,1.2023926E-2,7.1899414E-2,2.0680847E0,9.6856E0,1.8829139E-1,8.544922E-3,0E0,0E0,0E0,0E0,0E0,4.6765137E-1,3.943634E-2,1.7183876E0,2.254805E-2,3.5255827E-2,0E0,0E0,0E0,0E0,0E0,0E0,4.508972E-3,2.1247482E-1,4.349649E-5,4.4964254E-5,2.698411E-3,4.010394E-3,0E0,0E0,0E0,0E0,0E0,0E0,0E0,0E0,0E0,0E0,0E0,0E0],"parents":[2147483647,0,0,1,1,2,2,3,3,4,4,5,5,6,6,9,9,10,10,11,11,12,12,13,13,14,14,20,20,21,21,22,22,23,23,24,24,31,31,32,32,33,33,34,34,35,35,36,36],"right_children":[2,4,6,8,10,12,14,-1,-1,16,18,20,22,24,26,-1,-1,-1,-1,-1,28,30,32,34,36,-1,-1,-1,-1,-1,-1,38,40,42,44,46,48,-1,-1,-1,-1,-1,-1,-1,-1,-1,-1,-1,-1],"split_conditions":[6E-1,2.857143E-1,8.666667E-1,1.6666667E-1,5E-1,7.2727275E-1,9.4736844E-1,-8.083086E-2,-5.8267813E-2,4E-1,5.714286E-1,6.666667E-1,7.8571427E-1,9E-1,1E0,-5.074194E-2,-4.4245828E-2,-3.5830803E-2,-2.8748915E-2,-2.6688764E-2,7E-1,7.692308E-1,8.235294E-1,8.888889E-1,9.166667E-1,3.8004022E-3,9.167015E-3,-2.0830063E-2,-1.6577728E-2,-1.33360475E-2,-1.0836936E-2,8.125E-1,8.5714287E-1,8.75E-1,8.947368E-1,9.0909094E-1,9.285714E-1,-8.838459E-3,-7.1556605E-3,-5.813898E-3,-3.6818713E-3,-2.6900768E-3,-2.070385E-3,-8.287481E-4,-2.120018E-4,1.6584758E-4,9.7129744E-4,1.9593022E-3,3.0957293E-3],"split_indices":[4,4,4,4,4,4,4,0,0,4,4,4,4,4,4,0,0,0,0,0,4,4,4,4,4,0,0,0,0,0,0,4,4,4,4,4,4,0,0,0,0,0,0,0,0,0,0,0,0],"split_type":[0,0,0,0,0,0,0,0,0,0,0,0,0,0,0,0,0,0,0,0,0,0,0,0,0,0,0,0,0,0,0,0,0,0,0,0,0,0,0,0,0,0,0,0,0,0,0,0,0],"sum_hessian":[4.30396E5,4.5621E4,3.84775E5,2.9935E4,1.5686E4,2.1161E4,3.63614E5,2.9889E4,4.6E1,8.75E2,1.4811E4,1.0409E4,1.0752E4,9.29E2,3.62685E5,8.08E2,6.7E1,1.4772E4,3.9E1,6.27E2,9.782E3,5.527E3,5.225E3,6.01E2,3.28E2,5E0,3.6268E5,9.492E3,2.9E2,5.435E3,9.2E1,3.056E3,2.169E3,3.78E2,2.23E2,1.86E2,1.42E2,3.013E3,4.3E1,1.473E3,6.96E2,1.2E1,3.66E2,2.21E2,2E0,1.24E2,6.2E1,7.3E1,6.9E1],"tree_param":{"num_deleted":"0","num_feature":"6","num_nodes":"49","size_leaf_vector":"1"}},{"base_weights":[-1.7293942E-6,-5.9050655E-1,7.001306E-2,-7.271878E-1,-3.2963574E-1,-1.4074126E-1,8.227854E-2,-7.274804E-2,-5.256501E-2,-4.527689E-1,-3.2233122E-1,-1.8956088E-1,-9.334053E-2,-5.1848297E-3,8.250259E-2,-4.5674022E-2,-3.988631E-2,-3.2247964E-2,-2.5945893E-2,-2.403318E-2,-1.8629807E-1,-1.1952485E-1,-6.549894E-2,-1.4652146E-2,1.2154105E-2,3.4837027E-3,8.250315E-3,-1.8748676E-2,-1.4918427E-2,-1.1996828E-2,-9.699108E-3,-7.926924E-2,-4.6190336E-2,-1.8935148E-2,-7.4932873E-3,3.9488957E-3,2.2799E-2,-7.945882E-3,-6.456358E-3,-5.249202E-3,-3.342655E-3,-2.441762E-3,-1.8687326E-3,-7.533512E-4,-1.9786756E-4,1.4939823E-4,8.757074E-4,1.9501643E-3,3.1091908E-3],"categories":[],"categories_nodes":[],"categories_segments":[],"categories_sizes":[],"default_left":[0,0,0,0,0,0,0,0,0,0,0,0,0,0,0,0,0,0,0,0,0,0,0,0,0,0,0,0,0,0,0,0,0,0,0,0,0,0,0,0,0,0,0,0,0,0,0,0,0],"id":2,"left_children":[1,3,5,7,9,11,13,-1,-1,15,17,19,21,23,25,-1,-1,-1,-1,-1,27,29,31,33,35,-1,-1,-1,-1,-1,-1,37,39,41,43,45,47,-1,-1,-1,-1,-1,-1,-1,-1,-1,-1,-1,-1],"loss_changes":[1.7794406E4,1.6264658E3,9.9465845E2,1.3828125E0,1.3963379E1,4.8952972E1,7.1257324E0,0E0,0E0,5.355835E-3,5.444336E-2,1.6820068E0,7.8210373E0,1.5284054E-1,6.8359375E-3,0E0,0E0,0E0,0E0,0E0,4.043274E-1,4.3655396E-2,1.3808022E0,1.8316269E-2,2.864601E-2,0E0,0E0,0E0,0E0,0E0,0E0,3.3397675E-3,1.7278576E-1,5.4582953E-5,3.544707E-5,2.1942018E-3,3.303945E-3,0E0,0E0,0E0,0E0,0E0,0E0,0E0,0E0,0E0,0E0,0E0,0E0],"parents":[2147483647,0,0,1,1,2,2,3,3,4,4,5,5,6,6,9,9,10,10,11,11,12,12,13,13,14,14,20,20,21,21,22,22,23,23,24,24,31,31,32,32,33,33,34,34,35,35,36,36],"right_children":[2,4,6,8,10,12,14,-1,-1,16,18,20,22,24,26,-1,-1,-1,-1,-1,28,30,32,34,36,-1,-1,-1,-1,-1,-1,38,40,42,44,46,48,-1,-1,-1,-1,-1,-1,-1,-1,-1,-1,-1,-1],"split_conditions":[6E-1,2.857143E-1,8.666667E-1,1.6666667E-1,5E-1,7.5E-1,9.4736844E-1,-7.274804E-2,-5.256501E-2,4E-1,5.714286E-1,6.363636E-1,8E-1,9E-1,1E0,-4.5674022E-2,-3.988631E-2,-3.2247964E-2,-2.5945893E-2,-2.403318E-2,6.923077E-1,7.692308E-1,8.235294E-1,8.8235295E-1,9.166667E-1,3.4837027E-3,8.250315E-3,-1.8748676E-2,-1.4918427E-2,-1.1996828E-2,-9.699108E-3,8.125E-1,8.4615386E-1,8.75E-1,8.947368E-1,9.0909094E-1,9.3333334E-1,-7.945882E-3,-6.456358E-3,-5.249202E-3,-3.342655E-3,-2.441762E-3,-1.8687326E-3,-7.533512E-4,-1.9786756E-4,1.4939823E-4,8.757074E-4,1.9501643E-3,3.1091908E-3],"split_indices":[4,4,4,4,4,4,4,0,0,4,4,4,4,4,4,0,0,0,0,0,4,4,4,4,4,0,0,0,0,0,0,4,4,4,4,4,4,0,0,0,0,0,0,0,0,0,0,0,0],"split_type":[0,0,0,0,0,0,0,0,0,0,0,0,0,0,0,0,0,0,0,0,0,0,0,0,0,0,0,0,0,0,0,0,0,0,0,0,0,0,0,0,0,0,0,0,0,0,0,0,0],"sum_hessian":[4.30396E5,4.5621E4,3.84775E5,2.9935E4,1.5686E4,2.1161E4,3.63614E5,2.9889E4,4.6E1,8.75E2,1.4811E4,1.0423E4,1.0738E4,9.29E2,3.62685E5,8.08E2,6.7E1,1.4772E4,3.9E1,6.25E2,9.798E3,5.532E3,5.206E3,6.01E2,3.28E2,5E0,3.6268E5,9.49E3,3.08E2,5.421E3,1.11E2,3.037E3,2.169E3,3.75E2,2.26E2,1.86E2,1.42E2,2.994E3,4.3E1,1.45E3,7.19E2,1.2E1,3.63E2,2.24E2,2E0,1.24E2,6.2E1,1.04E2,3.8E1],"tree_param":{"num_deleted":"0","num_feature":"6","num_nodes":"49","size_leaf_vector":"1"}},{"base_weights":[-2.372369E-6,-5.314618E-1,6.301154E-2,-6.544732E-1,-2.966813E-1,-1.2667197E-1,7.405074E-2,-6.5473475E-2,-4.742035E-2,-4.0758967E-1,-2.9010203E-1,-1.706103E-1,-8.401065E-2,-4.6654623E-3,7.425238E-2,-4.111227E-2,-3.5956338E-2,-2.9023388E-2,-2.3416169E-2,-2.1626329E-2,-1.6766647E-1,-1.0757631E-1,-5.895346E-2,-1.31956795E-2,1.0957202E-2,3.1933933E-3,7.425288E-3,-1.687277E-2,-1.3408685E-2,-1.0797369E-2,-8.737857E-3,-7.1328275E-2,-4.154665E-2,-1.70134E-2,-6.677321E-3,4.8915036E-3,2.2988986E-2,-7.1515576E-3,-5.8155614E-3,-4.7086035E-3,-2.9804264E-3,-2.2163687E-3,-1.6784609E-3,-6.7125214E-4,-1.8467507E-4,1.3458081E-4,9.4573415E-4,1.992159E-3,2.8062414E-3],"categories":[],"categories_nodes":[],"categories_segments":[],"categories_sizes":[],"default_left":[0,0,0,0,0,0,0,0,0,0,0,0,0,0,0,0,0,0,0,0,0,0,0,0,0,0,0,0,0,0,0,0,0,0,0,0,0,0,0,0,0,0,0,0,0,0,0,0,0],"id":3,"left_children":[1,3,5,7,9,11,13,-1,-1,15,17,19,21,23,25,-1,-1,-1,-1,-1,27,29,31,33,35,-1,-1,-1,-1,-1,-1,37,39,41,43,45,47,-1,-1,-1,-1,-1,-1,-1,-1,-1,-1,-1,-1],"loss_changes":[1.4413743E4,1.3174004E3,8.0571277E2,1.1005859E0,1.1328613E1,3.9653137E1,5.7718506E0,0E0,0E0,8.239746E-4,4.1137695E-2,1.3646545E0,6.334923E0,1.2408077E-1,5.2490234E-3,0E0,0E0,0E0,0E0,0E0,3.2647705E-1,3.4973145E-2,1.1186581E0,1.4867336E-2,2.3898356E-2,0E0,0E0,0E0,0E0,0E0,0E0,3.3454895E-3,1.394856E-1,7.458776E-5,2.5691465E-5,3.5488675E-3,1.1527985E-3,0E0,0E0,0E0,0E0,0E0,0E0,0E0,0E0,0E0,0E0,0E0,0E0],"parents":[2147483647,0,0,1,1,2,2,3,3,4,4,5,5,6,6,9,9,10,10,11,11,12,12,13,13,14,14,20,20,21,21,22,22,23,23,24,24,31,31,32,32,33,33,34,34,35,35,36,36],"right_children":[2,4,6,8,10,12,14,-1,-1,16,18,20,22,24,26,-1,-1,-1,-1,-1,28,30,32,34,36,-1,-1,-1,-1,-1,-1,38,40,42,44,46,48,-1,-1,-1,-1,-1,-1,-1,-1,-1,-1,-1,-1],"split_conditions":[6E-1,2.857143E-1,8.666667E-1,1.6666667E-1,5E-1,7.5E-1,9.4736844E-1,-6.5473475E-2,-4.742035E-2,4E-1,5.714286E-1,6.666667E-1,8E-1,9E-1,1E0,-4.111227E-2,-3.5956338E-2,-2.9023388E-2,-2.3416169E-2,-2.1626329E-2,7E-1,7.692308E-1,8.333333E-1,8.888889E-1,9.230769E-1,3.1933933E-3,7.425288E-3,-1.687277E-2,-1.3408685E-2,-1.0797369E-2,-8.737857E-3,8.125E-1,8.5714287E-1,8.75E-1,8.947368E-1,9.0909094E-1,9.3333334E-1,-7.1515576E-3,-5.8155614E-3,-4.7086035E-3,-2.9804264E-3,-2.2163687E-3,-1.6784609E-3,-6.7125214E-4,-1.8467507E-4,1.3458081E-4,9.4573415E-4,1.992159E-3,2.8062414E-3],"split_indices":[4,4,4,4,4,4,4,0,0,4,4,4,4,4,4,0,0,0,0,0,4,4,4,4,4,0,0,0,0,0,0,4,4,4,4,4,4,0,0,0,0,0,0,0,0,0,0,0,0],"split_type":[0,0,0,0,0,0,0,0,0,0,0,0,0,0,0,0,0,0,0,0,0,0,0,0,0,0,0,0,0,0,0,0,0,0,0,0,0,0,0,0,0,0,0,0,0,0,0,0,0],"sum_hessian":[4.30396E5,4.5621E4,3.84775E5,2.9935E4,1.5686E4,2.1161E4,3.63614E5,2.9889E4,4.6E1,8.75E2,1.4811E4,1.0423E4,1.0738E4,9.29E2,3.62685E5,8.08E2,6.7E1,1.4772E4,3.9E1,6.27E2,9.796E3,5.532E3,5.206E3,6.01E2,3.28E2,5E0,3.6268E5,9.492E3,3.04E2,5.421E3,1.11E2,3.041E3,2.165E3,3.78E2,2.23E2,2.19E2,1.09E2,2.994E3,4.7E1,1.469E3,6.96E2,1.2E1,3.66E2,2.21E2,2E0,1.24E2,9.5E1,7.1E1,3.8E1],"tree_param":{"num_deleted":"0","num_feature":"6","num_nodes":"49","size_leaf_vector":"1"}},{"base_weights":[-2.9002217E-6,-4.783209E-1,5.6710158E-2,-5.890296E-1,-2.6702145E-1,-1.1400912E-1,6.664568E-2,-5.8926344E-2,-4.277921E-2,-3.669187E-2,-2.6109535E-1,-1.5360692E-1,-7.566381E-2,-4.1977004E-3,6.6827156E-2,-2.6121244E-2,-2.1133093E-2,-1.9580934E-2,-1.5101491E-1,-9.686654E-2,-5.3062093E-2,-1.1883995E-2,9.879341E-3,2.9272786E-3,6.6827587E-3,-1.5192272E-2,-1.2121311E-2,-9.722263E-3,-7.871873E-3,-6.419972E-2,-3.7395548E-2,-1.5361936E-2,-6.070823E-3,4.4072545E-3,2.0733703E-2,-6.43482E-3,-5.111709E-3,-4.253206E-3,-2.708502E-3,-2.0117832E-3,-1.5149879E-3,-6.101804E-4,-1.7236471E-4,1.2122975E-4,8.521446E-4,1.7957091E-3,2.5328123E-3],"categories":[],"categories_nodes":[],"categories_segments":[],"categories_sizes":[],"default_left":[0,0,0,0,0,0,0,0,0,0,0,0,0,0,0,0,0,0,0,0,0,0,0,0,0,0,0,0,0,0,0,0,0,0,0,0,0,0,0,0,0,0,0,0,0,0,0],"id":4,"left_children":[1,3,5,7,9,11,13,-1,-1,-1,15,17,19,21,23,-1,-1,-1,25,27,29,31,33,-1,-1,-1,-1,-1,-1,35,37,39,41,43,45,-1,-1,-1,-1,-1,-1,-1,-1,-1,-1,-1,-1],"loss_changes":[1.1675354E4,1.0670645E3,6.5265894E2,8.769531E-1,9.190796E0,3.2120544E1,4.6748047E0,0E0,0E0,0E0,3.1066895E-2,1.1091461E0,5.147896E0,1.0074367E-1,4.0283203E-3,0E0,0E0,0E0,2.470398E-1,2.8190613E-2,9.061575E-1,1.2077913E-2,1.9449908E-2,0E0,0E0,0E0,0E0,0E0,0E0,2.6187897E-3,1.1355972E-1,7.44164E-5,2.00551E-5,2.8814957E-3,9.484403E-4,0E0,0E0,0E0,0E0,0E0,0E0,0E0,0E0,0E0,0E0,0E0,0E0],"parents":[2147483647,0,0,1,1,2,2,3,3,4,4,5,5,6,6,10,10,11,11,12,12,13,13,14,14,18,18,19,19,20,20,21,21,22,22,29,29,30,30,31,31,32,32,33,33,34,34],"right_children":[2,4,6,8,10,12,14,-1,-1,-1,16,18,20,22,24,-1,-1,-1,26,28,30,32,34,-1,-1,-1,-1,-1,-1,36,38,40,42,44,46,-1,-1,-1,-1,-1,-1,-1,-1,-1,-1,-1,-1],"split_conditions":[6E-1,2.857143E-1,8.666667E-1,1.6666667E-1,5E-1,7.2727275E-1,9.4736844E-1,-5.8926344E-2,-4.277921E-2,-3.669187E-2,5.714286E-1,6.25E-1,8E-1,9E-1,1E0,-2.6121244E-2,-2.1133093E-2,-1.9580934E-2,6.923077E-1,7.692308E-1,8.333333E-1,8.8235295E-1,9.230769E-1,2.9272786E-3,6.6827587E-3,-1.5192272E-2,-1.2121311E-2,-9.722263E-3,-7.871873E-3,8.181818E-1,8.4210527E-1,8.75E-1,8.947368E-1,9.0909094E-1,9.3333334E-1,-6.43482E-3,-5.111709E-3,-4.253206E-3,-2.708502E-3,-2.0117832E-3,-1.5149879E-3,-6.101804E-4,-1.7236471E-4,1.2122975E-4,8.521446E-4,1.7957091E-3,2.5328123E-3],"split_indices":[4,4,4,4,4,4,4,0,0,0,4,4,4,4,4,0,0,0,4,4,4,4,4,0,0,0,0,0,0,4,4,4,4,4,4,0,0,0,0,0,0,0,0,0,0,0,0],"split_type":[0,0,0,0,0,0,0,0,0,0,0,0,0,0,0,0,0,0,0,0,0,0,0,0,0,0,0,0,0,0,0,0,0,0,0,0,0,0,0,0,0,0,0,0,0,0,0],"sum_hessian":[4.30396E5,4.5621E4,3.84775E5,2.9935E4,1.5686E4,2.1161E4,3.63614E5,2.9889E4,4.6E1,8.75E2,1.4811E4,1.0409E4,1.0752E4,9.29E2,3.62685E5,1.4772E4,3.9E1,5.98E2,9.811E3,5.546E3,5.206E3,6.01E2,3.28E2,5E0,3.6268E5,9.517E3,2.94E2,5.435E3,1.11E2,3.041E3,2.165E3,3.75E2,2.26E2,2.19E2,1.09E2,3.003E3,3.8E1,1.443E3,7.22E2,1.2E1,3.63E2,2.24E2,2E0,1.24E2,9.5E1,7.1E1,3.8E1],"tree_param":{"num_deleted":"0","num_feature":"6","num_nodes":"47","size_leaf_vector":"1"}},{"base_weights":[-3.2053329E-6,-4.3049288E-1,5.1038958E-2,-5.301301E-1,-2.4032463E-1,-1.02612145E-1,5.9981145E-2,-5.3033907E-2,-3.859231E-2,-3.3026874E-1,-2.34989E-1,-1.3820563E-1,-6.805314E-2,-3.7768758E-3,6.014447E-2,-3.334148E-2,-2.8798357E-2,-2.3509294E-2,-1.907262E-2,-1.7532427E-2,-1.3581218E-1,-8.720664E-2,-4.7831085E-2,-1.07027665E-2,8.907511E-3,2.6833366E-3,6.0144854E-3,-1.3663937E-2,-1.0782582E-2,-8.74394E-3,-7.0303837E-3,-5.7843648E-2,-3.365921E-2,-1.3802791E-2,-5.4098554E-3,2.7937691E-3,1.6840113E-2,-5.799384E-3,-4.720792E-3,-3.8157657E-3,-2.412352E-3,-1.8260808E-3,-1.3607269E-3,-5.4368534E-4,-1.6087294E-4,1.0920315E-4,6.125888E-4,1.2887111E-3,2.0778428E-3],"categories":[],"categories_nodes":[],"categories_segments":[],"categories_sizes":[],"default_left":[0,0,0,0,0,0,0,0,0,0,0,0,0,0,0,0,0,0,0,0,0,0,0,0,0,0,0,0,0,0,0,0,0,0,0,0,0,0,0,0,0,0,0,0,0,0,0,0,0],"id":5,"left_children":[1,3,5,7,9,11,13,-1,-1,15,17,19,21,23,25,-1,-1,-1,-1,-1,27,29,31,33,35,-1,-1,-1,-1,-1,-1,37,39,41,43,45,47,-1,-1,-1,-1,-1,-1,-1,-1,-1,-1,-1,-1],"loss_changes":[9.457189E3,8.6431055E2,5.286796E2,6.972656E-1,7.4506836E0,2.6021454E1,3.786621E0,0E0,0E0,2.0523071E-2,2.331543E-2,9.0226746E-1,4.1552887E0,8.179646E-2,2.9296875E-3,0E0,0E0,0E0,0E0,0E0,2.1206665E-1,1.5544891E-2,7.396059E-1,9.803042E-3,1.5908752E-2,0E0,0E0,0E0,0E0,0E0,0E0,2.152443E-3,9.199166E-2,8.187443E-5,1.42408535E-5,1.0536733E-3,1.9584745E-3,0E0,0E0,0E0,0E0,0E0,0E0,0E0,0E0,0E0,0E0,0E0,0E0],"parents":[2147483647,0,0,1,1,2,2,3,3,4,4,5,5,6,6,9,9,10,10,11,11,12,12,13,13,14,14,20,20,21,21,22,22,23,23,24,24,31,31,32,32,33,33,34,34,35,35,36,36],"right_children":[2,4,6,8,10,12,14,-1,-1,16,18,20,22,24,26,-1,-1,-1,-1,-1,28,30,32,34,36,-1,-1,-1,-1,-1,-1,38,40,42,44,46,48,-1,-1,-1,-1,-1,-1,-1,-1,-1,-1,-1,-1],"split_conditions":[6E-1,2.857143E-1,8.666667E-1,1.6666667E-1,5E-1,7.5E-1,9.4736844E-1,-5.3033907E-2,-3.859231E-2,4E-1,5.714286E-1,6.666667E-1,7.8571427E-1,9E-1,1E0,-3.334148E-2,-2.8798357E-2,-2.3509294E-2,-1.907262E-2,-1.7532427E-2,7.1428573E-1,7.777778E-1,8.333333E-1,8.888889E-1,9.166667E-1,2.6833366E-3,6.0144854E-3,-1.3663937E-2,-1.0782582E-2,-8.74394E-3,-7.0303837E-3,8.125E-1,8.5714287E-1,8.75E-1,8.947368E-1,9.0909094E-1,9.285714E-1,-5.799384E-3,-4.720792E-3,-3.8157657E-3,-2.412352E-3,-1.8260808E-3,-1.3607269E-3,-5.4368534E-4,-1.6087294E-4,1.0920315E-4,6.125888E-4,1.2887111E-3,2.0778428E-3],"split_indices":[4,4,4,4,4,4,4,0,0,4,4,4,4,4,4,0,0,0,0,0,4,4,4,4,4,0,0,0,0,0,0,4,4,4,4,4,4,0,0,0,0,0,0,0,0,0,0,0,0],"split_type":[0,0,0,0,0,0,0,0,0,0,0,0,0,0,0,0,0,0,0,0,0,0,0,0,0,0,0,0,0,0,0,0,0,0,0,0,0,0,0,0,0,0,0,0,0,0,0,0,0],"sum_hessian":[4.30396E5,4.5621E4,3.84775E5,2.9935E4,1.5686E4,2.1161E4,3.63614E5,2.9889E4,4.6E1,8.75E2,1.4811E4,1.0423E4,1.0738E4,9.29E2,3.62685E5,8.08E2,6.7E1,1.4772E4,3.9E1,6.27E2,9.796E3,5.513E3,5.225E3,6.01E2,3.28E2,5E0,3.6268E5,9.511E3,2.85E2,5.434E3,7.9E1,3.06E3,2.165E3,3.78E2,2.23E2,1.86E2,1.42E2,3.013E3,4.7E1,1.469E3,6.96E2,1.2E1,3.66E2,2.21E2,2E0,1.24E2,6.2E1,7.3E1,6.9E1],"tree_param":{"num_deleted":"0","num_feature":"6","num_nodes":"49","size_leaf_vector":"1"}},{"base_weights":[-3.477098E-6,-3.874479E-1,4.593491E-2,-4.771201E-1,-2.1629886E-1,-9.235444E-2,5.3983074E-2,-4.7730695E-2,-3.4815192E-2,-2.973128E-1,-2.11493E-1,-1.2438908E-1,-6.1250843E-2,-3.4940392E-3,5.412983E-2,-3.0011449E-2,-2.5960876E-2,-2.1158528E-2,-1.7213041E-2,-1.5875792E-2,-1.22281276E-1,-7.8431055E-2,-4.2983245E-2,-9.63895E-3,7.864031E-3,2.5056952E-3,5.4130405E-3,-1.2305774E-2,-9.796842E-3,-7.871552E-3,-6.3959467E-3,-5.2002728E-2,-3.0296152E-2,-1.246319E-2,-4.918453E-3,3.54344E-3,1.6673991E-2,-5.2121296E-3,-4.1536703E-3,-3.4468665E-3,-2.1920763E-3,-1.657517E-3,-1.2282095E-3,-4.942153E-4,-1.5014807E-4,9.837094E-5,6.839512E-4,1.4575756E-3,2.0407296E-3],"categories":[],"categories_nodes":[],"categories_segments":[],"categories_sizes":[],"default_left":[0,0,0,0,0,0,0,0,0,0,0,0,0,0,0,0,0,0,0,0,0,0,0,0,0,0,0,0,0,0,0,0,0,0,0,0,0,0,0,0,0,0,0,0,0,0,0,0,0],"id":6,"left_children":[1,3,5,7,9,11,13,-1,-1,15,17,19,21,23,25,-1,-1,-1,-1,-1,27,29,31,33,35,-1,-1,-1,-1,-1,-1,37,39,41,43,45,47,-1,-1,-1,-1,-1,-1,-1,-1,-1,-1,-1,-1],"loss_changes":[7.6604697E3,7.000718E2,4.2825122E2,5.546875E-1,6.0448E0,2.1078049E1,3.0673828E0,0E0,0E0,1.461792E-2,1.739502E-2,7.3573303E-1,3.36697E0,6.477515E-2,4.638672E-3,0E0,0E0,0E0,0E0,0E0,1.7344666E-1,1.7745972E-2,5.942669E-1,7.964455E-3,1.2349857E-2,0E0,0E0,0E0,0E0,0E0,0E0,1.6098022E-3,7.49383E-2,7.641688E-5,1.0962132E-5,1.8494243E-3,5.407166E-4,0E0,0E0,0E0,0E0,0E0,0E0,0E0,0E0,0E0,0E0,0E0,0E0],"parents":[2147483647,0,0,1,1,2,2,3,3,4,4,5,5,6,6,9,9,10,10,11,11,12,12,13,13,14,14,20,20,21,21,22,22,23,23,24,24,31,31,32,32,33,33,34,34,35,35,36,36],"right_children":[2,4,6,8,10,12,14,-1,-1,16,18,20,22,24,26,-1,-1,-1,-1,-1,28,30,32,34,36,-1,-1,-1,-1,-1,-1,38,40,42,44,46,48,-1,-1,-1,-1,-1,-1,-1,-1,-1,-1,-1,-1],"split_conditions":[6E-1,2.857143E-1,8.666667E-1,1.6666667E-1,5E-1,7.5E-1,9.411765E-1,-4.7730695E-2,-3.4815192E-2,4E-1,5.714286E-1,6.25E-1,8E-1,9E-1,1E0,-3.0011449E-2,-2.5960876E-2,-2.1158528E-2,-1.7213041E-2,-1.5875792E-2,6.923077E-1,7.692308E-1,8.333333E-1,8.8235295E-1,9.230769E-1,2.5056952E-3,5.4130405E-3,-1.2305774E-2,-9.796842E-3,-7.871552E-3,-6.3959467E-3,8.181818E-1,8.4210527E-1,8.75E-1,8.947368E-1,9.0909094E-1,9.3333334E-1,-5.2121296E-3,-4.1536703E-3,-3.4468665E-3,-2.1920763E-3,-1.657517E-3,-1.2282095E-3,-4.942153E-4,-1.5014807E-4,9.837094E-5,6.839512E-4,1.4575756E-3,2.0407296E-3],"split_indices":[4,4,4,4,4,4,4,0,0,4,4,4,4,4,4,0,0,0,0,0,4,4,4,4,4,0,0,0,0,0,0,4,4,4,4,4,4,0,0,0,0,0,0,0,0,0,0,0,0],"split_type":[0,0,0,0,0,0,0,0,0,0,0,0,0,0,0,0,0,0,0,0,0,0,0,0,0,0,0,0,0,0,0,0,0,0,0,0,0,0,0,0,0,0,0,0,0,0,0,0,0],"sum_hessian":[4.30396E5,4.5621E4,3.84775E5,2.9935E4,1.5686E4,2.1161E4,3.63614E5,2.9889E4,4.6E1,8.75E2,1.4811E4,1.0423E4,1.0738E4,9.26E2,3.62688E5,8.08E2,6.7E1,1.4772E4,3.9E1,5.98E2,9.825E3,5.532E3,5.206E3,6.01E2,3.25E2,8E0,3.6268E5,9.517E3,3.08E2,5.421E3,1.11E2,3.041E3,2.165E3,3.75E2,2.26E2,2.19E2,1.06E2,3.003E3,3.8E1,1.443E3,7.22E2,1.2E1,3.63E2,2.24E2,2E0,1.24E2,9.5E1,7.1E1,3.5E1],"tree_param":{"num_deleted":"0","num_feature":"6","num_nodes":"49","size_leaf_vector":"1"}},{"base_weights":[-3.689242E-6,-3.48707E-1,4.1341253E-2,-4.2940715E-1,-1.9466715E-1,-8.312216E-2,4.8584778E-2,-4.2957786E-2,-3.141599E-2,-2.675878E-1,-1.903463E-1,-1.11953795E-1,-5.5128478E-2,-3.1438156E-3,4.8716858E-2,-2.7008085E-2,-2.3402965E-2,-1.9042818E-2,-1.5534769E-2,-1.4290861E-2,-1.1005538E-1,-7.059052E-2,-3.86878E-2,-8.680906E-3,7.0907627E-3,2.2829645E-3,4.8717367E-3,-1.1075324E-2,-8.820328E-3,-7.083047E-3,-5.670404E-3,-4.6805535E-2,-2.7269132E-2,-1.1198175E-2,-4.3830243E-3,2.2262647E-3,1.3537695E-2,-4.692591E-3,-3.831987E-3,-3.1024176E-3,-1.9731715E-3,-1.504513E-3,-1.1031394E-3,-4.4035734E-4,-1.4013848E-4,8.861484E-5,4.849888E-4,1.0522926E-3,1.6665383E-3],"categories":[],"categories_nodes":[],"categories_segments":[],"categories_sizes":[],"default_left":[0,0,0,0,0,0,0,0,0,0,0,0,0,0,0,0,0,0,0,0,0,0,0,0,0,0,0,0,0,0,0,0,0,0,0,0,0,0,0,0,0,0,0,0,0,0,0,0,0],"id":7,"left_children":[1,3,5,7,9,11,13,-1,-1,15,17,19,21,23,25,-1,-1,-1,-1,-1,27,29,31,33,35,-1,-1,-1,-1,-1,-1,37,39,41,43,45,47,-1,-1,-1,-1,-1,-1,-1,-1,-1,-1,-1,-1],"loss_changes":[6.205099E3,5.670454E2,3.469002E2,4.5361328E-1,4.8914185E0,1.7073761E1,2.484436E0,0E0,0E0,9.990692E-3,1.2878418E-2,5.9684753E-1,2.727188E0,5.259445E-2,3.6621094E-3,0E0,0E0,0E0,0E0,0E0,1.4007568E-1,1.4419556E-2,4.8138046E-1,6.4639114E-3,1.0193575E-2,0E0,0E0,0E0,0E0,0E0,0E0,1.308918E-3,6.0692787E-2,7.719919E-5,7.5534917E-6,6.531868E-4,1.1447258E-3,0E0,0E0,0E0,0E0,0E0,0E0,0E0,0E0,0E0,0E0,0E0,0E0],"parents":[2147483647,0,0,1,1,2,2,3,3,4,4,5,5,6,6,9,9,10,10,11,11,12,12,13,13,14,14,20,20,21,21,22,22,23,23,24,24,31,31,32,32,33,33,34,34,35,35,36,36],"right_children":[2,4,6,8,10,12,14,-1,-1,16,18,20,22,24,26,-1,-1,-1,-1,-1,28,30,32,34,36,-1,-1,-1,-1,-1,-1,38,40,42,44,46,48,-1,-1,-1,-1,-1,-1,-1,-1,-1,-1,-1,-1],"split_conditions":[6E-1,3.3333334E-1,8.666667E-1,1.6666667E-1,5E-1,7.5E-1,9.411765E-1,-4.2957786E-2,-3.141599E-2,4E-1,5.714286E-1,6.25E-1,8E-1,9E-1,1E0,-2.7008085E-2,-2.3402965E-2,-1.9042818E-2,-1.5534769E-2,-1.4290861E-2,6.923077E-1,7.777778E-1,8.333333E-1,8.888889E-1,9.166667E-1,2.2829645E-3,4.8717367E-3,-1.1075324E-2,-8.820328E-3,-7.083047E-3,-5.670404E-3,8.125E-1,8.4210527E-1,8.75E-1,8.947368E-1,9.0909094E-1,9.285714E-1,-4.692591E-3,-3.831987E-3,-3.1024176E-3,-1.9731715E-3,-1.504513E-3,-1.1031394E-3,-4.4035734E-4,-1.4013848E-4,8.861484E-5,4.849888E-4,1.0522926E-3,1.6665383E-3],"split_indices":[4,4,4,4,4,4,4,0,0,4,4,4,4,4,4,0,0,0,0,0,4,4,4,4,4,0,0,0,0,0,0,4,4,4,4,4,4,0,0,0,0,0,0,0,0,0,0,0,0],"split_type":[0,0,0,0,0,0,0,0,0,0,0,0,0,0,0,0,0,0,0,0,0,0,0,0,0,0,0,0,0,0,0,0,0,0,0,0,0,0,0,0,0,0,0,0,0,0,0,0,0],"sum_hessian":[4.30396E5,4.5621E4,3.84775E5,2.9936E4,1.5685E4,2.1161E4,3.63614E5,2.9889E4,4.7E1,8.74E2,1.4811E4,1.0423E4,1.0738E4,9.26E2,3.62688E5,8.07E2,6.7E1,1.4772E4,3.9E1,5.98E2,9.825E3,5.532E3,5.206E3,6.01E2,3.25E2,8E0,3.6268E5,9.517E3,3.08E2,5.434E3,9.8E1,3.041E3,2.165E3,3.78E2,2.23E2,1.86E2,1.39E2,2.994E3,4.7E1,1.443E3,7.22E2,1.2E1,3.66E2,2.21E2,2E0,1.24E2,6.2E1,7.3E1,6.6E1],"tree_param":{"num_deleted":"0","num_feature":"6","num_nodes":"49","size_leaf_vector":"1"}},{"base_weights":[-3.806579E-6,-3.138398E-1,3.7207E-2,-3.8646892E-1,-1.7520587E-1,-7.48128E-2,4.372633E-2,-3.866164E-2,-2.799041E-2,-2.4088667E-1,-1.7131403E-1,-1.00761704E-1,-4.961807E-2,-2.8293175E-3,4.38452E-2,-2.4310622E-2,-2.1097083E-2,-1.7138667E-2,-1.402013E-2,-1.2801446E-2,-9.900448E-2,-6.353376E-2,-3.4821622E-2,-7.818096E-3,6.3917693E-3,2.0800333E-3,4.3845656E-3,-9.960972E-3,-7.85288E-3,-6.3763657E-3,-5.1836874E-3,-4.2127762E-2,-2.4544565E-2,-1.0111502E-2,-3.984886E-3,2.848173E-3,1.3617932E-2,-4.223486E-3,-3.456772E-3,-2.7841805E-3,-1.7555346E-3,-1.3656323E-3,-9.957122E-4,-4.0028684E-4,-1.3079644E-4,7.9822545E-5,5.487707E-4,1.2179475E-3,1.7848893E-3],"categories":[],"categories_nodes":[],"categories_segments":[],"categories_sizes":[],"default_left":[0,0,0,0,0,0,0,0,0,0,0,0,0,0,0,0,0,0,0,0,0,0,0,0,0,0,0,0,0,0,0,0,0,0,0,0,0,0,0,0,0,0,0,0,0,0,0,0,0],"id":8,"left_children":[1,3,5,7,9,11,13,-1,-1,15,17,19,21,23,25,-1,-1,-1,-1,-1,27,29,31,33,35,-1,-1,-1,-1,-1,-1,37,39,41,43,45,47,-1,-1,-1,-1,-1,-1,-1,-1,-1,-1,-1,-1],"loss_changes":[5.026227E3,4.5929346E2,2.810028E2,3.623047E-1,3.9684143E0,1.3830185E1,2.0123901E0,0E0,0E0,6.8092346E-3,9.460449E-3,4.865265E-1,2.2089806E0,4.269379E-2,2.9296875E-3,0E0,0E0,0E0,0E0,0E0,1.13586426E-1,1.15737915E-2,3.8993645E-1,5.2519515E-3,8.308967E-3,0E0,0E0,0E0,0E0,0E0,0E0,1.0027885E-3,4.9427032E-2,6.978959E-5,5.6910794E-6,1.186019E-3,4.338175E-4,0E0,0E0,0E0,0E0,0E0,0E0,0E0,0E0,0E0,0E0,0E0,0E0],"parents":[2147483647,0,0,1,1,2,2,3,3,4,4,5,5,6,6,9,9,10,10,11,11,12,12,13,13,14,14,20,20,21,21,22,22,23,23,24,24,31,31,32,32,33,33,34,34,35,35,36,36],"right_children":[2,4,6,8,10,12,14,-1,-1,16,18,20,22,24,26,-1,-1,-1,-1,-1,28,30,32,34,36,-1,-1,-1,-1,-1,-1,38,40,42,44,46,48,-1,-1,-1,-1,-1,-1,-1,-1,-1,-1,-1,-1],"split_conditions":[6E-1,3.3333334E-1,8.666667E-1,2E-1,5E-1,7.5E-1,9.411765E-1,-3.866164E-2,-2.799041E-2,4E-1,5.714286E-1,6.666667E-1,8E-1,9E-1,1E0,-2.4310622E-2,-2.1097083E-2,-1.7138667E-2,-1.402013E-2,-1.2801446E-2,7.1428573E-1,7.692308E-1,8.333333E-1,8.8235295E-1,9.230769E-1,2.0800333E-3,4.3845656E-3,-9.960972E-3,-7.85288E-3,-6.3763657E-3,-5.1836874E-3,8.125E-1,8.5714287E-1,8.75E-1,8.947368E-1,9.0909094E-1,9.375E-1,-4.223486E-3,-3.456772E-3,-2.7841805E-3,-1.7555346E-3,-1.3656323E-3,-9.957122E-4,-4.0028684E-4,-1.3079644E-4,7.9822545E-5,5.487707E-4,1.2179475E-3,1.7848893E-3],"split_indices":[4,4,4,4,4,4,4,0,0,4,4,4,4,4,4,0,0,0,0,0,4,4,4,4,4,0,0,0,0,0,0,4,4,4,4,4,4,0,0,0,0,0,0,0,0,0,0,0,0],"split_type":[0,0,0,0,0,0,0,0,0,0,0,0,0,0,0,0,0,0,0,0,0,0,0,0,0,0,0,0,0,0,0,0,0,0,0,0,0,0,0,0,0,0,0,0,0,0,0,0,0],"sum_hessian":[4.30396E5,4.5621E4,3.84775E5,2.9936E4,1.5685E4,2.1161E4,3.63614E5,2.9892E4,4.4E1,8.74E2,1.4811E4,1.0423E4,1.0738E4,9.26E2,3.62688E5,8.07E2,6.7E1,1.4772E4,3.9E1,6.27E2,9.796E3,5.532E3,5.206E3,6.01E2,3.25E2,8E0,3.6268E5,9.511E3,2.85E2,5.421E3,1.11E2,3.041E3,2.165E3,3.75E2,2.26E2,2.19E2,1.06E2,2.994E3,4.7E1,1.469E3,6.96E2,1.2E1,3.63E2,2.24E2,2E0,1.24E2,9.5E1,8.2E1,2.4E1],"tree_param":{"num_deleted":"0","num_feature":"6","num_nodes":"49","size_leaf_vector":"1"}},{"base_weights":[-3.8798735E-6,-2.8245896E-1,3.3486165E-2,-3.4782425E-1,-1.5769017E-1,-6.733409E-2,3.9353706E-2,-3.4796115E-2,-2.5532419E-2,-2.1684988E-1,-1.5418474E-1,-9.071979E-2,-4.46881E-2,-2.5455903E-3,3.9460685E-2,-2.1882566E-2,-1.9018402E-2,-1.5424917E-2,-1.2653166E-2,-1.1586151E-2,-8.91757E-2,-5.7208277E-2,-3.1341814E-2,-7.0410944E-3,5.763732E-3,1.8951424E-3,3.9461087E-3,-8.971053E-3,-7.1617486E-3,-5.7402155E-3,-4.5959554E-3,-3.7927974E-2,-2.2106742E-2,-9.085145E-3,-3.5512005E-3,1.7718185E-3,1.1054618E-2,-3.8002667E-3,-3.0433864E-3,-2.5155013E-3,-1.5971194E-3,-1.2395711E-3,-8.943122E-4,-3.5666963E-4,-1.2207827E-4,7.190533E-5,3.8325143E-4,8.581743E-4,1.362086E-3],"categories":[],"categories_nodes":[],"categories_segments":[],"categories_sizes":[],"default_left":[0,0,0,0,0,0,0,0,0,0,0,0,0,0,0,0,0,0,0,0,0,0,0,0,0,0,0,0,0,0,0,0,0,0,0,0,0,0,0,0,0,0,0,0,0,0,0,0,0],"id":9,"left_children":[1,3,5,7,9,11,13,-1,-1,15,17,19,21,23,25,-1,-1,-1,-1,-1,27,29,31,33,35,-1,-1,-1,-1,-1,-1,37,39,41,43,45,47,-1,-1,-1,-1,-1,-1,-1,-1,-1,-1,-1,-1],"loss_changes":[4.0713215E3,3.7201733E2,2.2762335E2,2.902832E-1,3.219513E0,1.1203178E1,1.6299438E0,0E0,0E0,4.4784546E-3,6.8969727E-3,3.937912E-1,1.7950115E0,3.466829E-2,2.2583008E-3,0E0,0E0,0E0,0E0,0E0,8.571625E-2,9.460449E-3,3.1587029E-1,4.262116E-3,6.8657827E-3,0E0,0E0,0E0,0E0,0E0,0E0,5.440712E-4,4.0183425E-2,6.733835E-5,3.7348364E-6,4.029274E-4,7.7154674E-4,0E0,0E0,0E0,0E0,0E0,0E0,0E0,0E0,0E0,0E0,0E0,0E0],"parents":[2147483647,0,0,1,1,2,2,3,3,4,4,5,5,6,6,9,9,10,10,11,11,12,12,13,13,14,14,20,20,21,21,22,22,23,23,24,24,31,31,32,32,33,33,34,34,35,35,36,36],"right_children":[2,4,6,8,10,12,14,-1,-1,16,18,20,22,24,26,-1,-1,-1,-1,-1,28,30,32,34,36,-1,-1,-1,-1,-1,-1,38,40,42,44,46,48,-1,-1,-1,-1,-1,-1,-1,-1,-1,-1,-1,-1],"split_conditions":[6E-1,3.3333334E-1,8.666667E-1,1.6666667E-1,5E-1,7.2727275E-1,9.411765E-1,-3.4796115E-2,-2.5532419E-2,4E-1,5.714286E-1,6.25E-1,8E-1,9E-1,1E0,-2.1882566E-2,-1.9018402E-2,-1.5424917E-2,-1.2653166E-2,-1.1586151E-2,6.923077E-1,7.777778E-1,8.235294E-1,8.888889E-1,9.166667E-1,1.8951424E-3,3.9461087E-3,-8.971053E-3,-7.1617486E-3,-5.7402155E-3,-4.5959554E-3,8.181818E-1,8.4210527E-1,8.75E-1,8.947368E-1,9.0909094E-1,9.285714E-1,-3.8002667E-3,-3.0433864E-3,-2.5155013E-3,-1.5971194E-3,-1.2395711E-3,-8.943122E-4,-3.5666963E-4,-1.2207827E-4,7.190533E-5,3.8325143E-4,8.581743E-4,1.362086E-3],"split_indices":[4,4,4,4,4,4,4,0,0,4,4,4,4,4,4,0,0,0,0,0,4,4,4,4,4,0,0,0,0,0,0,4,4,4,4,4,4,0,0,0,0,0,0,0,0,0,0,0,0],"split_type":[0,0,0,0,0,0,0,0,0,0,0,0,0,0,0,0,0,0,0,0,0,0,0,0,0,0,0,0,0,0,0,0,0,0,0,0,0,0,0,0,0,0,0,0,0,0,0,0,0],"sum_hessian":[4.30396E5,4.5621E4,3.84775E5,2.9936E4,1.5685E4,2.1161E4,3.63614E5,2.9889E4,4.7E1,8.74E2,1.4811E4,1.0409E4,1.0752E4,9.26E2,3.62688E5,8.07E2,6.7E1,1.4772E4,3.9E1,5.98E2,9.811E3,5.546E3,5.206E3,6.01E2,3.25E2,8E0,3.6268E5,9.517E3,2.94E2,5.448E3,9.8E1,3.037E3,2.169E3,3.78E2,2.23E2,1.86E2,1.39E2,3.003E3,3.4E1,1.447E3,7.22E2,1.2E1,3.66E2,2.21E2,2E0,1.24E2,6.2E1,7.3E1,6.6E1],"tree_param":{"num_deleted":"0","num_feature":"6","num_nodes":"49","size_leaf_vector":"1"}},{"base_weights":[-3.907141E-6,-2.542159E-1,3.0137422E-2,-3.1304386E-1,-1.4192556E-1,-6.0603008E-2,3.541833E-2,-3.1316206E-2,-2.2757066E-2,-1.952116E-1,-1.3876818E-1,-8.162366E-2,-4.0193297E-2,-2.2909623E-3,3.5514615E-2,-1.9697014E-2,-1.714453E-2,-1.3882532E-2,-1.1419482E-2,-1.0378647E-2,-8.019467E-2,-5.1503662E-2,-2.8251935E-2,-6.341325E-3,5.19557E-3,1.7266863E-3,3.5514974E-3,-8.068411E-3,-6.363629E-3,-5.1649283E-3,-4.246016E-3,-3.4163963E-2,-1.9883992E-2,-8.203698E-3,-3.2285785E-3,2.2889625E-3,1.1123216E-2,-3.424912E-3,-2.8105038E-3,-2.2561967E-3,-1.4207514E-3,-1.1251469E-3,-8.072311E-4,-3.242085E-4,-1.1394024E-4,6.477452E-5,4.402121E-4,9.873355E-4,1.4827823E-3],"categories":[],"categories_nodes":[],"categories_segments":[],"categories_sizes":[],"default_left":[0,0,0,0,0,0,0,0,0,0,0,0,0,0,0,0,0,0,0,0,0,0,0,0,0,0,0,0,0,0,0,0,0,0,0,0,0,0,0,0,0,0,0,0,0,0,0,0,0],"id":10,"left_children":[1,3,5,7,9,11,13,-1,-1,15,17,19,21,23,25,-1,-1,-1,-1,-1,27,29,31,33,35,-1,-1,-1,-1,-1,-1,37,39,41,43,45,47,-1,-1,-1,-1,-1,-1,-1,-1,-1,-1,-1,-1],"loss_changes":[3.297833E3,3.0132593E2,1.8438379E2,2.3120117E-1,2.6119995E0,9.075745E0,1.320282E0,0E0,0E0,2.7999878E-3,4.91333E-3,3.218155E-1,1.448967E0,2.8142527E-2,1.739502E-3,0E0,0E0,0E0,0E0,0E0,7.42569E-2,5.068779E-3,2.5785875E-1,3.4633651E-3,5.591304E-3,0E0,0E0,0E0,0E0,0E0,0E0,6.1655045E-4,3.2605827E-2,5.9740618E-5,2.71108E-6,7.601421E-4,3.490355E-4,0E0,0E0,0E0,0E0,0E0,0E0,0E0,0E0,0E0,0E0,0E0,0E0],"parents":[2147483647,0,0,1,1,2,2,3,3,4,4,5,5,6,6,9,9,10,10,11,11,12,12,13,13,14,14,20,20,21,21,22,22,23,23,24,24,31,31,32,32,33,33,34,34,35,35,36,36],"right_children":[2,4,6,8,10,12,14,-1,-1,16,18,20,22,24,26,-1,-1,-1,-1,-1,28,30,32,34,36,-1,-1,-1,-1,-1,-1,38,40,42,44,46,48,-1,-1,-1,-1,-1,-1,-1,-1,-1,-1,-1,-1],"split_conditions":[6E-1,3.3333334E-1,8.666667E-1,2E-1,5E-1,7.5E-1,9.411765E-1,-3.1316206E-2,-2.2757066E-2,4E-1,5.714286E-1,6.666667E-1,7.8571427E-1,9E-1,1E0,-1.9697014E-2,-1.714453E-2,-1.3882532E-2,-1.1419482E-2,-1.0378647E-2,7.1428573E-1,7.692308E-1,8.333333E-1,8.8235295E-1,9.230769E-1,1.7266863E-3,3.5514974E-3,-8.068411E-3,-6.363629E-3,-5.1649283E-3,-4.246016E-3,8.125E-1,8.5714287E-1,8.75E-1,8.947368E-1,9.0909094E-1,9.375E-1,-3.424912E-3,-2.8105038E-3,-2.2561967E-3,-1.4207514E-3,-1.1251469E-3,-8.072311E-4,-3.242085E-4,-1.1394024E-4,6.477452E-5,4.402121E-4,9.873355E-4,1.4827823E-3],"split_indices":[4,4,4,4,4,4,4,0,0,4,4,4,4,4,4,0,0,0,0,0,4,4,4,4,4,0,0,0,0,0,0,4,4,4,4,4,4,0,0,0,0,0,0,0,0,0,0,0,0],"split_type":[0,0,0,0,0,0,0,0,0,0,0,0,0,0,0,0,0,0,0,0,0,0,0,0,0,0,0,0,0,0,0,0,0,0,0,0,0,0,0,0,0,0,0,0,0,0,0,0,0],"sum_hessian":[4.30396E5,4.5621E4,3.84775E5,2.9936E4,1.5685E4,2.1161E4,3.63614E5,2.9892E4,4.4E1,8.74E2,1.4811E4,1.0423E4,1.0738E4,9.26E2,3.62688E5,8.07E2,6.7E1,1.4772E4,3.9E1,6.27E2,9.796E3,5.513E3,5.225E3,6.01E2,3.25E2,8E0,3.6268E5,9.511E3,2.85E2,5.421E3,9.2E1,3.06E3,2.165E3,3.75E2,2.26E2,2.19E2,1.06E2,3.013E3,4.7E1,1.469E3,6.96E2,1.2E1,3.63E2,2.24E2,2E0,1.24E2,9.5E1,8.2E1,2.4E1],"tree_param":{"num_deleted":"0","num_feature":"6","num_nodes":"49","size_leaf_vector":"1"}},{"base_weights":[-3.863711E-6,-2.2879685E-1,2.7123593E-2,-2.8174126E-1,-1.2773699E-1,-5.454481E-2,3.187653E-2,-2.8185105E-2,-2.075058E-2,-1.7573255E-1,-1.2489308E-1,-7.34637E-2,-3.6175776E-2,-2.0612266E-3,3.1963184E-2,-1.772975E-2,-1.5455291E-2,-1.2494374E-2,-1.0306083E-2,-9.393338E-3,-7.2208375E-2,-4.63208E-2,-2.5388649E-2,-5.7111406E-3,4.685121E-3,1.573203E-3,3.1963498E-3,-7.2647855E-3,-5.7294914E-3,-4.647542E-3,-3.736452E-3,-3.071439E-2,-1.7897284E-2,-7.370925E-3,-2.8773479E-3,1.4081588E-3,9.028741E-3,-3.0781755E-3,-2.4738028E-3,-2.0307289E-3,-1.2788816E-3,-1.0212862E-3,-7.250173E-4,-2.8888995E-4,-1.0634264E-4,5.834732E-5,3.022088E-4,7.7092485E-4,1.2626463E-3],"categories":[],"categories_nodes":[],"categories_segments":[],"categories_sizes":[],"default_left":[0,0,0,0,0,0,0,0,0,0,0,0,0,0,0,0,0,0,0,0,0,0,0,0,0,0,0,0,0,0,0,0,0,0,0,0,0,0,0,0,0,0,0,0,0,0,0,0,0],"id":11,"left_children":[1,3,5,7,9,11,13,-1,-1,15,17,19,21,23,25,-1,-1,-1,-1,-1,27,29,31,33,35,-1,-1,-1,-1,-1,-1,37,39,41,43,45,47,-1,-1,-1,-1,-1,-1,-1,-1,-1,-1,-1,-1],"loss_changes":[2.6712964E3,2.4406665E2,1.4935828E2,1.8579102E-1,2.1190796E0,7.351597E0,1.0693665E0,0E0,0E0,1.6021729E-3,3.5247803E-3,2.6107025E-1,1.1740532E0,2.2852823E-2,1.373291E-3,0E0,0E0,0E0,0E0,0E0,6.0237885E-2,5.9251785E-3,2.0719433E-1,2.8102882E-3,4.6275295E-3,0E0,0E0,0E0,0E0,0E0,0E0,4.632473E-4,2.6406765E-2,5.601719E-5,1.6213162E-6,2.4713064E-4,5.67263E-4,0E0,0E0,0E0,0E0,0E0,0E0,0E0,0E0,0E0,0E0,0E0,0E0],"parents":[2147483647,0,0,1,1,2,2,3,3,4,4,5,5,6,6,9,9,10,10,11,11,12,12,13,13,14,14,20,20,21,21,22,22,23,23,24,24,31,31,32,32,33,33,34,34,35,35,36,36],"right_children":[2,4,6,8,10,12,14,-1,-1,16,18,20,22,24,26,-1,-1,-1,-1,-1,28,30,32,34,36,-1,-1,-1,-1,-1,-1,38,40,42,44,46,48,-1,-1,-1,-1,-1,-1,-1,-1,-1,-1,-1,-1],"split_conditions":[6E-1,3.3333334E-1,8.666667E-1,1.6666667E-1,5E-1,7.5E-1,9.411765E-1,-2.8185105E-2,-2.075058E-2,4E-1,5.714286E-1,6.25E-1,8E-1,9E-1,1E0,-1.772975E-2,-1.5455291E-2,-1.2494374E-2,-1.0306083E-2,-9.393338E-3,7.1428573E-1,7.777778E-1,8.333333E-1,8.888889E-1,9.166667E-1,1.573203E-3,3.1963498E-3,-7.2647855E-3,-5.7294914E-3,-4.647542E-3,-3.736452E-3,8.181818E-1,8.5714287E-1,8.75E-1,8.947368E-1,9.0909094E-1,9.3333334E-1,-3.0781755E-3,-2.4738028E-3,-2.0307289E-3,-1.2788816E-3,-1.0212862E-3,-7.250173E-4,-2.8888995E-4,-1.0634264E-4,5.834732E-5,3.022088E-4,7.7092485E-4,1.2626463E-3],"split_indices":[4,4,4,4,4,4,4,0,0,4,4,4,4,4,4,0,0,0,0,0,4,4,4,4,4,0,0,0,0,0,0,4,4,4,4,4,4,0,0,0,0,0,0,0,0,0,0,0,0],"split_type":[0,0,0,0,0,0,0,0,0,0,0,0,0,0,0,0,0,0,0,0,0,0,0,0,0,0,0,0,0,0,0,0,0,0,0,0,0,0,0,0,0,0,0,0,0,0,0,0,0],"sum_hessian":[4.30396E5,4.5621E4,3.84775E5,2.9936E4,1.5685E4,2.1161E4,3.63614E5,2.9889E4,4.7E1,8.74E2,1.4811E4,1.0423E4,1.0738E4,9.26E2,3.62688E5,8.07E2,6.7E1,1.4772E4,3.9E1,5.98E2,9.825E3,5.532E3,5.206E3,6.01E2,3.25E2,8E0,3.6268E5,9.54E3,2.85E2,5.434E3,9.8E1,3.041E3,2.165E3,3.78E2,2.23E2,1.86E2,1.39E2,3.003E3,3.8E1,1.469E3,6.96E2,1.2E1,3.66E2,2.21E2,2E0,1.24E2,6.2E1,1.04E2,3.5E1],"tree_param":{"num_deleted":"0","num_feature":"6","num_nodes":"49","size_leaf_vector":"1"}},{"base_weights":[-3.8086457E-6,-2.0591947E-1,2.4411134E-2,-2.5356877E-1,-1.1496684E-1,-4.9092196E-2,2.8688882E-2,-2.5366688E-2,-1.8718753E-2,-1.5819721E-1,-1.124053E-1,-6.611947E-2,-3.2559805E-2,-1.8548239E-3,2.876687E-2,-1.595897E-2,-1.3932489E-2,-1.124502E-2,-9.301242E-3,-8.414424E-3,-6.495731E-2,-4.1690223E-2,-2.2851493E-2,-5.1435707E-3,4.2239507E-3,1.4333626E-3,2.8767148E-3,-6.5370523E-3,-5.20578E-3,-4.183862E-3,-3.413412E-3,-2.7644789E-2,-1.6109083E-2,-6.6559156E-3,-2.615883E-3,1.8286478E-3,9.1093965E-3,-2.7712926E-3,-2.2817506E-3,-1.8343909E-3,-1.1623333E-3,-9.270155E-4,-6.5442646E-4,-2.6259015E-4,-9.925366E-5,5.2558706E-5,3.506293E-4,8.0710923E-4,1.2192193E-3],"categories":[],"categories_nodes":[],"categories_segments":[],"categories_sizes":[],"default_left":[0,0,0,0,0,0,0,0,0,0,0,0,0,0,0,0,0,0,0,0,0,0,0,0,0,0,0,0,0,0,0,0,0,0,0,0,0,0,0,0,0,0,0,0,0,0,0,0,0],"id":12,"left_children":[1,3,5,7,9,11,13,-1,-1,15,17,19,21,23,25,-1,-1,-1,-1,-1,27,29,31,33,35,-1,-1,-1,-1,-1,-1,37,39,41,43,45,47,-1,-1,-1,-1,-1,-1,-1,-1,-1,-1,-1,-1],"loss_changes":[2.1637913E3,1.9768884E2,1.2098602E2,1.4746094E-1,1.719223E0,5.9549828E0,8.6621094E-1,0E0,0E0,7.610321E-4,2.4414062E-3,2.1289444E-1,9.50964E-1,1.8553894E-2,1.0375977E-3,0E0,0E0,0E0,0E0,0E0,4.881668E-2,4.7750473E-3,1.6783619E-1,2.283875E-3,3.7982333E-3,0E0,0E0,0E0,0E0,0E0,0E0,3.681183E-4,2.1500647E-2,4.90807E-5,1.0855729E-6,4.7909323E-4,2.4409126E-4,0E0,0E0,0E0,0E0,0E0,0E0,0E0,0E0,0E0,0E0,0E0,0E0],"parents":[2147483647,0,0,1,1,2,2,3,3,4,4,5,5,6,6,9,9,10,10,11,11,12,12,13,13,14,14,20,20,21,21,22,22,23,23,24,24,31,31,32,32,33,33,34,34,35,35,36,36],"right_children":[2,4,6,8,10,12,14,-1,-1,16,18,20,22,24,26,-1,-1,-1,-1,-1,28,30,32,34,36,-1,-1,-1,-1,-1,-1,38,40,42,44,46,48,-1,-1,-1,-1,-1,-1,-1,-1,-1,-1,-1,-1],"split_conditions":[6E-1,3.3333334E-1,8.666667E-1,1.6666667E-1,5E-1,7.5E-1,9.411765E-1,-2.5366688E-2,-1.8718753E-2,4E-1,5.714286E-1,6.666667E-1,8E-1,9E-1,1E0,-1.595897E-2,-1.3932489E-2,-1.124502E-2,-9.301242E-3,-8.414424E-3,6.923077E-1,7.692308E-1,8.333333E-1,8.8235295E-1,9.230769E-1,1.4333626E-3,2.8767148E-3,-6.5370523E-3,-5.20578E-3,-4.183862E-3,-3.413412E-3,8.125E-1,8.4210527E-1,8.75E-1,8.947368E-1,9.0909094E-1,9.375E-1,-2.7712926E-3,-2.2817506E-3,-1.8343909E-3,-1.1623333E-3,-9.270155E-4,-6.5442646E-4,-2.6259015E-4,-9.925366E-5,5.2558706E-5,3.506293E-4,8.0710923E-4,1.2192193E-3],"split_indices":[4,4,4,4,4,4,4,0,0,4,4,4,4,4,4,0,0,0,0,0,4,4,4,4,4,0,0,0,0,0,0,4,4,4,4,4,4,0,0,0,0,0,0,0,0,0,0,0,0],"split_type":[0,0,0,0,0,0,0,0,0,0,0,0,0,0,0,0,0,0,0,0,0,0,0,0,0,0,0,0,0,0,0,0,0,0,0,0,0,0,0,0,0,0,0,0,0,0,0,0,0],"sum_hessian":[4.30396E5,4.5621E4,3.84775E5,2.9936E4,1.5685E4,2.1161E4,3.63614E5,2.9889E4,4.7E1,8.74E2,1.4811E4,1.0423E4,1.0738E4,9.26E2,3.62688E5,8.07E2,6.7E1,1.4772E4,3.9E1,6.27E2,9.796E3,5.532E3,5.206E3,6.01E2,3.25E2,8E0,3.6268E5,9.488E3,3.08E2,5.421E3,1.11E2,3.041E3,2.165E3,3.75E2,2.26E2,2.19E2,1.06E2,2.994E3,4.7E1,1.443E3,7.22E2,1.2E1,3.63E2,2.24E2,2E0,1.24E2,9.5E1,8.2E1,2.4E1],"tree_param":{"num_deleted":"0","num_feature":"6","num_nodes":"49","size_leaf_vector":"1"}},{"base_weights":[-3.7047928E-6,-1.8532959E-1,2.1969957E-2,-2.2821335E-1,-1.0347338E-1,-4.4184644E-2,2.5820022E-2,-2.2829829E-2,-1.667271E-2,-1.4241166E-1,-1.0116617E-1,-5.952978E-2,-2.932488E-2,-1.6688245E-3,2.589021E-2,-1.4365047E-2,-1.25597315E-2,-1.0120595E-2,-8.394371E-3,-7.57432E-3,-5.848291E-2,-3.7539847E-2,-2.0567872E-2,-4.6324474E-3,3.808997E-3,1.3059516E-3,2.5890458E-3,-5.8834134E-3,-4.6987175E-3,-3.7664731E-3,-3.0286869E-3,-2.4881946E-2,-1.4499552E-2,-5.980224E-3,-2.3313773E-4,1.1181519E-3,7.3759905E-3,-2.493569E-3,-2.010441E-3,-1.6456681E-3,-1.035109E-3,-8.4144337E-4,-5.877704E-4,4.7343634E-5,2.3796009E-4,6.2897004E-4,1.0339448E-3],"categories":[],"categories_nodes":[],"categories_segments":[],"categories_sizes":[],"default_left":[0,0,0,0,0,0,0,0,0,0,0,0,0,0,0,0,0,0,0,0,0,0,0,0,0,0,0,0,0,0,0,0,0,0,0,0,0,0,0,0,0,0,0,0,0,0,0],"id":13,"left_children":[1,3,5,7,9,11,13,-1,-1,15,17,19,21,23,25,-1,-1,-1,-1,-1,27,29,31,33,35,-1,-1,-1,-1,-1,-1,37,39,41,-1,43,45,-1,-1,-1,-1,-1,-1,-1,-1,-1,-1],"loss_changes":[1.7527048E3,1.6012341E2,9.80034E1,1.1804199E-1,1.3948059E0,4.8237267E0,7.016144E-1,0E0,0E0,1.8310547E-4,1.6479492E-3,1.722641E-1,7.727823E-1,1.5066746E-2,8.087158E-4,0E0,0E0,0E0,0E0,0E0,3.673172E-2,3.8838387E-3,1.3595438E-1,1.8530581E-3,3.1207749E-3,0E0,0E0,0E0,0E0,0E0,0E0,2.79665E-4,1.7415553E-2,4.512444E-5,0E0,1.5095602E-4,3.8565276E-4,0E0,0E0,0E0,0E0,0E0,0E0,0E0,0E0,0E0,0E0],"parents":[2147483647,0,0,1,1,2,2,3,3,4,4,5,5,6,6,9,9,10,10,11,11,12,12,13,13,14,14,20,20,21,21,22,22,23,23,24,24,31,31,32,32,33,33,35,35,36,36],"right_children":[2,4,6,8,10,12,14,-1,-1,16,18,20,22,24,26,-1,-1,-1,-1,-1,28,30,32,34,36,-1,-1,-1,-1,-1,-1,38,40,42,-1,44,46,-1,-1,-1,-1,-1,-1,-1,-1,-1,-1],"split_conditions":[6E-1,3.3333334E-1,8.666667E-1,2E-1,5E-1,7.2727275E-1,9.411765E-1,-2.2829829E-2,-1.667271E-2,4E-1,5.714286E-1,6.666667E-1,8E-1,9E-1,1E0,-1.4365047E-2,-1.25597315E-2,-1.0120595E-2,-8.394371E-3,-7.57432E-3,6.923077E-1,7.777778E-1,8.333333E-1,8.888889E-1,9.166667E-1,1.3059516E-3,2.5890458E-3,-5.8834134E-3,-4.6987175E-3,-3.7664731E-3,-3.0286869E-3,8.181818E-1,8.5714287E-1,8.75E-1,-2.3313773E-4,9.0909094E-1,9.3333334E-1,-2.493569E-3,-2.010441E-3,-1.6456681E-3,-1.035109E-3,-8.4144337E-4,-5.877704E-4,4.7343634E-5,2.3796009E-4,6.2897004E-4,1.0339448E-3],"split_indices":[4,4,4,4,4,4,4,0,0,4,4,4,4,4,4,0,0,0,0,0,4,4,4,4,4,0,0,0,0,0,0,4,4,4,0,4,4,0,0,0,0,0,0,0,0,0,0],"split_type":[0,0,0,0,0,0,0,0,0,0,0,0,0,0,0,0,0,0,0,0,0,0,0,0,0,0,0,0,0,0,0,0,0,0,0,0,0,0,0,0,0,0,0,0,0,0,0],"sum_hessian":[4.30396E5,4.5621E4,3.84775E5,2.9936E4,1.5685E4,2.1161E4,3.63614E5,2.9892E4,4.4E1,8.74E2,1.4811E4,1.0409E4,1.0752E4,9.26E2,3.62688E5,8.07E2,6.7E1,1.4772E4,3.9E1,6.27E2,9.782E3,5.546E3,5.206E3,6.01E2,3.25E2,8E0,3.6268E5,9.488E3,2.94E2,5.448E3,9.8E1,3.041E3,2.165E3,3.78E2,2.23E2,1.86E2,1.39E2,3.003E3,3.8E1,1.469E3,6.96E2,1.2E1,3.66E2,1.24E2,6.2E1,1.04E2,3.5E1],"tree_param":{"num_deleted":"0","num_feature":"6","num_nodes":"47","size_leaf_vector":"1"}},{"base_weights":[-3.5986773E-6,-1.667985E-1,1.9772887E-2,-2.0539334E-1,-9.3128964E-2,-3.976771E-2,2.3238031E-2,-2.0547198E-2,-1.5214858E-2,-1.28201265E-2,-9.105082E-2,-5.3561147E-2,-2.6375158E-2,-1.5016376E-3,2.33012E-2,-9.108606E-3,-7.5759203E-3,-6.859366E-3,-5.2639306E-2,-3.376982E-2,-1.8512467E-2,-4.1719787E-3,3.4340888E-3,1.1283659E-3,2.33014E-3,-5.295987E-3,-4.176127E-3,-3.3889718E-3,-2.7663873E-3,-2.239524E-2,-1.3050828E-2,-5.4002614E-3,-2.1190874E-4,1.4595246E-3,7.4618463E-3,-2.2449803E-3,-1.8524157E-3,-1.4866242E-3,-9.406971E-4,-7.637721E-4,-5.305516E-4,4.2648888E-5,2.78942E-4,6.598662E-4,1.0029145E-3],"categories":[],"categories_nodes":[],"categories_segments":[],"categories_sizes":[],"default_left":[0,0,0,0,0,0,0,0,0,0,0,0,0,0,0,0,0,0,0,0,0,0,0,0,0,0,0,0,0,0,0,0,0,0,0,0,0,0,0,0,0,0,0,0,0],"id":14,"left_children":[1,3,5,7,9,11,13,-1,-1,-1,15,17,19,21,23,-1,-1,-1,25,27,29,31,33,-1,-1,-1,-1,-1,-1,35,37,39,-1,41,43,-1,-1,-1,-1,-1,-1,-1,-1,-1,-1],"loss_changes":[1.4197183E3,1.2969629E2,7.938666E1,9.411621E-2,1.131607E0,3.9078293E0,5.6825256E-1,0E0,0E0,0E0,1.0757446E-3,1.4084053E-1,6.237607E-1,1.2232254E-2,6.4086914E-4,0E0,0E0,0E0,3.2051086E-2,3.1137466E-3,1.10129E-1,1.5065176E-3,2.581809E-3,0E0,0E0,0E0,0E0,0E0,0E0,2.2673607E-4,1.4188439E-2,3.9185397E-5,0E0,3.0105282E-4,1.7093867E-4,0E0,0E0,0E0,0E0,0E0,0E0,0E0,0E0,0E0,0E0],"parents":[2147483647,0,0,1,1,2,2,3,3,4,4,5,5,6,6,10,10,11,11,12,12,13,13,14,14,18,18,19,19,20,20,21,21,22,22,29,29,30,30,31,31,33,33,34,34],"right_children":[2,4,6,8,10,12,14,-1,-1,-1,16,18,20,22,24,-1,-1,-1,26,28,30,32,34,-1,-1,-1,-1,-1,-1,36,38,40,-1,42,44,-1,-1,-1,-1,-1,-1,-1,-1,-1,-1],"split_conditions":[6E-1,3.3333334E-1,8.666667E-1,1.6666667E-1,5E-1,7.5E-1,9.411765E-1,-2.0547198E-2,-1.5214858E-2,-1.28201265E-2,5.714286E-1,6.25E-1,8E-1,9E-1,9.5E-1,-9.108606E-3,-7.5759203E-3,-6.859366E-3,7.1428573E-1,7.692308E-1,8.333333E-1,8.8235295E-1,9.230769E-1,1.1283659E-3,2.33014E-3,-5.295987E-3,-4.176127E-3,-3.3889718E-3,-2.7663873E-3,8.125E-1,8.4210527E-1,8.75E-1,-2.1190874E-4,9.0909094E-1,9.375E-1,-2.2449803E-3,-1.8524157E-3,-1.4866242E-3,-9.406971E-4,-7.637721E-4,-5.305516E-4,4.2648888E-5,2.78942E-4,6.598662E-4,1.0029145E-3],"split_indices":[4,4,4,4,4,4,4,0,0,0,4,4,4,4,4,0,0,0,4,4,4,4,4,0,0,0,0,0,0,4,4,4,0,4,4,0,0,0,0,0,0,0,0,0,0],"split_type":[0,0,0,0,0,0,0,0,0,0,0,0,0,0,0,0,0,0,0,0,0,0,0,0,0,0,0,0,0,0,0,0,0,0,0,0,0,0,0,0,0,0,0,0,0],"sum_hessian":[4.30396E5,4.5621E4,3.84775E5,2.9936E4,1.5685E4,2.1161E4,3.63614E5,2.9889E4,4.7E1,8.74E2,1.4811E4,1.0423E4,1.0738E4,9.26E2,3.62688E5,1.4772E4,3.9E1,5.98E2,9.825E3,5.532E3,5.206E3,6.01E2,3.25E2,7E0,3.62681E5,9.54E3,2.85E2,5.421E3,1.11E2,3.041E3,2.165E3,3.75E2,2.26E2,2.19E2,1.06E2,2.994E3,4.7E1,1.443E3,7.22E2,1.2E1,3.63E2,1.24E2,9.5E1,8.2E1,2.4E1],"tree_param":{"num_deleted":"0","num_feature":"6","num_nodes":"45","size_leaf_vector":"1"}},{"base_weights":[-3.4351856E-6,-1.5012008E-1,1.7795548E-2,-1.8485521E-1,-8.381795E-2,-3.577627E-2,2.0915192E-2,-1.8492324E-2,-1.3554814E-2,-1.1539579E-1,-8.194687E-2,-4.8206594E-2,-2.3720691E-2,-1.2701919E-3,2.0971105E-2,-1.16498945E-2,-1.0059071E-2,-8.197808E-3,-6.8372674E-3,-6.1745746E-3,-4.737633E-2,-3.0417858E-2,-1.6666109E-2,-3.6809596E-3,3.0967505E-3,1.029633E-3,2.0971282E-3,-4.7664433E-3,-3.7599732E-3,-3.0501343E-3,-2.5223582E-3,-2.0177457E-2,-1.1723546E-2,-4.7650535E-4,-1.8883555E-3,8.87095E-4,6.026099E-3,-2.0225977E-3,-1.6710354E-3,-1.3380672E-3,-8.4519637E-4,-1.8968583E-4,-6.297032E-5,3.8415335E-5,1.8709141E-4,4.550432E-4,7.565999E-4],"categories":[],"categories_nodes":[],"categories_segments":[],"categories_sizes":[],"default_left":[0,0,0,0,0,0,0,0,0,0,0,0,0,0,0,0,0,0,0,0,0,0,0,0,0,0,0,0,0,0,0,0,0,0,0,0,0,0,0,0,0,0,0,0,0,0,0],"id":15,"left_children":[1,3,5,7,9,11,13,-1,-1,15,17,19,21,23,25,-1,-1,-1,-1,-1,27,29,31,33,35,-1,-1,-1,-1,-1,-1,37,39,-1,41,43,45,-1,-1,-1,-1,-1,-1,-1,-1,-1,-1],"loss_changes":[1.1499907E3,1.0505249E2,6.430644E1,7.537842E-2,9.1735077E-1,3.1718807E0,4.5106506E-1,0E0,0E0,2.5730133E-3,6.790161E-4,1.1425209E-1,5.07432E-1,9.64423E-3,4.7302246E-4,0E0,0E0,0E0,0E0,0E0,2.5884628E-2,1.6217232E-3,9.0669155E-2,1.137577E-3,2.1048032E-3,0E0,0E0,0E0,0E0,0E0,0E0,1.7690659E-4,1.1694759E-2,0E0,1.2028031E-6,9.180955E-5,2.837046E-4,0E0,0E0,0E0,0E0,0E0,0E0,0E0,0E0,0E0,0E0],"parents":[2147483647,0,0,1,1,2,2,3,3,4,4,5,5,6,6,9,9,10,10,11,11,12,12,13,13,14,14,20,20,21,21,22,22,23,23,24,24,31,31,32,32,34,34,35,35,36,36],"right_children":[2,4,6,8,10,12,14,-1,-1,16,18,20,22,24,26,-1,-1,-1,-1,-1,28,30,32,34,36,-1,-1,-1,-1,-1,-1,38,40,-1,42,44,46,-1,-1,-1,-1,-1,-1,-1,-1,-1,-1],"split_conditions":[6E-1,3.3333334E-1,8.75E-1,2E-1,5E-1,7.5E-1,9.411765E-1,-1.8492324E-2,-1.3554814E-2,4E-1,5.714286E-1,6.25E-1,7.8571427E-1,9E-1,9.5E-1,-1.16498945E-2,-1.0059071E-2,-8.197808E-3,-6.8372674E-3,-6.1745746E-3,7.1428573E-1,7.692308E-1,8.333333E-1,8.888889E-1,9.166667E-1,1.029633E-3,2.0971282E-3,-4.7664433E-3,-3.7599732E-3,-3.0501343E-3,-2.5223582E-3,8.125E-1,8.4210527E-1,-4.7650535E-4,8.947368E-1,9.0909094E-1,9.285714E-1,-2.0225977E-3,-1.6710354E-3,-1.3380672E-3,-8.4519637E-4,-1.8968583E-4,-6.297032E-5,3.8415335E-5,1.8709141E-4,4.550432E-4,7.565999E-4],"split_indices":[4,4,4,4,4,4,4,0,0,4,4,4,4,4,4,0,0,0,0,0,4,4,4,4,4,0,0,0,0,0,0,4,4,0,4,4,4,0,0,0,0,0,0,0,0,0,0],"split_type":[0,0,0,0,0,0,0,0,0,0,0,0,0,0,0,0,0,0,0,0,0,0,0,0,0,0,0,0,0,0,0,0,0,0,0,0,0,0,0,0,0,0,0,0,0,0,0],"sum_hessian":[4.30396E5,4.5621E4,3.84775E5,2.9936E4,1.5685E4,2.1173E4,3.63602E5,2.9892E4,4.4E1,8.74E2,1.4811E4,1.0423E4,1.075E4,9.14E2,3.62688E5,8.07E2,6.7E1,1.4772E4,3.9E1,5.98E2,9.825E3,5.513E3,5.237E3,5.89E2,3.25E2,7E0,3.62681E5,9.54E3,2.85E2,5.421E3,9.2E1,3.06E3,2.177E3,3.66E2,2.23E2,1.86E2,1.39E2,3.013E3,4.7E1,1.443E3,7.34E2,2.21E2,2E0,1.24E2,6.2E1,7.3E1,6.6E1],"tree_param":{"num_deleted":"0","num_feature":"6","num_nodes":"47","size_leaf_vector":"1"}},{"base_weights":[-3.3045822E-6,-1.3510959E-1,1.6015936E-2,-1.6637075E-1,-7.5438514E-2,-3.221434E-2,1.8822841E-2,-1.6643375E-2,-1.2366968E-2,-1.0388102E-1,-7.375322E-2,-4.3387327E-2,-2.1366082E-2,-1.2139122E-3,1.8874E-2,-1.0486346E-2,-9.067957E-3,-7.378085E-3,-6.1706356E-3,-5.5304985E-3,-4.261896E-2,-2.7356628E-2,-1.4996376E-2,-3.380924E-3,2.7914715E-3,9.728332E-4,1.8874176E-3,-4.2889966E-3,-3.4158935E-3,-2.7446446E-3,-2.2149377E-3,-1.8140508E-2,-1.0573732E-2,-4.376708E-3,-1.7166258E-4,1.1723646E-3,6.0943877E-3,-1.8178975E-3,-1.4712429E-3,-1.2007746E-3,-7.5341697E-4,-6.15252E-4,-4.301262E-4,3.4601595E-5,2.2361272E-4,5.3445733E-4,8.3399966E-4],"categories":[],"categories_nodes":[],"categories_segments":[],"categories_sizes":[],"default_left":[0,0,0,0,0,0,0,0,0,0,0,0,0,0,0,0,0,0,0,0,0,0,0,0,0,0,0,0,0,0,0,0,0,0,0,0,0,0,0,0,0,0,0,0,0,0,0],"id":16,"left_children":[1,3,5,7,9,11,13,-1,-1,15,17,19,21,23,25,-1,-1,-1,-1,-1,27,29,31,33,35,-1,-1,-1,-1,-1,-1,37,39,41,-1,43,45,-1,-1,-1,-1,-1,-1,-1,-1,-1,-1],"loss_changes":[9.3151044E2,8.509009E1,5.2090744E1,5.999756E-2,7.442398E-1,2.564064E0,3.7277222E-1,0E0,0E0,1.8396378E-3,3.7384033E-4,9.309769E-2,4.09369E-1,8.055533E-3,3.9672852E-4,0E0,0E0,0E0,0E0,0E0,2.0998001E-2,1.9798279E-3,7.221353E-2,9.901705E-4,1.7362298E-3,0E0,0E0,0E0,0E0,0E0,0E0,1.3363361E-4,9.350643E-3,2.3911707E-5,0E0,1.9261483E-4,1.3559172E-4,0E0,0E0,0E0,0E0,0E0,0E0,0E0,0E0,0E0,0E0],"parents":[2147483647,0,0,1,1,2,2,3,3,4,4,5,5,6,6,9,9,10,10,11,11,12,12,13,13,14,14,20,20,21,21,22,22,23,23,24,24,31,31,32,32,33,33,35,35,36,36],"right_children":[2,4,6,8,10,12,14,-1,-1,16,18,20,22,24,26,-1,-1,-1,-1,-1,28,30,32,34,36,-1,-1,-1,-1,-1,-1,38,40,42,-1,44,46,-1,-1,-1,-1,-1,-1,-1,-1,-1,-1],"split_conditions":[6E-1,3.3333334E-1,8.666667E-1,1.6666667E-1,5E-1,7.5E-1,9.411765E-1,-1.6643375E-2,-1.2366968E-2,4E-1,5.714286E-1,6.666667E-1,8E-1,9E-1,1E0,-1.0486346E-2,-9.067957E-3,-7.378085E-3,-6.1706356E-3,-5.5304985E-3,6.923077E-1,7.777778E-1,8.333333E-1,8.8235295E-1,9.230769E-1,9.728332E-4,1.8874176E-3,-4.2889966E-3,-3.4158935E-3,-2.7446446E-3,-2.2149377E-3,8.181818E-1,8.5714287E-1,8.75E-1,-1.7166258E-4,9.0909094E-1,9.375E-1,-1.8178975E-3,-1.4712429E-3,-1.2007746E-3,-7.5341697E-4,-6.15252E-4,-4.301262E-4,3.4601595E-5,2.2361272E-4,5.3445733E-4,8.3399966E-4],"split_indices":[4,4,4,4,4,4,4,0,0,4,4,4,4,4,4,0,0,0,0,0,4,4,4,4,4,0,0,0,0,0,0,4,4,4,0,4,4,0,0,0,0,0,0,0,0,0,0],"split_type":[0,0,0,0,0,0,0,0,0,0,0,0,0,0,0,0,0,0,0,0,0,0,0,0,0,0,0,0,0,0,0,0,0,0,0,0,0,0,0,0,0,0,0,0,0,0,0],"sum_hessian":[4.30396E5,4.5621E4,3.84775E5,2.9936E4,1.5685E4,2.1161E4,3.63614E5,2.9889E4,4.7E1,8.74E2,1.4811E4,1.0423E4,1.0738E4,9.26E2,3.62688E5,8.07E2,6.7E1,1.4772E4,3.9E1,6.27E2,9.796E3,5.532E3,5.206E3,6.01E2,3.25E2,8E0,3.6268E5,9.488E3,3.08E2,5.434E3,9.8E1,3.041E3,2.165E3,3.75E2,2.26E2,2.19E2,1.06E2,3.003E3,3.8E1,1.469E3,6.96E2,1.2E1,3.63E2,1.24E2,9.5E1,8.2E1,2.4E1],"tree_param":{"num_deleted":"0","num_feature":"6","num_nodes":"47","size_leaf_vector":"1"}},{"base_weights":[-3.185296E-6,-1.2159999E-1,1.4414266E-2,-1.4973465E-1,-6.789676E-2,-2.898103E-2,1.6941302E-2,-1.49789145E-2,-1.1020239E-2,-9.351527E-2,-6.6378795E-2,-3.9049886E-2,-1.921573E-2,-1.0270729E-3,1.6986586E-2,-9.43901E-3,-8.174497E-3,-6.640325E-3,-5.5689993E-3,-5.0060246E-3,-3.8374715E-2,-2.462189E-2,-1.3480626E-2,-2.9837443E-3,2.5172927E-3,8.863615E-4,1.698674E-3,-3.8618085E-3,-3.0754106E-3,-2.4702337E-3,-1.9956843E-3,-1.6332071E-2,-9.504378E-3,-3.8630495E-4,-1.5297766E-3,7.024589E-4,4.923411E-3,-1.636632E-3,-1.3629644E-3,-1.0813436E-3,-6.769461E-4,-1.5371625E-4,-4.733006E-5,3.116627E-5,1.4666982E-4,4.1614412E-4,7.0090627E-4],"categories":[],"categories_nodes":[],"categories_segments":[],"categories_sizes":[],"default_left":[0,0,0,0,0,0,0,0,0,0,0,0,0,0,0,0,0,0,0,0,0,0,0,0,0,0,0,0,0,0,0,0,0,0,0,0,0,0,0,0,0,0,0,0,0,0,0],"id":17,"left_children":[1,3,5,7,9,11,13,-1,-1,15,17,19,21,23,25,-1,-1,-1,-1,-1,27,29,31,33,35,-1,-1,-1,-1,-1,-1,37,39,-1,41,43,45,-1,-1,-1,-1,-1,-1,-1,-1,-1,-1],"loss_changes":[7.545376E2,6.892114E1,4.2195595E1,4.7973633E-2,6.037979E-1,2.08119E0,2.9586792E-1,0E0,0E0,1.294136E-3,1.6784668E-4,7.5572014E-2,3.330021E-1,6.3531813E-3,3.2043457E-4,0E0,0E0,0E0,0E0,0E0,1.7033577E-2,1.5830994E-3,5.9018075E-2,7.483945E-4,1.4200874E-3,0E0,0E0,0E0,0E0,0E0,0E0,5.8174133E-5,7.7387393E-3,0E0,1.0203221E-6,5.5392637E-5,1.9332068E-4,0E0,0E0,0E0,0E0,0E0,0E0,0E0,0E0,0E0,0E0],"parents":[2147483647,0,0,1,1,2,2,3,3,4,4,5,5,6,6,9,9,10,10,11,11,12,12,13,13,14,14,20,20,21,21,22,22,23,23,24,24,31,31,32,32,34,34,35,35,36,36],"right_children":[2,4,6,8,10,12,14,-1,-1,16,18,20,22,24,26,-1,-1,-1,-1,-1,28,30,32,34,36,-1,-1,-1,-1,-1,-1,38,40,-1,42,44,46,-1,-1,-1,-1,-1,-1,-1,-1,-1,-1],"split_conditions":[6E-1,3.3333334E-1,8.75E-1,2E-1,5E-1,7.5E-1,9.411765E-1,-1.49789145E-2,-1.1020239E-2,4E-1,5.714286E-1,6.25E-1,8E-1,9E-1,1E0,-9.43901E-3,-8.174497E-3,-6.640325E-3,-5.5689993E-3,-5.0060246E-3,6.923077E-1,7.777778E-1,8.235294E-1,8.888889E-1,9.166667E-1,8.863615E-4,1.698674E-3,-3.8618085E-3,-3.0754106E-3,-2.4702337E-3,-1.9956843E-3,8.125E-1,8.5714287E-1,-3.8630495E-4,8.947368E-1,9.0909094E-1,9.3333334E-1,-1.636632E-3,-1.3629644E-3,-1.0813436E-3,-6.769461E-4,-1.5371625E-4,-4.733006E-5,3.116627E-5,1.4666982E-4,4.1614412E-4,7.0090627E-4],"split_indices":[4,4,4,4,4,4,4,0,0,4,4,4,4,4,4,0,0,0,0,0,4,4,4,4,4,0,0,0,0,0,0,4,4,0,4,4,4,0,0,0,0,0,0,0,0,0,0],"split_type":[0,0,0,0,0,0,0,0,0,0,0,0,0,0,0,0,0,0,0,0,0,0,0,0,0,0,0,0,0,0,0,0,0,0,0,0,0,0,0,0,0,0,0,0,0,0,0],"sum_hessian":[4.30396E5,4.5621E4,3.84775E5,2.9936E4,1.5685E4,2.1173E4,3.63602E5,2.9892E4,4.4E1,8.74E2,1.4811E4,1.0423E4,1.075E4,9.14E2,3.62688E5,8.07E2,6.7E1,1.4772E4,3.9E1,5.98E2,9.825E3,5.532E3,5.218E3,5.89E2,3.25E2,8E0,3.6268E5,9.517E3,3.08E2,5.434E3,9.8E1,3.037E3,2.181E3,3.66E2,2.23E2,1.86E2,1.39E2,2.994E3,4.3E1,1.473E3,7.08E2,2.21E2,2E0,1.24E2,6.2E1,1.04E2,3.5E1],"tree_param":{"num_deleted":"0","num_feature":"6","num_nodes":"47","size_leaf_vector":"1"}},{"base_weights":[-3.0374913E-6,-1.0944121E-1,1.2972794E-2,-1.3476205E-1,-6.1108995E-2,-2.6095677E-2,1.5246501E-2,-1.3481252E-2,-1.0052227E-2,-8.4183864E-2,-5.974175E-2,-3.515812E-2,-1.7319882E-2,-1.1973769E-3,1.5287397E-2,-8.496276E-3,-7.3690675E-3,-5.976338E-3,-5.0260234E-3,-4.483811E-3,-3.453314E-2,-2.2170639E-2,-1.214906E-2,-2.7399235E-3,1.881466E-3,7.4043724E-4,1.5288073E-3,-3.4732167E-3,-2.7446141E-3,-2.2248009E-3,-1.8217585E-3,-1.4696066E-2,-8.566354E-3,-3.5472903E-3,-1.3905413E-4,6.3315366E-4,3.877612E-3,-1.4726439E-3,-1.1979785E-3,-9.762972E-4,-6.16458E-4,-4.9597485E-4,-3.4871002E-4,2.8073884E-5,1.3223394E-4,2.567279E-4,4.3676567E-4],"categories":[],"categories_nodes":[],"categories_segments":[],"categories_sizes":[],"default_left":[0,0,0,0,0,0,0,0,0,0,0,0,0,0,0,0,0,0,0,0,0,0,0,0,0,0,0,0,0,0,0,0,0,0,0,0,0,0,0,0,0,0,0,0,0,0,0],"id":18,"left_children":[1,3,5,7,9,11,13,-1,-1,15,17,19,21,23,25,-1,-1,-1,-1,-1,27,29,31,33,35,-1,-1,-1,-1,-1,-1,37,39,41,-1,43,45,-1,-1,-1,-1,-1,-1,-1,-1,-1,-1],"loss_changes":[6.1118726E2,5.5824524E1,3.4180153E1,3.8208008E-2,4.898491E-1,1.6824074E0,2.4454498E-1,0E0,0E0,8.90255E-4,3.4332275E-5,6.1431885E-2,2.694416E-1,4.293736E-3,1.8157959E-3,0E0,0E0,0E0,0E0,0E0,1.2845039E-2,1.291275E-3,4.738891E-2,6.509139E-4,7.5007253E-4,0E0,0E0,0E0,0E0,0E0,0E0,7.456541E-5,6.1649084E-3,1.46711245E-5,0E0,4.5047193E-5,6.327324E-5,0E0,0E0,0E0,0E0,0E0,0E0,0E0,0E0,0E0,0E0],"parents":[2147483647,0,0,1,1,2,2,3,3,4,4,5,5,6,6,9,9,10,10,11,11,12,12,13,13,14,14,20,20,21,21,22,22,23,23,24,24,31,31,32,32,33,33,35,35,36,36],"right_children":[2,4,6,8,10,12,14,-1,-1,16,18,20,22,24,26,-1,-1,-1,-1,-1,28,30,32,34,36,-1,-1,-1,-1,-1,-1,38,40,42,-1,44,46,-1,-1,-1,-1,-1,-1,-1,-1,-1,-1],"split_conditions":[6E-1,3.3333334E-1,8.666667E-1,1.6666667E-1,5E-1,7.2727275E-1,9.375E-1,-1.3481252E-2,-1.0052227E-2,4E-1,5.714286E-1,6.666667E-1,8E-1,9E-1,1E0,-8.496276E-3,-7.3690675E-3,-5.976338E-3,-5.0260234E-3,-4.483811E-3,7.1428573E-1,7.692308E-1,8.333333E-1,8.8235295E-1,9.166667E-1,7.4043724E-4,1.5288073E-3,-3.4732167E-3,-2.7446141E-3,-2.2248009E-3,-1.8217585E-3,8.181818E-1,8.4210527E-1,8.75E-1,-1.3905413E-4,9.0909094E-1,9.230769E-1,-1.4726439E-3,-1.1979785E-3,-9.762972E-4,-6.16458E-4,-4.9597485E-4,-3.4871002E-4,2.8073884E-5,1.3223394E-4,2.567279E-4,4.3676567E-4],"split_indices":[4,4,4,4,4,4,4,0,0,4,4,4,4,4,4,0,0,0,0,0,4,4,4,4,4,0,0,0,0,0,0,4,4,4,0,4,4,0,0,0,0,0,0,0,0,0,0],"split_type":[0,0,0,0,0,0,0,0,0,0,0,0,0,0,0,0,0,0,0,0,0,0,0,0,0,0,0,0,0,0,0,0,0,0,0,0,0,0,0,0,0,0,0,0,0,0,0],"sum_hessian":[4.30396E5,4.5621E4,3.84775E5,2.9936E4,1.5685E4,2.1161E4,3.63614E5,2.9889E4,4.7E1,8.74E2,1.4811E4,1.0409E4,1.0752E4,9.02E2,3.62712E5,8.07E2,6.7E1,1.4772E4,3.9E1,6.27E2,9.782E3,5.546E3,5.206E3,6.01E2,3.01E2,3.2E1,3.6268E5,9.511E3,2.71E2,5.435E3,1.11E2,3.041E3,2.165E3,3.75E2,2.26E2,1.86E2,1.15E2,3.003E3,3.8E1,1.443E3,7.22E2,1.2E1,3.63E2,1.24E2,6.2E1,3.3E1,8.2E1],"tree_param":{"num_deleted":"0","num_feature":"6","num_nodes":"47","size_leaf_vector":"1"}},{"base_weights":[-2.88396E-6,-9.84982E-2,1.1675478E-2,-1.2128663E-1,-5.4999825E-2,-2.3487004E-2,1.3721865E-2,-1.2132938E-2,-8.874933E-3,-7.57836E-2,-5.376834E-3,-3.163301E-2,-1.5577751E-2,-1.0777946E-3,1.37586715E-2,-7.6477E-3,-6.6429973E-3,-4.058625E-3,-3.1083994E-2,-1.9959858E-2,-1.0951169E-2,-2.467578E-3,1.6961372E-3,6.6864E-4,1.3759277E-3,-3.1280767E-3,-2.4922225E-3,-2.0013456E-3,-1.6620487E-3,-1.3240767E-2,-7.710445E-3,-3.1948301E-3,-1.2520961E-4,5.706861E-4,3.49582E-3,-1.3271535E-3,-1.1032933E-3,-8.7873236E-4,-5.5490015E-4,-4.5019295E-4,-3.1393708E-4,2.5288964E-5,1.1921761E-4,2.3181122E-4,3.9361362E-4],"categories":[],"categories_nodes":[],"categories_segments":[],"categories_sizes":[],"default_left":[0,0,0,0,0,0,0,0,0,0,0,0,0,0,0,0,0,0,0,0,0,0,0,0,0,0,0,0,0,0,0,0,0,0,0,0,0,0,0,0,0,0,0,0,0],"id":19,"left_children":[1,3,5,7,9,11,13,-1,-1,15,-1,17,19,21,23,-1,-1,-1,25,27,29,31,33,-1,-1,-1,-1,-1,-1,35,37,39,-1,41,43,-1,-1,-1,-1,-1,-1,-1,-1,-1,-1],"loss_changes":[4.9507135E2,4.5216583E1,2.7687271E1,3.0822754E-2,3.9741135E-1,1.3629503E0,1.9808197E-1,0E0,0E0,5.941391E-4,0E0,4.9977303E-2,2.175057E-1,3.4853986E-3,1.4572144E-3,0E0,0E0,0E0,1.1134148E-2,6.54459E-4,3.8674593E-2,5.2814465E-4,6.096925E-4,0E0,0E0,0E0,0E0,0E0,0E0,6.145239E-5,4.9928427E-3,1.3123266E-5,0E0,3.6632387E-5,5.1029027E-5,0E0,0E0,0E0,0E0,0E0,0E0,0E0,0E0,0E0,0E0],"parents":[2147483647,0,0,1,1,2,2,3,3,4,4,5,5,6,6,9,9,11,11,12,12,13,13,14,14,18,18,19,19,20,20,21,21,22,22,29,29,30,30,31,31,33,33,34,34],"right_children":[2,4,6,8,10,12,14,-1,-1,16,-1,18,20,22,24,-1,-1,-1,26,28,30,32,34,-1,-1,-1,-1,-1,-1,36,38,40,-1,42,44,-1,-1,-1,-1,-1,-1,-1,-1,-1,-1],"split_conditions":[6E-1,3.3333334E-1,8.666667E-1,2.5E-1,5E-1,7.5E-1,9.375E-1,-1.2132938E-2,-8.874933E-3,4E-1,-5.376834E-3,6.25E-1,7.8571427E-1,9E-1,1E0,-7.6477E-3,-6.6429973E-3,-4.058625E-3,6.923077E-1,7.692308E-1,8.333333E-1,8.8235295E-1,9.166667E-1,6.6864E-4,1.3759277E-3,-3.1280767E-3,-2.4922225E-3,-2.0013456E-3,-1.6620487E-3,8.125E-1,8.4210527E-1,8.75E-1,-1.2520961E-4,9.0909094E-1,9.230769E-1,-1.3271535E-3,-1.1032933E-3,-8.7873236E-4,-5.5490015E-4,-4.5019295E-4,-3.1393708E-4,2.5288964E-5,1.1921761E-4,2.3181122E-4,3.9361362E-4],"split_indices":[4,4,4,4,4,4,4,0,0,4,0,4,4,4,4,0,0,0,4,4,4,4,4,0,0,0,0,0,0,4,4,4,0,4,4,0,0,0,0,0,0,0,0,0,0],"split_type":[0,0,0,0,0,0,0,0,0,0,0,0,0,0,0,0,0,0,0,0,0,0,0,0,0,0,0,0,0,0,0,0,0,0,0,0,0,0,0,0,0,0,0,0,0],"sum_hessian":[4.30396E5,4.5621E4,3.84775E5,2.9936E4,1.5685E4,2.1161E4,3.63614E5,2.9894E4,4.2E1,8.74E2,1.4811E4,1.0423E4,1.0738E4,9.02E2,3.62712E5,8.07E2,6.7E1,5.98E2,9.825E3,5.513E3,5.225E3,6.01E2,3.01E2,3.2E1,3.6268E5,9.517E3,3.08E2,5.421E3,9.2E1,3.06E3,2.165E3,3.75E2,2.26E2,1.86E2,1.15E2,3.013E3,4.7E1,1.443E3,7.22E2,1.2E1,3.63E2,1.24E2,6.2E1,3.3E1,8.2E1],"tree_param":{"num_deleted":"0","num_feature":"6","num_nodes":"45","size_leaf_vector":"1"}},{"base_weights":[-2.7149097E-6,-8.864928E-2,1.0507903E-2,-1.0915867E-1,-4.9501114E-2,-2.1129653E-2,1.2350251E-2,-1.0919685E-2,-8.008081E-3,-6.822158E-2,-4.8391886E-2,-2.847066E-2,-1.4009964E-2,-7.274807E-4,1.2383319E-3,-6.883877E-3,-5.988467E-3,-4.8411014E-3,-4.0117446E-3,-3.6352265E-3,-2.7962534E-2,-1.7951146E-2,-9.828977E-3,-2.17745E-3,1.8749798E-3,-2.8133122E-3,-2.2191182E-3,-1.800894E-3,-1.4596953E-3,-1.1904067E-2,-6.926197E-3,-2.8202412E-4,-1.1145853E-4,7.6072675E-4,4.086441E-3,-1.1931368E-3,-9.952636E-4,-7.885435E-4,-4.9275986E-4,2.2781946E-5,1.4466923E-4,3.54725E-4,5.538813E-4],"categories":[],"categories_nodes":[],"categories_segments":[],"categories_sizes":[],"default_left":[0,0,0,0,0,0,0,0,0,0,0,0,0,0,0,0,0,0,0,0,0,0,0,0,0,0,0,0,0,0,0,0,0,0,0,0,0,0,0,0,0,0,0],"id":20,"left_children":[1,3,5,7,9,11,13,-1,-1,15,17,19,21,23,-1,-1,-1,-1,-1,-1,25,27,29,31,33,-1,-1,-1,-1,35,37,-1,-1,39,41,-1,-1,-1,-1,-1,-1,-1,-1],"loss_changes":[4.0101483E2,3.6624725E1,2.2427845E1,2.4475098E-2,3.2242203E-1,1.1062756E0,1.5724182E-1,0E0,0E0,3.8003922E-4,4.043579E-4,4.0729523E-2,1.7697859E-1,3.4681452E-3,0E0,0E0,0E0,0E0,0E0,0E0,9.020805E-3,8.097887E-4,3.1354308E-2,3.999446E-4,8.0758915E-4,0E0,0E0,0E0,0E0,4.3332577E-5,4.1366518E-3,0E0,0E0,8.009274E-5,6.64941E-5,0E0,0E0,0E0,0E0,0E0,0E0,0E0,0E0],"parents":[2147483647,0,0,1,1,2,2,3,3,4,4,5,5,6,6,9,9,10,10,11,11,12,12,13,13,20,20,21,21,22,22,23,23,24,24,29,29,30,30,33,33,34,34],"right_children":[2,4,6,8,10,12,14,-1,-1,16,18,20,22,24,-1,-1,-1,-1,-1,-1,26,28,30,32,34,-1,-1,-1,-1,36,38,-1,-1,40,42,-1,-1,-1,-1,-1,-1,-1,-1],"split_conditions":[6E-1,3.3333334E-1,8.75E-1,2.5E-1,5E-1,7.5E-1,9.4736844E-1,-1.0919685E-2,-8.008081E-3,4E-1,5.714286E-1,6.666667E-1,8E-1,9E-1,1.2383319E-3,-6.883877E-3,-5.988467E-3,-4.8411014E-3,-4.0117446E-3,-3.6352265E-3,7.1428573E-1,7.777778E-1,8.333333E-1,8.888889E-1,9.230769E-1,-2.8133122E-3,-2.2191182E-3,-1.800894E-3,-1.4596953E-3,8.125E-1,8.5714287E-1,-2.8202412E-4,-1.1145853E-4,9.0909094E-1,9.375E-1,-1.1931368E-3,-9.952636E-4,-7.885435E-4,-4.9275986E-4,2.2781946E-5,1.4466923E-4,3.54725E-4,5.538813E-4],"split_indices":[4,4,4,4,4,4,4,0,0,4,4,4,4,4,0,0,0,0,0,0,4,4,4,4,4,0,0,0,0,4,4,0,0,4,4,0,0,0,0,0,0,0,0],"split_type":[0,0,0,0,0,0,0,0,0,0,0,0,0,0,0,0,0,0,0,0,0,0,0,0,0,0,0,0,0,0,0,0,0,0,0,0,0,0,0,0,0,0,0],"sum_hessian":[4.30396E5,4.5621E4,3.84775E5,2.9936E4,1.5685E4,2.1173E4,3.63602E5,2.9894E4,4.2E1,8.74E2,1.4811E4,1.0423E4,1.075E4,9.17E2,3.62685E5,8.07E2,6.7E1,1.4772E4,3.9E1,6.27E2,9.796E3,5.532E3,5.218E3,5.89E2,3.28E2,9.511E3,2.85E2,5.434E3,9.8E1,3.041E3,2.177E3,3.66E2,2.23E2,2.19E2,1.09E2,2.994E3,4.7E1,1.469E3,7.08E2,1.24E2,9.5E1,8.2E1,2.7E1],"tree_param":{"num_deleted":"0","num_feature":"6","num_nodes":"43","size_leaf_vector":"1"}},{"base_weights":[-2.5807728E-6,-7.978525E-2,9.457066E-3,-9.824344E-2,-4.4552397E-2,-1.902595E-2,1.111472E-2,-9.827988E-3,-7.3505505E-3,-6.141412E-2,-4.3553304E-2,-2.56244E-2,-1.2619276E-2,-8.7230356E-4,1.1144532E-2,-6.19634E-3,-5.3984257E-3,-4.357025E-3,-3.6205992E-3,-3.290527E-3,-2.5177946E-2,-1.615662E-2,-8.858043E-3,-2.0054097E-3,1.3669598E-3,5.397193E-4,1.1145024E-3,-2.5337497E-3,-2.018185E-3,-1.6208377E-3,-1.315198E-3,-1.0714352E-2,-6.246893E-3,-2.5831352E-3,-1.0100794E-4,4.4353172E-4,2.8597265E-3,-1.0736057E-3,-8.7677577E-4,-7.121158E-4,-4.492142E-4,-3.6315186E-4,-2.5389605E-4,1.9748286E-5,9.324948E-5,2.379419E-4,3.619797E-4],"categories":[],"categories_nodes":[],"categories_segments":[],"categories_sizes":[],"default_left":[0,0,0,0,0,0,0,0,0,0,0,0,0,0,0,0,0,0,0,0,0,0,0,0,0,0,0,0,0,0,0,0,0,0,0,0,0,0,0,0,0,0,0,0,0,0,0],"id":21,"left_children":[1,3,5,7,9,11,13,-1,-1,15,17,19,21,23,25,-1,-1,-1,-1,-1,27,29,31,33,35,-1,-1,-1,-1,-1,-1,37,39,41,-1,43,45,-1,-1,-1,-1,-1,-1,-1,-1,-1,-1],"loss_changes":[3.248282E2,2.9665222E1,1.8167416E1,1.977539E-2,2.615776E-1,8.942814E-1,1.2995148E-1,0E0,0E0,2.257824E-4,2.670288E-4,3.3055782E-2,1.427368E-1,2.2939444E-3,9.651184E-4,0E0,0E0,0E0,0E0,0E0,7.320881E-3,6.4742565E-4,2.5171936E-2,3.424075E-4,4.1778426E-4,0E0,0E0,0E0,0E0,0E0,0E0,3.439188E-5,3.2909065E-3,8.331845E-6,0E0,2.255421E-5,3.3734832E-5,0E0,0E0,0E0,0E0,0E0,0E0,0E0,0E0,0E0,0E0],"parents":[2147483647,0,0,1,1,2,2,3,3,4,4,5,5,6,6,9,9,10,10,11,11,12,12,13,13,14,14,20,20,21,21,22,22,23,23,24,24,31,31,32,32,33,33,35,35,36,36],"right_children":[2,4,6,8,10,12,14,-1,-1,16,18,20,22,24,26,-1,-1,-1,-1,-1,28,30,32,34,36,-1,-1,-1,-1,-1,-1,38,40,42,-1,44,46,-1,-1,-1,-1,-1,-1,-1,-1,-1,-1],"split_conditions":[6E-1,3.3333334E-1,8.666667E-1,1.6666667E-1,5E-1,7.5E-1,9.375E-1,-9.827988E-3,-7.3505505E-3,4E-1,5.714286E-1,6.25E-1,8E-1,8.947368E-1,1E0,-6.19634E-3,-5.3984257E-3,-4.357025E-3,-3.6205992E-3,-3.290527E-3,6.923077E-1,7.777778E-1,8.333333E-1,8.888889E-1,9.166667E-1,5.397193E-4,1.1145024E-3,-2.5337497E-3,-2.018185E-3,-1.6208377E-3,-1.315198E-3,8.181818E-1,8.4210527E-1,8.75E-1,-1.0100794E-4,9.0909094E-1,9.285714E-1,-1.0736057E-3,-8.7677577E-4,-7.121158E-4,-4.492142E-4,-3.6315186E-4,-2.5389605E-4,1.9748286E-5,9.324948E-5,2.379419E-4,3.619797E-4],"split_indices":[4,4,4,4,4,4,4,0,0,4,4,4,4,4,4,0,0,0,0,0,4,4,4,4,4,0,0,0,0,0,0,4,4,4,0,4,4,0,0,0,0,0,0,0,0,0,0],"split_type":[0,0,0,0,0,0,0,0,0,0,0,0,0,0,0,0,0,0,0,0,0,0,0,0,0,0,0,0,0,0,0,0,0,0,0,0,0,0,0,0,0,0,0,0,0,0,0],"sum_hessian":[4.30396E5,4.5621E4,3.84775E5,2.9936E4,1.5685E4,2.1161E4,3.63614E5,2.9889E4,4.7E1,8.74E2,1.4811E4,1.0423E4,1.0738E4,9.02E2,3.62712E5,8.07E2,6.7E1,1.4772E4,3.9E1,5.98E2,9.825E3,5.532E3,5.206E3,5.99E2,3.03E2,3.2E1,3.6268E5,9.517E3,3.08E2,5.434E3,9.8E1,3.041E3,2.165E3,3.78E2,2.21E2,1.88E2,1.15E2,3.003E3,3.8E1,1.443E3,7.22E2,1.2E1,3.66E2,1.26E2,6.2E1,7.3E1,4.2E1],"tree_param":{"num_deleted":"0","num_feature":"6","num_nodes":"47","size_leaf_vector":"1"}},{"base_weights":[-2.4240674E-6,-7.1807526E-2,8.511341E-3,-8.841967E-2,-4.009839E-2,-1.711634E-2,1.0003716E-2,-8.845222E-3,-6.6308076E-3,-5.528595E-2,-3.91985E-2,-2.3062726E-2,-1.1349227E-2,-5.887791E-4,1.0030499E-3,-5.5774716E-3,-4.8665223E-3,-3.9213505E-3,-3.267588E-3,-2.9472478E-3,-2.2649499E-2,-1.45414965E-2,-7.9627205E-3,-1.7650654E-3,1.52246E-3,-2.278786E-3,-1.7968643E-3,-1.4591387E-3,-1.1996478E-3,-9.643564E-3,-5.6114397E-3,-2.2918032E-4,-9.12653E-5,6.123434E-4,3.3288528E-3,-9.6653606E-4,-8.082672E-4,-6.390439E-4,-3.988392E-4,1.8566132E-5,1.1615405E-4,2.8989752E-4,4.4842446E-4],"categories":[],"categories_nodes":[],"categories_segments":[],"categories_sizes":[],"default_left":[0,0,0,0,0,0,0,0,0,0,0,0,0,0,0,0,0,0,0,0,0,0,0,0,0,0,0,0,0,0,0,0,0,0,0,0,0,0,0,0,0,0,0],"id":22,"left_children":[1,3,5,7,9,11,13,-1,-1,15,17,19,21,23,-1,-1,-1,-1,-1,-1,25,27,29,31,33,-1,-1,-1,-1,35,37,-1,-1,39,41,-1,-1,-1,-1,-1,-1,-1,-1],"loss_changes":[2.6311597E2,2.4028152E1,1.4716354E1,1.5670776E-2,2.1221733E-1,7.258682E-1,1.0316086E-1,0E0,0E0,1.1706352E-4,1.6784668E-4,2.6942253E-2,1.1610937E-1,2.2824686E-3,0E0,0E0,0E0,0E0,0E0,0E0,5.935669E-3,5.275011E-4,2.0572066E-2,2.6281714E-4,5.3884677E-4,0E0,0E0,0E0,0E0,2.5361776E-5,2.728276E-3,0E0,0E0,5.1337513E-5,4.1634776E-5,0E0,0E0,0E0,0E0,0E0,0E0,0E0,0E0],"parents":[2147483647,0,0,1,1,2,2,3,3,4,4,5,5,6,6,9,9,10,10,11,11,12,12,13,13,20,20,21,21,22,22,23,23,24,24,29,29,30,30,33,33,34,34],"right_children":[2,4,6,8,10,12,14,-1,-1,16,18,20,22,24,-1,-1,-1,-1,-1,-1,26,28,30,32,34,-1,-1,-1,-1,36,38,-1,-1,40,42,-1,-1,-1,-1,-1,-1,-1,-1],"split_conditions":[6E-1,3.3333334E-1,8.75E-1,1.6666667E-1,5E-1,7.5E-1,9.4736844E-1,-8.845222E-3,-6.6308076E-3,4E-1,5.714286E-1,6.666667E-1,8E-1,9E-1,1.0030499E-3,-5.5774716E-3,-4.8665223E-3,-3.9213505E-3,-3.267588E-3,-2.9472478E-3,7.1428573E-1,7.692308E-1,8.333333E-1,8.8235295E-1,9.230769E-1,-2.278786E-3,-1.7968643E-3,-1.4591387E-3,-1.1996478E-3,8.125E-1,8.5714287E-1,-2.2918032E-4,-9.12653E-5,9.0909094E-1,9.375E-1,-9.6653606E-4,-8.082672E-4,-6.390439E-4,-3.988392E-4,1.8566132E-5,1.1615405E-4,2.8989752E-4,4.4842446E-4],"split_indices":[4,4,4,4,4,4,4,0,0,4,4,4,4,4,0,0,0,0,0,0,4,4,4,4,4,0,0,0,0,4,4,0,0,4,4,0,0,0,0,0,0,0,0],"split_type":[0,0,0,0,0,0,0,0,0,0,0,0,0,0,0,0,0,0,0,0,0,0,0,0,0,0,0,0,0,0,0,0,0,0,0,0,0,0,0,0,0,0,0],"sum_hessian":[4.30396E5,4.5621E4,3.84775E5,2.9936E4,1.5685E4,2.1173E4,3.63602E5,2.9889E4,4.7E1,8.74E2,1.4811E4,1.0423E4,1.075E4,9.17E2,3.62685E5,8.07E2,6.7E1,1.4772E4,3.9E1,6.27E2,9.796E3,5.532E3,5.218E3,5.89E2,3.28E2,9.511E3,2.85E2,5.421E3,1.11E2,3.041E3,2.177E3,3.63E2,2.26E2,2.19E2,1.09E2,2.994E3,4.7E1,1.469E3,7.08E2,1.24E2,9.5E1,8.2E1,2.7E1],"tree_param":{"num_deleted":"0","num_feature":"6","num_nodes":"43","size_leaf_vector":"1"}},{"base_weights":[-2.2649692E-6,-6.4627506E-2,7.6602E-3,-7.957821E-2,-3.6089696E-2,-1.5412229E-2,9.00297E-3,-7.960572E-3,-5.8602723E-3,-4.976929E-2,-3.5279155E-2,-2.076427E-2,-1.0229474E-2,-7.0588704E-4,9.027116E-3,-5.0204145E-3,-4.387028E-3,-3.5292443E-3,-2.9489985E-3,-2.667788E-3,-2.0401143E-2,-1.3104082E-2,-7.1867914E-3,-1.6253465E-3,1.1111576E-3,4.354977E-4,9.027516E-4,-2.0523428E-3,-1.6386549E-3,-1.3138455E-3,-1.0954046E-3,-8.690962E-3,-5.064471E-3,-2.0986435E-3,-8.271909E-5,3.504936E-4,2.3409366E-3,-8.70582E-4,-7.1593083E-4,-5.7739124E-4,-3.6366217E-4,-2.928147E-4,-2.063253E-4,1.6124699E-5,7.264274E-5,1.9361755E-4,2.9830614E-4],"categories":[],"categories_nodes":[],"categories_segments":[],"categories_sizes":[],"default_left":[0,0,0,0,0,0,0,0,0,0,0,0,0,0,0,0,0,0,0,0,0,0,0,0,0,0,0,0,0,0,0,0,0,0,0,0,0,0,0,0,0,0,0,0,0,0,0],"id":23,"left_children":[1,3,5,7,9,11,13,-1,-1,15,17,19,21,23,25,-1,-1,-1,-1,-1,27,29,31,33,35,-1,-1,-1,-1,-1,-1,37,39,41,-1,43,45,-1,-1,-1,-1,-1,-1,-1,-1,-1,-1],"loss_changes":[2.131282E2,1.946222E1,1.1920866E1,1.2619019E-2,1.7217064E-1,5.867858E-1,8.524704E-2,0E0,0E0,4.220009E-5,9.918213E-5,2.1810055E-2,9.3957186E-2,1.5104472E-3,6.389618E-4,0E0,0E0,0E0,0E0,0E0,4.480839E-3,2.6458502E-4,1.6639113E-2,2.249229E-4,2.8355586E-4,0E0,0E0,0E0,0E0,0E0,0E0,7.2419643E-6,2.1771565E-3,4.996429E-6,0E0,1.3329118E-5,2.4373527E-5,0E0,0E0,0E0,0E0,0E0,0E0,0E0,0E0,0E0,0E0],"parents":[2147483647,0,0,1,1,2,2,3,3,4,4,5,5,6,6,9,9,10,10,11,11,12,12,13,13,14,14,20,20,21,21,22,22,23,23,24,24,31,31,32,32,33,33,35,35,36,36],"right_children":[2,4,6,8,10,12,14,-1,-1,16,18,20,22,24,26,-1,-1,-1,-1,-1,28,30,32,34,36,-1,-1,-1,-1,-1,-1,38,40,42,-1,44,46,-1,-1,-1,-1,-1,-1,-1,-1,-1,-1],"split_conditions":[6E-1,3.3333334E-1,8.666667E-1,2.5E-1,5E-1,7.2727275E-1,9.375E-1,-7.960572E-3,-5.8602723E-3,4E-1,5.714286E-1,6.25E-1,7.8571427E-1,8.947368E-1,1E0,-5.0204145E-3,-4.387028E-3,-3.5292443E-3,-2.9489985E-3,-2.667788E-3,6.923077E-1,7.692308E-1,8.235294E-1,8.8235295E-1,9.166667E-1,4.354977E-4,9.027516E-4,-2.0523428E-3,-1.6386549E-3,-1.3138455E-3,-1.0954046E-3,8.181818E-1,8.4210527E-1,8.75E-1,-8.271909E-5,9.0909094E-1,9.285714E-1,-8.70582E-4,-7.1593083E-4,-5.7739124E-4,-3.6366217E-4,-2.928147E-4,-2.063253E-4,1.6124699E-5,7.264274E-5,1.9361755E-4,2.9830614E-4],"split_indices":[4,4,4,4,4,4,4,0,0,4,4,4,4,4,4,0,0,0,0,0,4,4,4,4,4,0,0,0,0,0,0,4,4,4,0,4,4,0,0,0,0,0,0,0,0,0,0],"split_type":[0,0,0,0,0,0,0,0,0,0,0,0,0,0,0,0,0,0,0,0,0,0,0,0,0,0,0,0,0,0,0,0,0,0,0,0,0,0,0,0,0,0,0,0,0,0,0],"sum_hessian":[4.30396E5,4.5621E4,3.84775E5,2.9936E4,1.5685E4,2.1161E4,3.63614E5,2.9894E4,4.2E1,8.74E2,1.4811E4,1.0409E4,1.0752E4,9.02E2,3.62712E5,8.07E2,6.7E1,1.4772E4,3.9E1,5.98E2,9.811E3,5.527E3,5.225E3,5.99E2,3.03E2,3.2E1,3.6268E5,9.517E3,2.94E2,5.435E3,9.2E1,3.056E3,2.169E3,3.75E2,2.24E2,1.88E2,1.15E2,3.022E3,3.4E1,1.447E3,7.22E2,1.2E1,3.63E2,1.26E2,6.2E1,7.3E1,4.2E1],"tree_param":{"num_deleted":"0","num_feature":"6","num_nodes":"47","size_leaf_vector":"1"}},{"base_weights":[-2.146759E-6,-5.81654E-2,6.894136E-3,-7.162085E-2,-3.2481734E-2,-1.38715245E-2,8.102656E-3,-7.164698E-3,-5.385845E-3,-4.4803116E-3,-3.175167E-2,-1.8682295E-2,-9.200574E-3,-5.0749735E-4,8.124712E-3,-3.1763432E-3,-2.661471E-3,-2.3894783E-3,-1.8346261E-2,-1.1779371E-2,-6.458557E-3,-1.4596671E-3,1.2363133E-3,4.6808325E-4,8.1247464E-4,-1.8458143E-3,-1.4561062E-3,-1.1816513E-3,-9.621343E-4,-7.8115943E-3,-4.555327E-3,-1.8860091E-3,-7.317952E-5,4.9311115E-4,2.7114782E-3,-7.828839E-4,-6.5728166E-4,-5.1786355E-4,-3.23421E-4,-2.6578354E-4,-1.8535303E-4,3.217446E-5,1.4211237E-4,2.2767344E-4,3.444557E-4],"categories":[],"categories_nodes":[],"categories_segments":[],"categories_sizes":[],"default_left":[0,0,0,0,0,0,0,0,0,0,0,0,0,0,0,0,0,0,0,0,0,0,0,0,0,0,0,0,0,0,0,0,0,0,0,0,0,0,0,0,0,0,0,0,0],"id":24,"left_children":[1,3,5,7,9,11,13,-1,-1,-1,15,17,19,21,23,-1,-1,-1,25,27,29,31,33,-1,-1,-1,-1,-1,-1,35,37,39,-1,41,43,-1,-1,-1,-1,-1,-1,-1,-1,-1,-1],"loss_changes":[1.7263704E2,1.5763977E1,9.656343E0,1.0025024E-2,1.3968086E-1,4.7535706E-1,6.905556E-2,0E0,0E0,0E0,4.863739E-5,1.7819881E-2,7.58605E-2,1.5459799E-3,5.722046E-6,0E0,0E0,0E0,3.8802624E-3,3.297925E-4,1.3373151E-2,1.8543401E-4,3.593606E-4,0E0,0E0,0E0,0E0,0E0,0E0,1.35451555E-5,1.7668717E-3,4.5744237E-6,0E0,3.452943E-5,2.7214875E-5,0E0,0E0,0E0,0E0,0E0,0E0,0E0,0E0,0E0,0E0],"parents":[2147483647,0,0,1,1,2,2,3,3,4,4,5,5,6,6,10,10,11,11,12,12,13,13,14,14,18,18,19,19,20,20,21,21,22,22,29,29,30,30,31,31,33,33,34,34],"right_children":[2,4,6,8,10,12,14,-1,-1,-1,16,18,20,22,24,-1,-1,-1,26,28,30,32,34,-1,-1,-1,-1,-1,-1,36,38,40,-1,42,44,-1,-1,-1,-1,-1,-1,-1,-1,-1,-1],"split_conditions":[6E-1,3.3333334E-1,8.666667E-1,1.6666667E-1,5E-1,7.5E-1,9.4736844E-1,-7.164698E-3,-5.385845E-3,-4.4803116E-3,5.714286E-1,6.666667E-1,8E-1,9E-1,1E0,-3.1763432E-3,-2.661471E-3,-2.3894783E-3,7.1428573E-1,7.777778E-1,8.333333E-1,8.888889E-1,9.230769E-1,4.6808325E-4,8.1247464E-4,-1.8458143E-3,-1.4561062E-3,-1.1816513E-3,-9.621343E-4,8.125E-1,8.5714287E-1,8.75E-1,-7.317952E-5,9.166667E-1,9.3333334E-1,-7.828839E-4,-6.5728166E-4,-5.1786355E-4,-3.23421E-4,-2.6578354E-4,-1.8535303E-4,3.217446E-5,1.4211237E-4,2.2767344E-4,3.444557E-4],"split_indices":[4,4,4,4,4,4,4,0,0,0,4,4,4,4,4,0,0,0,4,4,4,4,4,0,0,0,0,0,0,4,4,4,0,4,4,0,0,0,0,0,0,0,0,0,0],"split_type":[0,0,0,0,0,0,0,0,0,0,0,0,0,0,0,0,0,0,0,0,0,0,0,0,0,0,0,0,0,0,0,0,0,0,0,0,0,0,0,0,0,0,0,0,0],"sum_hessian":[4.30396E5,4.5621E4,3.84775E5,2.9936E4,1.5685E4,2.1161E4,3.63614E5,2.9889E4,4.7E1,8.74E2,1.4811E4,1.0423E4,1.0738E4,9.29E2,3.62685E5,1.4772E4,3.9E1,6.27E2,9.796E3,5.532E3,5.206E3,6.01E2,3.28E2,5E0,3.6268E5,9.511E3,2.85E2,5.434E3,9.8E1,3.041E3,2.165E3,3.78E2,2.23E2,2.19E2,1.09E2,2.994E3,4.7E1,1.469E3,6.96E2,1.2E1,3.66E2,1.86E2,3.3E1,7.1E1,3.8E1],"tree_param":{"num_deleted":"0","num_feature":"6","num_nodes":"45","size_leaf_vector":"1"}},{"base_weights":[-2.0020461E-6,-5.234937E-2,6.2047043E-3,-6.445919E-2,-2.9234229E-2,-1.2479241E-2,7.292725E-3,-6.448126E-3,-4.7618146E-3,-4.0327933E-2,-2.8576909E-2,-1.6814591E-2,-8.274594E-3,-5.4498063E-4,7.3119584E-3,-4.0715192E-3,-3.5133355E-3,-2.8587314E-3,-2.4019782E-3,-2.1629047E-3,-1.6519386E-2,-1.060181E-2,-5.805776E-3,-1.2919782E-3,9.016624E-4,3.521867E-4,7.312273E-4,-1.6619852E-3,-1.3110072E-3,-1.0637467E-3,-8.781006E-4,-7.0308857E-3,-4.092006E-3,-1.6686649E-4,-6.634375E-5,2.8498904E-4,1.8986417E-3,-7.044497E-4,-5.8021856E-4,-4.6611423E-4,-2.9062203E-4,1.1494779E-5,6.23247E-5,1.5587526E-4,2.4394131E-4],"categories":[],"categories_nodes":[],"categories_segments":[],"categories_sizes":[],"default_left":[0,0,0,0,0,0,0,0,0,0,0,0,0,0,0,0,0,0,0,0,0,0,0,0,0,0,0,0,0,0,0,0,0,0,0,0,0,0,0,0,0,0,0,0,0],"id":25,"left_children":[1,3,5,7,9,11,13,-1,-1,15,17,19,21,23,25,-1,-1,-1,-1,-1,27,29,31,33,35,-1,-1,-1,-1,-1,-1,37,39,-1,-1,41,43,-1,-1,-1,-1,-1,-1,-1,-1],"loss_changes":[1.3983835E2,1.2768639E1,7.8220205E0,8.056641E-3,1.1323166E-1,3.858335E-1,5.4815292E-2,0E0,0E0,3.296137E-4,1.5258789E-5,1.4457703E-2,6.1708033E-2,9.6401403E-4,4.043579E-4,0E0,0E0,0E0,0E0,0E0,3.1478405E-3,2.6583672E-4,1.0928825E-2,1.3810955E-4,1.8636131E-4,0E0,0E0,0E0,0E0,0E0,0E0,9.998679E-6,1.4563277E-3,0E0,0E0,1.07992255E-5,1.7518643E-5,0E0,0E0,0E0,0E0,0E0,0E0,0E0,0E0],"parents":[2147483647,0,0,1,1,2,2,3,3,4,4,5,5,6,6,9,9,10,10,11,11,12,12,13,13,14,14,20,20,21,21,22,22,23,23,24,24,31,31,32,32,35,35,36,36],"right_children":[2,4,6,8,10,12,14,-1,-1,16,18,20,22,24,26,-1,-1,-1,-1,-1,28,30,32,34,36,-1,-1,-1,-1,-1,-1,38,40,-1,-1,42,44,-1,-1,-1,-1,-1,-1,-1,-1],"split_conditions":[6E-1,3.3333334E-1,8.75E-1,2.5E-1,5E-1,7.5E-1,9.375E-1,-6.448126E-3,-4.7618146E-3,4E-1,5.714286E-1,6.25E-1,8E-1,8.947368E-1,9.5E-1,-4.0715192E-3,-3.5133355E-3,-2.8587314E-3,-2.4019782E-3,-2.1629047E-3,7.1428573E-1,7.692308E-1,8.333333E-1,8.888889E-1,9.166667E-1,3.521867E-4,7.312273E-4,-1.6619852E-3,-1.3110072E-3,-1.0637467E-3,-8.781006E-4,8.181818E-1,8.5714287E-1,-1.6686649E-4,-6.634375E-5,9.0909094E-1,9.285714E-1,-7.044497E-4,-5.8021856E-4,-4.6611423E-4,-2.9062203E-4,1.1494779E-5,6.23247E-5,1.5587526E-4,2.4394131E-4],"split_indices":[4,4,4,4,4,4,4,0,0,4,4,4,4,4,4,0,0,0,0,0,4,4,4,4,4,0,0,0,0,0,0,4,4,0,0,4,4,0,0,0,0,0,0,0,0],"split_type":[0,0,0,0,0,0,0,0,0,0,0,0,0,0,0,0,0,0,0,0,0,0,0,0,0,0,0,0,0,0,0,0,0,0,0,0,0,0,0,0,0,0,0,0,0],"sum_hessian":[4.30396E5,4.5621E4,3.84775E5,2.9936E4,1.5685E4,2.1173E4,3.63602E5,2.9894E4,4.2E1,8.74E2,1.4811E4,1.0423E4,1.075E4,8.9E2,3.62712E5,8.07E2,6.7E1,1.4772E4,3.9E1,5.98E2,9.825E3,5.532E3,5.218E3,5.87E2,3.03E2,3.1E1,3.62681E5,9.54E3,2.85E2,5.421E3,1.11E2,3.041E3,2.177E3,3.66E2,2.21E2,1.88E2,1.15E2,3.003E3,3.8E1,1.469E3,7.08E2,1.26E2,6.2E1,7.3E1,4.2E1],"tree_param":{"num_deleted":"0","num_feature":"6","num_nodes":"45","size_leaf_vector":"1"}},{"base_weights":[-1.8771964E-6,-4.711495E-2,5.584211E-3,-5.8013648E-2,-2.6311599E-2,-1.12368055E-2,6.5631606E-3,-5.8034617E-3,-4.3746545E-3,-3.6303796E-2,-2.5719546E-3,-1.5133649E-2,-7.453218E-3,-5.1456067E-4,6.580763E-3,-3.6648696E-3,-3.1671685E-3,-1.9372742E-3,-1.4860373E-2,-9.549415E-3,-5.2400758E-3,-1.1863569E-3,8.1304536E-4,3.2269378E-4,6.58105E-4,-1.4954839E-3,-1.1911372E-3,-9.5738994E-4,-8.019278E-4,-6.334728E-3,-3.6906896E-3,-1.532239E-3,-6.030766E-5,2.5686764E-4,1.7122226E-3,-6.3485024E-4,-5.3378433E-4,-4.2107134E-4,-2.6469768E-4,-2.1442266E-4,-1.5061728E-4,1.03534685E-5,5.6189016E-5,1.4049927E-4,2.2011249E-4],"categories":[],"categories_nodes":[],"categories_segments":[],"categories_sizes":[],"default_left":[0,0,0,0,0,0,0,0,0,0,0,0,0,0,0,0,0,0,0,0,0,0,0,0,0,0,0,0,0,0,0,0,0,0,0,0,0,0,0,0,0,0,0,0,0],"id":26,"left_children":[1,3,5,7,9,11,13,-1,-1,15,-1,17,19,21,23,-1,-1,-1,25,27,29,31,33,-1,-1,-1,-1,-1,-1,35,37,39,-1,41,43,-1,-1,-1,-1,-1,-1,-1,-1,-1,-1],"loss_changes":[1.13271194E2,1.0342316E1,6.336152E0,6.416321E-3,9.186363E-2,3.1190085E-1,4.53043E-2,0E0,0E0,2.3722649E-4,0E0,1.1787891E-2,4.9770176E-2,8.0633274E-4,3.2806396E-4,0E0,0E0,0E0,2.5508404E-3,1.2981892E-4,8.840129E-3,1.20123674E-4,1.515913E-4,0E0,0E0,0E0,0E0,0E0,0E0,8.150935E-6,1.1644624E-3,2.7684728E-6,0E0,8.781357E-6,1.433125E-5,0E0,0E0,0E0,0E0,0E0,0E0,0E0,0E0,0E0,0E0],"parents":[2147483647,0,0,1,1,2,2,3,3,4,4,5,5,6,6,9,9,11,11,12,12,13,13,14,14,18,18,19,19,20,20,21,21,22,22,29,29,30,30,31,31,33,33,34,34],"right_children":[2,4,6,8,10,12,14,-1,-1,16,-1,18,20,22,24,-1,-1,-1,26,28,30,32,34,-1,-1,-1,-1,-1,-1,36,38,40,-1,42,44,-1,-1,-1,-1,-1,-1,-1,-1,-1,-1],"split_conditions":[6E-1,3.3333334E-1,8.666667E-1,1.6666667E-1,5E-1,7.5E-1,9.375E-1,-5.8034617E-3,-4.3746545E-3,4E-1,-2.5719546E-3,6.666667E-1,7.8571427E-1,8.947368E-1,1E0,-3.6648696E-3,-3.1671685E-3,-1.9372742E-3,6.923077E-1,7.692308E-1,8.333333E-1,8.8235295E-1,9.166667E-1,3.2269378E-4,6.58105E-4,-1.4954839E-3,-1.1911372E-3,-9.5738994E-4,-8.019278E-4,8.125E-1,8.4210527E-1,8.75E-1,-6.030766E-5,9.0909094E-1,9.285714E-1,-6.3485024E-4,-5.3378433E-4,-4.2107134E-4,-2.6469768E-4,-2.1442266E-4,-1.5061728E-4,1.03534685E-5,5.6189016E-5,1.4049927E-4,2.2011249E-4],"split_indices":[4,4,4,4,4,4,4,0,0,4,0,4,4,4,4,0,0,0,4,4,4,4,4,0,0,0,0,0,0,4,4,4,0,4,4,0,0,0,0,0,0,0,0,0,0],"split_type":[0,0,0,0,0,0,0,0,0,0,0,0,0,0,0,0,0,0,0,0,0,0,0,0,0,0,0,0,0,0,0,0,0,0,0,0,0,0,0,0,0,0,0,0,0],"sum_hessian":[4.30396E5,4.5621E4,3.84775E5,2.9936E4,1.5685E4,2.1161E4,3.63614E5,2.9889E4,4.7E1,8.74E2,1.4811E4,1.0423E4,1.0738E4,9.02E2,3.62712E5,8.07E2,6.7E1,6.27E2,9.796E3,5.513E3,5.225E3,5.99E2,3.03E2,3.2E1,3.6268E5,9.488E3,3.08E2,5.421E3,9.2E1,3.06E3,2.165E3,3.75E2,2.24E2,1.88E2,1.15E2,3.013E3,4.7E1,1.443E3,7.22E2,1.2E1,3.63E2,1.26E2,6.2E1,7.3E1,4.2E1],"tree_param":{"num_deleted":"0","num_feature":"6","num_nodes":"45","size_leaf_vector":"1"}},{"base_weights":[-1.7441605E-6,-4.2403888E-2,5.02578E-3,-5.2212622E-2,-2.3681052E-2,-1.0108986E-2,5.9071216E-3,-5.223032E-3,-3.869416E-3,-3.268121E-2,-2.314778E-2,-1.3625386E-2,-6.707607E-3,-3.573309E-4,5.9229094E-3,-3.2988351E-3,-2.855108E-3,-2.3156982E-3,-1.9170182E-3,-1.7535689E-3,-1.3385283E-2,-8.592423E-3,-4.7030495E-3,-1.0442585E-3,8.8697765E-4,2.0626634E-4,5.922936E-4,-1.3465526E-3,-1.0750893E-3,-8.6190895E-4,-7.0379407E-4,-5.696717E-4,-3.3174106E-3,-1.3527542E-4,-5.3415926E-5,3.5439106E-4,1.9737259E-3,-3.779277E-4,-2.3525185E-4,9.762001E-6,6.850369E-5,1.4601104E-4,2.2585694E-4],"categories":[],"categories_nodes":[],"categories_segments":[],"categories_sizes":[],"default_left":[0,0,0,0,0,0,0,0,0,0,0,0,0,0,0,0,0,0,0,0,0,0,0,0,0,0,0,0,0,0,0,0,0,0,0,0,0,0,0,0,0,0,0],"id":27,"left_children":[1,3,5,7,9,11,13,-1,-1,15,17,19,21,23,25,-1,-1,-1,-1,-1,27,29,31,33,35,-1,-1,-1,-1,-1,-1,-1,37,-1,-1,39,41,-1,-1,-1,-1,-1,-1],"loss_changes":[9.17513E1,8.377121E0,5.1325483E0,5.1498413E-3,7.452965E-2,2.5316238E-1,3.5964012E-2,0E0,0E0,1.681447E-4,9.775162E-5,9.539127E-3,4.063213E-2,7.8302226E-4,2.3841858E-5,0E0,0E0,0E0,0E0,0E0,1.9294024E-3,1.69307E-4,7.166952E-3,9.212189E-5,1.8798528E-4,0E0,0E0,0E0,0E0,0E0,0E0,0E0,9.6352026E-4,0E0,0E0,1.8611185E-5,1.23563805E-5,0E0,0E0,0E0,0E0,0E0,0E0],"parents":[2147483647,0,0,1,1,2,2,3,3,4,4,5,5,6,6,9,9,10,10,11,11,12,12,13,13,14,14,20,20,21,21,22,22,23,23,24,24,32,32,35,35,36,36],"right_children":[2,4,6,8,10,12,14,-1,-1,16,18,20,22,24,26,-1,-1,-1,-1,-1,28,30,32,34,36,-1,-1,-1,-1,-1,-1,-1,38,-1,-1,40,42,-1,-1,-1,-1,-1,-1],"split_conditions":[6E-1,3.3333334E-1,8.75E-1,2.5E-1,5E-1,7.2727275E-1,9.411765E-1,-5.223032E-3,-3.869416E-3,4E-1,5.714286E-1,6.25E-1,8E-1,9E-1,9.4736844E-1,-3.2988351E-3,-2.855108E-3,-2.3156982E-3,-1.9170182E-3,-1.7535689E-3,6.923077E-1,7.777778E-1,8.235294E-1,8.888889E-1,9.230769E-1,2.0626634E-4,5.922936E-4,-1.3465526E-3,-1.0750893E-3,-8.6190895E-4,-7.0379407E-4,-5.696717E-4,8.5714287E-1,-1.3527542E-4,-5.3415926E-5,9.0909094E-1,9.285714E-1,-3.779277E-4,-2.3525185E-4,9.762001E-6,6.850369E-5,1.4601104E-4,2.2585694E-4],"split_indices":[4,4,4,4,4,4,4,0,0,4,4,4,4,4,4,0,0,0,0,0,4,4,4,4,4,0,0,0,0,0,0,0,4,0,0,4,4,0,0,0,0,0,0],"split_type":[0,0,0,0,0,0,0,0,0,0,0,0,0,0,0,0,0,0,0,0,0,0,0,0,0,0,0,0,0,0,0,0,0,0,0,0,0,0,0,0,0,0,0],"sum_hessian":[4.30396E5,4.5621E4,3.84775E5,2.9936E4,1.5685E4,2.1173E4,3.63602E5,2.9894E4,4.2E1,8.74E2,1.4811E4,1.0409E4,1.0764E4,9.14E2,3.62688E5,8.07E2,6.7E1,1.4772E4,3.9E1,5.98E2,9.811E3,5.546E3,5.218E3,5.89E2,3.25E2,3E0,3.62685E5,9.517E3,2.94E2,5.448E3,9.8E1,3.037E3,2.181E3,3.66E2,2.23E2,2.19E2,1.06E2,1.473E3,7.08E2,1.24E2,9.5E1,4E1,6.6E1],"tree_param":{"num_deleted":"0","num_feature":"6","num_nodes":"43","size_leaf_vector":"1"}},{"base_weights":[-1.6271808E-6,-3.8163926E-2,4.5231883E-3,-4.699166E-2,-2.1313606E-2,-9.102522E-3,5.3161774E-3,-4.7008493E-3,-3.5533223E-3,-2.942011E-2,-2.0833286E-2,-1.2259288E-2,-6.0375044E-3,-4.1746657E-4,5.3304373E-3,-2.9693586E-3,-2.5737945E-3,-2.0841442E-3,-1.7301101E-3,-1.5706577E-3,-1.203706E-2,-7.7295313E-3,-4.238384E-3,-9.615129E-4,6.5768237E-4,2.6052966E-4,5.330663E-4,-1.2110401E-3,-9.5557835E-4,-7.753397E-4,-6.341238E-4,-5.125862E-3,-2.9900242E-3,-1.2418504E-3,-4.8876445E-5,2.0320075E-4,1.3925043E-3,-5.137814E-4,-4.27335E-4,-3.4122664E-4,-2.1425728E-4,-1.7291582E-4,-1.2210349E-4,8.454192E-6,4.3917647E-5,1.15692616E-4,1.765534E-4],"categories":[],"categories_nodes":[],"categories_segments":[],"categories_sizes":[],"default_left":[0,0,0,0,0,0,0,0,0,0,0,0,0,0,0,0,0,0,0,0,0,0,0,0,0,0,0,0,0,0,0,0,0,0,0,0,0,0,0,0,0,0,0,0,0,0,0],"id":28,"left_children":[1,3,5,7,9,11,13,-1,-1,15,17,19,21,23,25,-1,-1,-1,-1,-1,27,29,31,33,35,-1,-1,-1,-1,-1,-1,37,39,41,-1,43,45,-1,-1,-1,-1,-1,-1,-1,-1,-1,-1],"loss_changes":[7.431999E1,6.7852783E0,4.157568E0,4.1122437E-3,6.0463905E-2,2.0467973E-1,2.973175E-2,0E0,0E0,1.16825104E-4,6.6280365E-5,7.796645E-3,3.2658458E-2,5.28825E-4,2.0980835E-4,0E0,0E0,0E0,0E0,0E0,1.6670227E-3,1.3414025E-4,5.7534724E-3,7.8910496E-5,1.0124181E-4,0E0,0E0,0E0,0E0,0E0,0E0,9.045005E-6,7.677488E-4,1.7026323E-6,0E0,5.254986E-6,8.151212E-6,0E0,0E0,0E0,0E0,0E0,0E0,0E0,0E0,0E0,0E0],"parents":[2147483647,0,0,1,1,2,2,3,3,4,4,5,5,6,6,9,9,10,10,11,11,12,12,13,13,14,14,20,20,21,21,22,22,23,23,24,24,31,31,32,32,33,33,35,35,36,36],"right_children":[2,4,6,8,10,12,14,-1,-1,16,18,20,22,24,26,-1,-1,-1,-1,-1,28,30,32,34,36,-1,-1,-1,-1,-1,-1,38,40,42,-1,44,46,-1,-1,-1,-1,-1,-1,-1,-1,-1,-1],"split_conditions":[6E-1,3.3333334E-1,8.666667E-1,1.6666667E-1,5E-1,7.5E-1,9.375E-1,-4.7008493E-3,-3.5533223E-3,4E-1,5.714286E-1,6.666667E-1,8E-1,8.947368E-1,9.5E-1,-2.9693586E-3,-2.5737945E-3,-2.0841442E-3,-1.7301101E-3,-1.5706577E-3,7.1428573E-1,7.777778E-1,8.333333E-1,8.8235295E-1,9.166667E-1,2.6052966E-4,5.330663E-4,-1.2110401E-3,-9.5557835E-4,-7.753397E-4,-6.341238E-4,8.125E-1,8.4210527E-1,8.75E-1,-4.8876445E-5,9.0909094E-1,9.285714E-1,-5.137814E-4,-4.27335E-4,-3.4122664E-4,-2.1425728E-4,-1.7291582E-4,-1.2210349E-4,8.454192E-6,4.3917647E-5,1.15692616E-4,1.765534E-4],"split_indices":[4,4,4,4,4,4,4,0,0,4,4,4,4,4,4,0,0,0,0,0,4,4,4,4,4,0,0,0,0,0,0,4,4,4,0,4,4,0,0,0,0,0,0,0,0,0,0],"split_type":[0,0,0,0,0,0,0,0,0,0,0,0,0,0,0,0,0,0,0,0,0,0,0,0,0,0,0,0,0,0,0,0,0,0,0,0,0,0,0,0,0,0,0,0,0,0,0],"sum_hessian":[4.30396E5,4.5621E4,3.84775E5,2.9936E4,1.5685E4,2.1161E4,3.63614E5,2.9889E4,4.7E1,8.74E2,1.4811E4,1.0423E4,1.0738E4,9.02E2,3.62712E5,8.07E2,6.7E1,1.4772E4,3.9E1,6.27E2,9.796E3,5.532E3,5.206E3,5.99E2,3.03E2,3.1E1,3.62681E5,9.511E3,2.85E2,5.434E3,9.8E1,3.041E3,2.165E3,3.75E2,2.24E2,1.88E2,1.15E2,2.994E3,4.7E1,1.443E3,7.22E2,1.2E1,3.63E2,1.26E2,6.2E1,7.3E1,4.2E1],"tree_param":{"num_deleted":"0","num_feature":"6","num_nodes":"47","size_leaf_vector":"1"}},{"base_weights":[-1.500385E-6,-3.434792E-2,4.0708752E-3,-4.229277E-2,-1.918285E-2,-8.192579E-3,4.7845836E-3,-4.2306962E-3,-3.1444032E-3,-2.648444E-2,-1.8750222E-2,-1.1033712E-2,-5.4340204E-3,-3.7571057E-4,4.7974177E-3,-2.6727905E-3,-2.3202007E-3,-1.8757444E-3,-1.5614269E-3,-1.4138436E-3,-1.0833569E-2,-6.9568353E-3,-3.8148214E-3,-8.634916E-4,5.978652E-4,2.3803783E-4,4.7976244E-4,-1.090221E-3,-8.6906337E-4,-6.979787E-4,-5.7835947E-4,-4.613575E-3,-2.6912645E-3,-1.1157371E-3,-4.328463E-5,1.8655298E-4,1.2557748E-3,-4.623056E-4,-3.7650205E-4,-3.071266E-4,-1.9285906E-4,-1.5695461E-4,-1.096622E-4,7.95269E-6,3.9594514E-5,8.168063E-5,1.4204635E-4],"categories":[],"categories_nodes":[],"categories_segments":[],"categories_sizes":[],"default_left":[0,0,0,0,0,0,0,0,0,0,0,0,0,0,0,0,0,0,0,0,0,0,0,0,0,0,0,0,0,0,0,0,0,0,0,0,0,0,0,0,0,0,0,0,0,0,0],"id":29,"left_children":[1,3,5,7,9,11,13,-1,-1,15,17,19,21,23,25,-1,-1,-1,-1,-1,27,29,31,33,35,-1,-1,-1,-1,-1,-1,37,39,41,-1,43,45,-1,-1,-1,-1,-1,-1,-1,-1,-1,-1],"loss_changes":[6.0200424E1,5.495926E0,3.367804E0,3.276825E-3,4.9053192E-2,1.6579568E-1,2.4082184E-2,0E0,0E0,7.915497E-5,4.2438507E-5,6.324172E-3,2.6453048E-2,4.2934352E-4,1.6975403E-4,0E0,0E0,0E0,0E0,0E0,1.3463497E-3,1.08629465E-4,4.6605766E-3,6.491129E-5,8.1488826E-5,0E0,0E0,0E0,0E0,0E0,0E0,7.070601E-6,6.2182173E-4,1.5665137E-6,0E0,4.1592616E-6,7.2257535E-6,0E0,0E0,0E0,0E0,0E0,0E0,0E0,0E0,0E0,0E0],"parents":[2147483647,0,0,1,1,2,2,3,3,4,4,5,5,6,6,9,9,10,10,11,11,12,12,13,13,14,14,20,20,21,21,22,22,23,23,24,24,31,31,32,32,33,33,35,35,36,36],"right_children":[2,4,6,8,10,12,14,-1,-1,16,18,20,22,24,26,-1,-1,-1,-1,-1,28,30,32,34,36,-1,-1,-1,-1,-1,-1,38,40,42,-1,44,46,-1,-1,-1,-1,-1,-1,-1,-1,-1,-1],"split_conditions":[6E-1,3.3333334E-1,8.666667E-1,2.5E-1,5E-1,7.5E-1,9.375E-1,-4.2306962E-3,-3.1444032E-3,4E-1,5.714286E-1,6.666667E-1,8E-1,9E-1,1E0,-2.6727905E-3,-2.3202007E-3,-1.8757444E-3,-1.5614269E-3,-1.4138436E-3,6.923077E-1,7.692308E-1,8.333333E-1,8.888889E-1,9.166667E-1,2.3803783E-4,4.7976244E-4,-1.090221E-3,-8.6906337E-4,-6.979787E-4,-5.7835947E-4,8.181818E-1,8.4210527E-1,8.75E-1,-4.328463E-5,9.0909094E-1,9.230769E-1,-4.623056E-4,-3.7650205E-4,-3.071266E-4,-1.9285906E-4,-1.5695461E-4,-1.096622E-4,7.95269E-6,3.9594514E-5,8.168063E-5,1.4204635E-4],"split_indices":[4,4,4,4,4,4,4,0,0,4,4,4,4,4,4,0,0,0,0,0,4,4,4,4,4,0,0,0,0,0,0,4,4,4,0,4,4,0,0,0,0,0,0,0,0,0,0],"split_type":[0,0,0,0,0,0,0,0,0,0,0,0,0,0,0,0,0,0,0,0,0,0,0,0,0,0,0,0,0,0,0,0,0,0,0,0,0,0,0,0,0,0,0,0,0,0,0],"sum_hessian":[4.30396E5,4.5621E4,3.84775E5,2.9936E4,1.5685E4,2.1161E4,3.63614E5,2.9894E4,4.2E1,8.74E2,1.4811E4,1.0423E4,1.0738E4,9.02E2,3.62712E5,8.07E2,6.7E1,1.4772E4,3.9E1,6.27E2,9.796E3,5.532E3,5.206E3,6.01E2,3.01E2,3.2E1,3.6268E5,9.488E3,3.08E2,5.421E3,1.11E2,3.041E3,2.165E3,3.78E2,2.23E2,1.86E2,1.15E2,3.003E3,3.8E1,1.443E3,7.22E2,1.2E1,3.66E2,1.24E2,6.2E1,3.3E1,8.2E1],"tree_param":{"num_deleted":"0","num_feature":"6","num_nodes":"47","size_leaf_vector":"1"}},{"base_weights":[-1.3949466E-6,-3.091347E-2,3.6637783E-3,-3.806374E-2,-1.7265089E-2,-7.370299E-3,4.3063248E-3,-3.8077242E-3,-2.8861861E-3,-2.38417E-2,-1.6875418E-2,-9.930659E-3,-4.8871296E-3,-3.2194296E-4,4.3176822E-3,-2.4058423E-3,-2.0915929E-3,-1.6881813E-3,-1.4091901E-3,-1.2805565E-3,-9.754392E-3,-6.2663285E-3,-3.4343246E-3,-7.6436036E-4,5.348444E-4,1.9525141E-4,4.3178533E-4,-9.813827E-4,-7.737546E-4,-6.2819454E-4,-5.2884617E-4,-4.1567003E-3,-2.4175083E-3,-9.898692E-5,-3.961399E-5,1.654215E-4,1.1321383E-3,-4.1662544E-4,-3.4701862E-4,-2.755988E-4,-1.7123143E-4,6.9086013E-6,3.5699588E-5,9.296045E-5,1.4543561E-4],"categories":[],"categories_nodes":[],"categories_segments":[],"categories_sizes":[],"default_left":[0,0,0,0,0,0,0,0,0,0,0,0,0,0,0,0,0,0,0,0,0,0,0,0,0,0,0,0,0,0,0,0,0,0,0,0,0,0,0,0,0,0,0,0,0],"id":30,"left_children":[1,3,5,7,9,11,13,-1,-1,15,17,19,21,23,25,-1,-1,-1,-1,-1,27,29,31,33,35,-1,-1,-1,-1,-1,-1,37,39,-1,-1,41,43,-1,-1,-1,-1,-1,-1,-1,-1],"loss_changes":[4.8763283E1,4.4515724E0,2.7280588E0,2.6245117E-3,3.9795876E-2,1.3457167E-1,1.9114017E-2,0E0,0E0,5.1647425E-5,2.5749207E-5,5.1574707E-3,2.1520317E-2,3.3814917E-4,1.3875961E-4,0E0,0E0,0E0,0E0,0E0,1.1018515E-3,5.1006675E-5,3.837388E-3,4.8433605E-5,6.689157E-5,0E0,0E0,0E0,0E0,0E0,0E0,5.6140125E-6,5.151555E-4,0E0,0E0,3.463409E-6,6.218179E-6,0E0,0E0,0E0,0E0,0E0,0E0,0E0,0E0],"parents":[2147483647,0,0,1,1,2,2,3,3,4,4,5,5,6,6,9,9,10,10,11,11,12,12,13,13,14,14,20,20,21,21,22,22,23,23,24,24,31,31,32,32,35,35,36,36],"right_children":[2,4,6,8,10,12,14,-1,-1,16,18,20,22,24,26,-1,-1,-1,-1,-1,28,30,32,34,36,-1,-1,-1,-1,-1,-1,38,40,-1,-1,42,44,-1,-1,-1,-1,-1,-1,-1,-1],"split_conditions":[6E-1,3.3333334E-1,8.75E-1,1.6666667E-1,5E-1,7.5E-1,9.375E-1,-3.8077242E-3,-2.8861861E-3,4E-1,5.714286E-1,6.25E-1,7.8571427E-1,8.947368E-1,9.4736844E-1,-2.4058423E-3,-2.0915929E-3,-1.6881813E-3,-1.4091901E-3,-1.2805565E-3,7.1428573E-1,7.692308E-1,8.333333E-1,8.8235295E-1,9.166667E-1,1.9525141E-4,4.3178533E-4,-9.813827E-4,-7.737546E-4,-6.2819454E-4,-5.2884617E-4,8.125E-1,8.5714287E-1,-9.898692E-5,-3.961399E-5,9.0909094E-1,9.285714E-1,-4.1662544E-4,-3.4701862E-4,-2.755988E-4,-1.7123143E-4,6.9086013E-6,3.5699588E-5,9.296045E-5,1.4543561E-4],"split_indices":[4,4,4,4,4,4,4,0,0,4,4,4,4,4,4,0,0,0,0,0,4,4,4,4,4,0,0,0,0,0,0,4,4,0,0,4,4,0,0,0,0,0,0,0,0],"split_type":[0,0,0,0,0,0,0,0,0,0,0,0,0,0,0,0,0,0,0,0,0,0,0,0,0,0,0,0,0,0,0,0,0,0,0,0,0,0,0,0,0,0,0,0,0],"sum_hessian":[4.30396E5,4.5621E4,3.84775E5,2.9936E4,1.5685E4,2.1173E4,3.63602E5,2.9889E4,4.7E1,8.74E2,1.4811E4,1.0423E4,1.075E4,8.9E2,3.62712E5,8.07E2,6.7E1,1.4772E4,3.9E1,5.98E2,9.825E3,5.513E3,5.237E3,5.87E2,3.03E2,2.7E1,3.62685E5,9.54E3,2.85E2,5.421E3,9.2E1,3.06E3,2.177E3,3.63E2,2.24E2,1.88E2,1.15E2,3.013E3,4.7E1,1.469E3,7.08E2,1.26E2,6.2E1,7.3E1,4.2E1],"tree_param":{"num_deleted":"0","num_feature":"6","num_nodes":"45","size_leaf_vector":"1"}},{"base_weights":[-1.2915724E-6,-2.7822437E-2,3.2973972E-3,-3.425759E-2,-1.5539063E-2,-6.636508E-3,3.8755308E-3,-3.4268964E-3,-2.5553692E-3,-2.1462662E-2,-1.5188085E-2,-8.9378785E-3,-4.4020233E-3,-3.0396567E-4,3.885925E-3,-2.1655548E-3,-1.8855099E-3,-1.5193745E-3,-1.2717958E-3,-1.1527156E-3,-8.779124E-3,-5.6357086E-3,-3.0902543E-3,-7.0182147E-4,4.8227588E-4,1.9243486E-4,3.886093E-4,-8.832539E-4,-6.9665234E-4,-5.652827E-4,-4.639018E-4,-3.7381088E-3,-2.1818334E-3,-9.0648966E-5,-3.5667897E-5,1.4909991E-4,1.0209654E-3,-3.7446272E-4,-3.0718566E-4,-2.4902067E-4,-1.5612162E-4,6.2226313E-6,3.218594E-5,6.473012E-5,1.1617319E-4],"categories":[],"categories_nodes":[],"categories_segments":[],"categories_sizes":[],"default_left":[0,0,0,0,0,0,0,0,0,0,0,0,0,0,0,0,0,0,0,0,0,0,0,0,0,0,0,0,0,0,0,0,0,0,0,0,0,0,0,0,0,0,0,0,0],"id":31,"left_children":[1,3,5,7,9,11,13,-1,-1,15,17,19,21,23,25,-1,-1,-1,-1,-1,27,29,31,33,35,-1,-1,-1,-1,-1,-1,37,39,-1,-1,41,43,-1,-1,-1,-1,-1,-1,-1,-1],"loss_changes":[3.9499046E1,3.6056786E0,2.2098413E0,2.090454E-3,3.2286167E-2,1.087836E-1,1.5798092E-2,0E0,0E0,3.1799078E-5,1.3828278E-5,4.18365E-3,1.7361611E-2,2.8280658E-4,1.11579895E-4,0E0,0E0,0E0,0E0,0E0,8.8977814E-4,6.818771E-5,3.0562878E-3,4.2060477E-5,5.440921E-5,0E0,0E0,0E0,0E0,0E0,0E0,1.6912818E-6,4.1141082E-4,0E0,0E0,2.8165286E-6,5.3495387E-6,0E0,0E0,0E0,0E0,0E0,0E0,0E0,0E0],"parents":[2147483647,0,0,1,1,2,2,3,3,4,4,5,5,6,6,9,9,10,10,11,11,12,12,13,13,14,14,20,20,21,21,22,22,23,23,24,24,31,31,32,32,35,35,36,36],"right_children":[2,4,6,8,10,12,14,-1,-1,16,18,20,22,24,26,-1,-1,-1,-1,-1,28,30,32,34,36,-1,-1,-1,-1,-1,-1,38,40,-1,-1,42,44,-1,-1,-1,-1,-1,-1,-1,-1],"split_conditions":[6E-1,3.3333334E-1,8.666667E-1,2.5E-1,5E-1,7.5E-1,9.375E-1,-3.4268964E-3,-2.5553692E-3,4E-1,5.714286E-1,6.25E-1,8E-1,8.947368E-1,1E0,-2.1655548E-3,-1.8855099E-3,-1.5193745E-3,-1.2717958E-3,-1.1527156E-3,7.1428573E-1,7.777778E-1,8.235294E-1,8.8235295E-1,9.166667E-1,1.9243486E-4,3.886093E-4,-8.832539E-4,-6.9665234E-4,-5.652827E-4,-4.639018E-4,8.181818E-1,8.4210527E-1,-9.0648966E-5,-3.5667897E-5,9.0909094E-1,9.230769E-1,-3.7446272E-4,-3.0718566E-4,-2.4902067E-4,-1.5612162E-4,6.2226313E-6,3.218594E-5,6.473012E-5,1.1617319E-4],"split_indices":[4,4,4,4,4,4,4,0,0,4,4,4,4,4,4,0,0,0,0,0,4,4,4,4,4,0,0,0,0,0,0,4,4,0,0,4,4,0,0,0,0,0,0,0,0],"split_type":[0,0,0,0,0,0,0,0,0,0,0,0,0,0,0,0,0,0,0,0,0,0,0,0,0,0,0,0,0,0,0,0,0,0,0,0,0,0,0,0,0,0,0,0,0],"sum_hessian":[4.30396E5,4.5621E4,3.84775E5,2.9936E4,1.5685E4,2.1161E4,3.63614E5,2.9894E4,4.2E1,8.74E2,1.4811E4,1.0423E4,1.0738E4,9.02E2,3.62712E5,8.07E2,6.7E1,1.4772E4,3.9E1,5.98E2,9.825E3,5.532E3,5.206E3,5.99E2,3.03E2,3.2E1,3.6268E5,9.54E3,2.85E2,5.434E3,9.8E1,3.037E3,2.169E3,3.75E2,2.24E2,1.88E2,1.15E2,3.003E3,3.4E1,1.447E3,7.22E2,1.26E2,6.2E1,3.3E1,8.2E1],"tree_param":{"num_deleted":"0","num_feature":"6","num_nodes":"45","size_leaf_vector":"1"}},{"base_weights":[-1.2120997E-6,-2.5040472E-2,2.967635E-3,-3.083203E-2,-1.3985586E-2,-5.970417E-3,3.4881239E-3,-3.0842866E-3,-2.3442896E-3,-1.9321024E-2,-1.3669457E-2,-8.047075E-3,-3.961687E-3,-2.598883E-4,3.4973212E-3,-1.9492671E-3,-1.6997323E-3,-1.3674466E-3,-1.1477967E-3,-1.0323756E-3,-7.900106E-3,-5.0746636E-3,-2.778004E-3,-6.16854E-4,4.3835564E-4,1.5786334E-4,3.4974597E-4,-7.947621E-4,-6.344956E-4,-5.091055E-4,-4.2337753E-4,-3.3636843E-3,-1.9587122E-3,-7.990381E-5,-3.156111E-5,1.369702E-4,9.204309E-4,-3.3712454E-4,-2.8218367E-4,-2.2333484E-4,-1.3865349E-4,5.8654787E-6,2.901838E-5,7.462172E-5,1.1988352E-4],"categories":[],"categories_nodes":[],"categories_segments":[],"categories_sizes":[],"default_left":[0,0,0,0,0,0,0,0,0,0,0,0,0,0,0,0,0,0,0,0,0,0,0,0,0,0,0,0,0,0,0,0,0,0,0,0,0,0,0,0,0,0,0,0,0],"id":32,"left_children":[1,3,5,7,9,11,13,-1,-1,15,17,19,21,23,25,-1,-1,-1,-1,-1,27,29,31,33,35,-1,-1,-1,-1,-1,-1,37,39,-1,-1,41,43,-1,-1,-1,-1,-1,-1,-1,-1],"loss_changes":[3.1994812E1,2.9205189E0,1.7900593E0,1.6727448E-3,2.6193142E-2,8.829427E-2,1.2535095E-2,0E0,0E0,1.7672777E-5,5.722046E-6,3.4016967E-3,1.4167815E-2,2.223514E-4,9.059906E-5,0E0,0E0,0E0,0E0,0E0,6.724596E-4,5.491078E-5,2.4977103E-3,3.2127995E-5,4.3751654E-5,0E0,0E0,0E0,0E0,0E0,0E0,2.95043E-6,3.3915602E-4,0E0,0E0,2.22679E-6,4.7316207E-6,0E0,0E0,0E0,0E0,0E0,0E0,0E0,0E0],"parents":[2147483647,0,0,1,1,2,2,3,3,4,4,5,5,6,6,9,9,10,10,11,11,12,12,13,13,14,14,20,20,21,21,22,22,23,23,24,24,31,31,32,32,35,35,36,36],"right_children":[2,4,6,8,10,12,14,-1,-1,16,18,20,22,24,26,-1,-1,-1,-1,-1,28,30,32,34,36,-1,-1,-1,-1,-1,-1,38,40,-1,-1,42,44,-1,-1,-1,-1,-1,-1,-1,-1],"split_conditions":[6E-1,3.3333334E-1,8.75E-1,1.6666667E-1,5E-1,7.2727275E-1,9.375E-1,-3.0842866E-3,-2.3442896E-3,4E-1,5.714286E-1,6.666667E-1,8E-1,9E-1,9.4736844E-1,-1.9492671E-3,-1.6997323E-3,-1.3674466E-3,-1.1477967E-3,-1.0323756E-3,6.923077E-1,7.692308E-1,8.333333E-1,8.888889E-1,9.166667E-1,1.5786334E-4,3.4974597E-4,-7.947621E-4,-6.344956E-4,-5.091055E-4,-4.2337753E-4,8.125E-1,8.5714287E-1,-7.990381E-5,-3.156111E-5,9.0909094E-1,9.285714E-1,-3.3712454E-4,-2.8218367E-4,-2.2333484E-4,-1.3865349E-4,5.8654787E-6,2.901838E-5,7.462172E-5,1.1988352E-4],"split_indices":[4,4,4,4,4,4,4,0,0,4,4,4,4,4,4,0,0,0,0,0,4,4,4,4,4,0,0,0,0,0,0,4,4,0,0,4,4,0,0,0,0,0,0,0,0],"split_type":[0,0,0,0,0,0,0,0,0,0,0,0,0,0,0,0,0,0,0,0,0,0,0,0,0,0,0,0,0,0,0,0,0,0,0,0,0,0,0,0,0,0,0,0,0],"sum_hessian":[4.30396E5,4.5621E4,3.84775E5,2.9936E4,1.5685E4,2.1173E4,3.63602E5,2.9889E4,4.7E1,8.74E2,1.4811E4,1.0409E4,1.0764E4,8.9E2,3.62712E5,8.07E2,6.7E1,1.4772E4,3.9E1,6.27E2,9.782E3,5.546E3,5.218E3,5.89E2,3.01E2,2.7E1,3.62685E5,9.488E3,2.94E2,5.435E3,1.11E2,3.041E3,2.177E3,3.66E2,2.23E2,1.86E2,1.15E2,2.994E3,4.7E1,1.469E3,7.08E2,1.24E2,6.2E1,7.3E1,4.2E1],"tree_param":{"num_deleted":"0","num_feature":"6","num_nodes":"45","size_leaf_vector":"1"}},{"base_weights":[-1.138383E-6,-2.2536676E-2,2.6708483E-3,-2.7749008E-2,-1.2587417E-2,-5.373586E-3,3.1392993E-3,-2.7758123E-3,-2.0767986E-3,-1.7393079E-2,-1.2302678E-3,-7.2402502E-3,-3.5631978E-3,-2.3374574E-4,3.1475765E-3,-1.7545803E-3,-1.5322574E-3,-9.345758E-4,-7.11116E-3,-4.56863E-3,-2.5041075E-3,-5.569692E-4,3.9220543E-4,1.5555385E-4,3.1477129E-4,-7.1561395E-4,-5.702678E-4,-4.5788553E-4,-3.8168087E-4,-3.030605E-3,-1.7630089E-3,-7.193261E-5,-2.860596E-5,1.2138848E-4,8.300692E-4,-3.0365546E-4,-2.4917402E-4,-2.0101616E-4,-1.24809E-4,5.0870453E-6,2.616171E-5,5.1204424E-5,9.503436E-5],"categories":[],"categories_nodes":[],"categories_segments":[],"categories_sizes":[],"default_left":[0,0,0,0,0,0,0,0,0,0,0,0,0,0,0,0,0,0,0,0,0,0,0,0,0,0,0,0,0,0,0,0,0,0,0,0,0,0,0,0,0,0,0],"id":33,"left_children":[1,3,5,7,9,11,13,-1,-1,15,-1,17,19,21,23,-1,-1,-1,25,27,29,31,33,-1,-1,-1,-1,-1,-1,35,37,-1,-1,39,41,-1,-1,-1,-1,-1,-1,-1,-1],"loss_changes":[2.5916267E1,2.3655548E0,1.4500155E0,1.3313293E-3,2.125001E-2,7.152933E-2,1.015234E-2,0E0,0E0,7.838011E-6,0E0,2.766788E-3,1.1436701E-2,1.8048745E-4,7.390976E-5,0E0,0E0,0E0,5.816817E-4,2.4907291E-5,2.0384528E-3,2.5656831E-5,3.5947844E-5,0E0,0E0,0E0,0E0,0E0,0E0,2.2500753E-6,2.746717E-4,0E0,0E0,1.855645E-6,3.9504157E-6,0E0,0E0,0E0,0E0,0E0,0E0,0E0,0E0],"parents":[2147483647,0,0,1,1,2,2,3,3,4,4,5,5,6,6,9,9,11,11,12,12,13,13,14,14,18,18,19,19,20,20,21,21,22,22,29,29,30,30,33,33,34,34],"right_children":[2,4,6,8,10,12,14,-1,-1,16,-1,18,20,22,24,-1,-1,-1,26,28,30,32,34,-1,-1,-1,-1,-1,-1,36,38,-1,-1,40,42,-1,-1,-1,-1,-1,-1,-1,-1],"split_conditions":[6E-1,3.3333334E-1,8.75E-1,2.5E-1,5E-1,7.5E-1,9.375E-1,-2.7758123E-3,-2.0767986E-3,4E-1,-1.2302678E-3,6.25E-1,7.8571427E-1,8.947368E-1,1E0,-1.7545803E-3,-1.5322574E-3,-9.345758E-4,6.923077E-1,7.777778E-1,8.333333E-1,8.888889E-1,9.166667E-1,