{"learner":{"attributes":{"scikit_learn":"{\"_estimator_type\": \"regressor\"}"},"feature_names":["user_id","learning_language","lexeme_id","accuracy_rate","session_accuracy","delta_days"],"feature_types":["int","int","int","float","float","float"],"gradient_booster":{"model":{"gbtree_model_param":{"num_parallel_tree":"1","num_trees":"100"},"iteration_indptr":[0,1,2,3,4,5,6,7,8,9,10,11,12,13,14,15,16,17,18,19,20,21,22,23,24,25,26,27,28,29,30,31,32,33,34,35,36,37,38,39,40,41,42,43,44,45,46,47,48,49,50,51,52,53,54,55,56,57,58,59,60,61,62,63,64,65,66,67,68,69,70,71,72,73,74,75,76,77,78,79,80,81,82,83,84,85,86,87,88,89,90,91,92,93,94,95,96,97,98,99,100],"tree_info":[0,0,0,0,0,0,0,0,0,0,0,0,0,0,0,0,0,0,0,0,0,0,0,0,0,0,0,0,0,0,0,0,0,0,0,0,0,0,0,0,0,0,0,0,0,0,0,0,0,0,0,0,0,0,0,0,0,0,0,0,0,0,0,0,0,0,0,0,0,0,0,0,0,0,0,0,0,0,0,0,0,0,0,0,0,0,0,0,0,0,0,0,0,0,0,0,0,0,0,0],"trees":[{"base_weights":[-6.6227384E-9,-6.277778E-1,1.0761904E-1,-7.5833336E-2,-2.9333336E-2,-1.6666666E-2,1.3128205E-2],"categories":[],"categories_nodes":[],"categories_segments":[],"categories_sizes":[],"default_left":[0,0,0,0,0,0,0],"id":0,"left_children":[1,3,5,-1,-1,-1,-1],"loss_changes":[5.5399895E0,3.0151796E-1,4.7621006E-1,0E0,0E0,0E0,0E0],"parents":[2147483647,0,0,1,1,2,2],"right_children":[2,4,6,-1,-1,-1,-1],"split_conditions":[6.666667E-1,5E-1,1E0,-7.5833336E-2,-2.9333336E-2,-1.6666666E-2,1.3128205E-2],"split_indices":[4,4,4,0,0,0,0],"split_type":[0,0,0,0,0,0,0],"sum_hessian":[8E1,1.1E1,6.9E1,7E0,4E0,5E0,6.4E1],"tree_param":{"num_deleted":"0","num_feature":"6","num_nodes":"7","size_leaf_vector":"1"}},{"base_weights":[-1.3420589E-3,-5.737639E-1,9.680657E-2,-6.9197915E-2,-2.6986664E-2,-1.5277778E-2,1.183558E-2],"categories":[],"categories_nodes":[],"categories_segments":[],"categories_sizes":[],"default_left":[0,0,0,0,0,0,0],"id":1,"left_children":[1,3,5,-1,-1,-1,-1],"loss_changes":[4.6063204E0,2.4436164E-1,3.9456654E-1,0E0,0E0,0E0,0E0],"parents":[2147483647,0,0,1,1,2,2],"right_children":[2,4,6,-1,-1,-1,-1],"split_conditions":[6.666667E-1,5E-1,1E0,-6.9197915E-2,-2.6986664E-2,-1.5277778E-2,1.183558E-2],"split_indices":[4,4,4,0,0,0,0],"split_type":[0,0,0,0,0,0,0],"sum_hessian":[8E1,1.1E1,6.9E1,7E0,4E0,5E0,6.4E1],"tree_param":{"num_deleted":"0","num_feature":"6","num_nodes":"7","size_leaf_vector":"1"}},{"base_weights":[-2.4378109E-3,-5.244029E-1,8.7076746E-2,-6.3143104E-2,-2.4827734E-2,-1.4004628E-2,1.0670231E-2],"categories":[],"categories_nodes":[],"categories_segments":[],"categories_sizes":[],"default_left":[0,0,0,0,0,0,0],"id":2,"left_children":[1,3,5,-1,-1,-1,-1],"loss_changes":[3.8302648E0,1.9786859E-1,3.269624E-1,0E0,0E0,0E0,0E0],"parents":[2147483647,0,0,1,1,2,2],"right_children":[2,4,6,-1,-1,-1,-1],"split_conditions":[6.666667E-1,5E-1,1E0,-6.3143104E-2,-2.4827734E-2,-1.4004628E-2,1.0670231E-2],"split_indices":[4,4,4,0,0,0,0],"split_type":[0,0,0,0,0,0,0],"sum_hessian":[8E1,1.1E1,6.9E1,7E0,4E0,5E0,6.4E1],"tree_param":{"num_deleted":"0","num_feature":"6","num_nodes":"7","size_leaf_vector":"1"}},{"base_weights":[-3.3212628E-3,-4.792935E-1,7.832143E-2,-5.761808E-2,-2.2841517E-2,-1.2837574E-2,9.6196225E-3],"categories":[],"categories_nodes":[],"categories_segments":[],"categories_sizes":[],"default_left":[0,0,0,0,0,0,0],"id":3,"left_children":[1,3,5,-1,-1,-1,-1],"loss_changes":[3.1851707E0,1.6007471E-1,2.709761E-1,0E0,0E0,0E0,0E0],"parents":[2147483647,0,0,1,1,2,2],"right_children":[2,4,6,-1,-1,-1,-1],"split_conditions":[6.666667E-1,5E-1,1E0,-5.761808E-2,-2.2841517E-2,-1.2837574E-2,9.6196225E-3],"split_indices":[4,4,4,0,0,0,0],"split_type":[0,0,0,0,0,0,0],"sum_hessian":[8E1,1.1E1,6.9E1,7E0,4E0,5E0,6.4E1],"tree_param":{"num_deleted":"0","num_feature":"6","num_nodes":"7","size_leaf_vector":"1"}},{"base_weights":[-4.0221694E-3,-4.380691E-1,7.044334E-2,-5.2576493E-2,-2.1014195E-2,-1.1767775E-2,8.672462E-3],"categories":[],"categories_nodes":[],"categories_segments":[],"categories_sizes":[],"default_left":[0,0,0,0,0,0,0],"id":4,"left_children":[1,3,5,-1,-1,-1,-1],"loss_changes":[2.648903E0,1.2937379E-1,2.2460523E-1,0E0,0E0,0E0,0E0],"parents":[2147483647,0,0,1,1,2,2],"right_children":[2,4,6,-1,-1,-1,-1],"split_conditions":[6.666667E-1,5E-1,1E0,-5.2576493E-2,-2.1014195E-2,-1.1767775E-2,8.672462E-3],"split_indices":[4,4,4,0,0,0,0],"split_type":[0,0,0,0,0,0,0],"sum_hessian":[8E1,1.1E1,6.9E1,7E0,4E0,5E0,6.4E1],"tree_param":{"num_deleted":"0","num_feature":"6","num_nodes":"7","size_leaf_vector":"1"}},{"base_weights":[-4.5667025E-3,-4.0039477E-1,6.3354775E-2,-4.7976054E-2,-1.9333057E-2,-1.0787125E-2,7.818556E-3],"categories":[],"categories_nodes":[],"categories_segments":[],"categories_sizes":[],"default_left":[0,0,0,0,0,0,0],"id":5,"left_children":[1,3,5,-1,-1,-1,-1],"loss_changes":[2.2030702E0,1.04453444E-1,1.861932E-1,0E0,0E0,0E0,0E0],"parents":[2147483647,0,0,1,1,2,2],"right_children":[2,4,6,-1,-1,-1,-1],"split_conditions":[6.666667E-1,5E-1,1E0,-4.7976054E-2,-1.9333057E-2,-1.0787125E-2,7.818556E-3],"split_indices":[4,4,4,0,0,0,0],"split_type":[0,0,0,0,0,0,0],"sum_hessian":[8E1,1.1E1,6.9E1,7E0,4E0,5E0,6.4E1],"tree_param":{"num_deleted":"0","num_feature":"6","num_nodes":"7","size_leaf_vector":"1"}},{"base_weights":[-4.9776738E-3,-3.6596435E-1,5.697687E-2,-4.3778148E-2,-1.7786412E-2,-9.888197E-3,7.048727E-3],"categories":[],"categories_nodes":[],"categories_segments":[],"categories_sizes":[],"default_left":[0,0,0,0,0,0,0],"id":6,"left_children":[1,3,5,-1,-1,-1,-1],"loss_changes":[1.8323975E0,8.42402E-2,1.5437001E-1,0E0,0E0,0E0,0E0],"parents":[2147483647,0,0,1,1,2,2],"right_children":[2,4,6,-1,-1,-1,-1],"split_conditions":[6.666667E-1,5E-1,1E0,-4.3778148E-2,-1.7786412E-2,-9.888197E-3,7.048727E-3],"split_indices":[4,4,4,0,0,0,0],"split_type":[0,0,0,0,0,0,0],"sum_hessian":[8E1,1.1E1,6.9E1,7E0,4E0,5E0,6.4E1],"tree_param":{"num_deleted":"0","num_feature":"6","num_nodes":"7","size_leaf_vector":"1"}},{"base_weights":[-5.2750194E-3,-3.3449832E-1,5.123862E-2,-3.9947562E-2,-1.6363502E-2,-9.064183E-3,6.3546984E-3],"categories":[],"categories_nodes":[],"categories_segments":[],"categories_sizes":[],"default_left":[0,0,0,0,0,0,0],"id":7,"left_children":[1,3,5,-1,-1,-1,-1],"loss_changes":[1.5241933E0,6.785858E-2,1.280022E-1,0E0,0E0,0E0,0E0],"parents":[2147483647,0,0,1,1,2,2],"right_children":[2,4,6,-1,-1,-1,-1],"split_conditions":[6.666667E-1,5E-1,1E0,-3.9947562E-2,-1.6363502E-2,-9.064183E-3,6.3546984E-3],"split_indices":[4,4,4,0,0,0,0],"split_type":[0,0,0,0,0,0,0],"sum_hessian":[8E1,1.1E1,6.9E1,7E0,4E0,5E0,6.4E1],"tree_param":{"num_deleted":"0","num_feature":"6","num_nodes":"7","size_leaf_vector":"1"}},{"base_weights":[-5.476157E-3,-3.0574107E-1,4.607606E-2,-3.6452148E-2,-1.50544215E-2,-8.308833E-3,5.729006E-3],"categories":[],"categories_nodes":[],"categories_segments":[],"categories_sizes":[],"default_left":[0,0,0,0,0,0,0],"id":8,"left_children":[1,3,5,-1,-1,-1,-1],"loss_changes":[1.2679124E0,5.459392E-2,1.06151626E-1,0E0,0E0,0E0,0E0],"parents":[2147483647,0,0,1,1,2,2],"right_children":[2,4,6,-1,-1,-1,-1],"split_conditions":[6.666667E-1,5E-1,1E0,-3.6452148E-2,-1.50544215E-2,-8.308833E-3,5.729006E-3],"split_indices":[4,4,4,0,0,0,0],"split_type":[0,0,0,0,0,0,0],"sum_hessian":[8E1,1.1E1,6.9E1,7E0,4E0,5E0,6.4E1],"tree_param":{"num_deleted":"0","num_feature":"6","num_nodes":"7","size_leaf_vector":"1"}},{"base_weights":[-5.5962866E-3,-2.7945918E-1,4.1431587E-2,-3.3262584E-2,-1.385007E-2,-7.6164305E-3,5.1649185E-3],"categories":[],"categories_nodes":[],"categories_segments":[],"categories_sizes":[],"default_left":[0,0,0,0,0,0,0],"id":9,"left_children":[1,3,5,-1,-1,-1,-1],"loss_changes":[1.0547928E0,4.386258E-2,8.804215E-2,0E0,0E0,0E0,0E0],"parents":[2147483647,0,0,1,1,2,2],"right_children":[2,4,6,-1,-1,-1,-1],"split_conditions":[6.666667E-1,5E-1,1E0,-3.3262584E-2,-1.385007E-2,-7.6164305E-3,5.1649185E-3],"split_indices":[4,4,4,0,0,0,0],"split_type":[0,0,0,0,0,0,0],"sum_hessian":[8E1,1.1E1,6.9E1,7E0,4E0,5E0,6.4E1],"tree_param":{"num_deleted":"0","num_feature":"6","num_nodes":"7","size_leaf_vector":"1"}},{"base_weights":[-5.6485613E-3,-2.554393E-1,3.7253406E-2,-3.035211E-2,-1.2742062E-2,-6.9817253E-3,4.656372E-3],"categories":[],"categories_nodes":[],"categories_segments":[],"categories_sizes":[],"default_left":[0,0,0,0,0,0,0],"id":10,"left_children":[1,3,5,-1,-1,-1,-1],"loss_changes":[8.7755364E-1,3.518951E-2,7.3031254E-2,0E0,0E0,0E0,0E0],"parents":[2147483647,0,0,1,1,2,2],"right_children":[2,4,6,-1,-1,-1,-1],"split_conditions":[6.666667E-1,5E-1,1E0,-3.035211E-2,-1.2742062E-2,-6.9817253E-3,4.656372E-3],"split_indices":[4,4,4,0,0,0,0],"split_type":[0,0,0,0,0,0,0],"sum_hessian":[8E1,1.1E1,6.9E1,7E0,4E0,5E0,6.4E1],"tree_param":{"num_deleted":"0","num_feature":"6","num_nodes":"7","size_leaf_vector":"1"}},{"base_weights":[-5.6444416E-3,-2.3348656E-1,3.349484E-2,-2.76963E-2,-1.1722698E-2,-6.3999146E-3,4.1978983E-3],"categories":[],"categories_nodes":[],"categories_segments":[],"categories_sizes":[],"default_left":[0,0,0,0,0,0,0],"id":11,"left_children":[1,3,5,-1,-1,-1,-1],"loss_changes":[7.301444E-1,2.8187037E-2,6.0587294E-2,0E0,0E0,0E0,0E0],"parents":[2147483647,0,0,1,1,2,2],"right_children":[2,4,6,-1,-1,-1,-1],"split_conditions":[6.666667E-1,5E-1,1E0,-2.76963E-2,-1.1722698E-2,-6.3999146E-3,4.1978983E-3],"split_indices":[4,4,4,0,0,0,0],"split_type":[0,0,0,0,0,0,0],"sum_hessian":[8E1,1.1E1,6.9E1,7E0,4E0,5E0,6.4E1],"tree_param":{"num_deleted":"0","num_feature":"6","num_nodes":"7","size_leaf_vector":"1"}},{"base_weights":[-5.5938335E-3,-2.1342282E-1,3.0113906E-2,-2.527287E-2,-1.0784884E-2,-5.866587E-3,3.7845671E-3],"categories":[],"categories_nodes":[],"categories_segments":[],"categories_sizes":[],"default_left":[0,0,0,0,0,0,0],"id":12,"left_children":[1,3,5,-1,-1,-1,-1],"loss_changes":[6.075363E-1,2.2539675E-2,5.026996E-2,0E0,0E0,0E0,0E0],"parents":[2147483647,0,0,1,1,2,2],"right_children":[2,4,6,-1,-1,-1,-1],"split_conditions":[6.666667E-1,5E-1,1E0,-2.527287E-2,-1.0784884E-2,-5.866587E-3,3.7845671E-3],"split_indices":[4,4,4,0,0,0,0],"split_type":[0,0,0,0,0,0,0],"sum_hessian":[8E1,1.1E1,6.9E1,7E0,4E0,5E0,6.4E1],"tree_param":{"num_deleted":"0","num_feature":"6","num_nodes":"7","size_leaf_vector":"1"}},{"base_weights":[-5.505289E-3,-1.9508536E-1,2.7072798E-2,-2.3061495E-2,-9.922095E-3,-5.377705E-3,3.4119356E-3],"categories":[],"categories_nodes":[],"categories_segments":[],"categories_sizes":[],"default_left":[0,0,0,0,0,0,0],"id":13,"left_children":[1,3,5,-1,-1,-1,-1],"loss_changes":[5.055502E-1,1.799044E-2,4.171476E-2,0E0,0E0,0E0,0E0],"parents":[2147483647,0,0,1,1,2,2],"right_children":[2,4,6,-1,-1,-1,-1],"split_conditions":[6.666667E-1,5E-1,1E0,-2.3061495E-2,-9.922095E-3,-5.377705E-3,3.4119356E-3],"split_indices":[4,4,4,0,0,0,0],"split_type":[0,0,0,0,0,0,0],"sum_hessian":[8E1,1.1E1,6.9E1,7E0,4E0,5E0,6.4E1],"tree_param":{"num_deleted":"0","num_feature":"6","num_nodes":"7","size_leaf_vector":"1"}},{"base_weights":[-5.3862436E-3,-1.7832546E-1,2.4337424E-2,-2.1043614E-2,-9.1283275E-3,-4.9295626E-3,3.07599E-3],"categories":[],"categories_nodes":[],"categories_segments":[],"categories_sizes":[],"default_left":[0,0,0,0,0,0,0],"id":14,"left_children":[1,3,5,-1,-1,-1,-1],"loss_changes":[4.207114E-1,1.43304765E-2,3.4619782E-2,0E0,0E0,0E0,0E0],"parents":[2147483647,0,0,1,1,2,2],"right_children":[2,4,6,-1,-1,-1,-1],"split_conditions":[6.666667E-1,5E-1,1E0,-2.1043614E-2,-9.1283275E-3,-4.9295626E-3,3.07599E-3],"split_indices":[4,4,4,0,0,0,0],"split_type":[0,0,0,0,0,0,0],"sum_hessian":[8E1,1.1E1,6.9E1,7E0,4E0,5E0,6.4E1],"tree_param":{"num_deleted":"0","num_feature":"6","num_nodes":"7","size_leaf_vector":"1"}},{"base_weights":[-5.2430183E-3,-1.6300723E-1,2.1877177E-2,-1.9202298E-2,-8.398061E-3,-4.5187674E-3,2.7731208E-3],"categories":[],"categories_nodes":[],"categories_segments":[],"categories_sizes":[],"default_left":[0,0,0,0,0,0,0],"id":15,"left_children":[1,3,5,-1,-1,-1,-1],"loss_changes":[3.5013244E-1,1.1390001E-2,2.8735083E-2,0E0,0E0,0E0,0E0],"parents":[2147483647,0,0,1,1,2,2],"right_children":[2,4,6,-1,-1,-1,-1],"split_conditions":[6.666667E-1,5E-1,1E0,-1.9202298E-2,-8.398061E-3,-4.5187674E-3,2.7731208E-3],"split_indices":[4,4,4,0,0,0,0],"split_type":[0,0,0,0,0,0,0],"sum_hessian":[8E1,1.1E1,6.9E1,7E0,4E0,5E0,6.4E1],"tree_param":{"num_deleted":"0","num_feature":"6","num_nodes":"7","size_leaf_vector":"1"}},{"base_weights":[-5.081003E-3,-1.4900655E-1,1.9664533E-2,-1.7522097E-2,-7.726216E-3,-4.142205E-3,2.5000763E-3],"categories":[],"categories_nodes":[],"categories_segments":[],"categories_sizes":[],"default_left":[0,0,0,0,0,0,0],"id":16,"left_children":[1,3,5,-1,-1,-1,-1],"loss_changes":[2.9141283E-1,9.030908E-3,2.3853628E-2,0E0,0E0,0E0,0E0],"parents":[2147483647,0,0,1,1,2,2],"right_children":[2,4,6,-1,-1,-1,-1],"split_conditions":[6.666667E-1,5E-1,1E0,-1.7522097E-2,-7.726216E-3,-4.142205E-3,2.5000763E-3],"split_indices":[4,4,4,0,0,0,0],"split_type":[0,0,0,0,0,0,0],"sum_hessian":[8E1,1.1E1,6.9E1,7E0,4E0,5E0,6.4E1],"tree_param":{"num_deleted":"0","num_feature":"6","num_nodes":"7","size_leaf_vector":"1"}},{"base_weights":[-4.9048685E-3,-1.3620992E-1,1.767464E-2,-1.5988914E-2,-7.1081207E-3,-3.7970196E-3,2.2539168E-3],"categories":[],"categories_nodes":[],"categories_segments":[],"categories_sizes":[],"default_left":[0,0,0,0,0,0,0],"id":17,"left_children":[1,3,5,-1,-1,-1,-1],"loss_changes":[2.4255656E-1,7.1412474E-3,1.980383E-2,0E0,0E0,0E0,0E0],"parents":[2147483647,0,0,1,1,2,2],"right_children":[2,4,6,-1,-1,-1,-1],"split_conditions":[6.666667E-1,5E-1,1E0,-1.5988914E-2,-7.1081207E-3,-3.7970196E-3,2.2539168E-3],"split_indices":[4,4,4,0,0,0,0],"split_type":[0,0,0,0,0,0,0],"sum_hessian":[8E1,1.1E1,6.9E1,7E0,4E0,5E0,6.4E1],"tree_param":{"num_deleted":"0","num_feature":"6","num_nodes":"7","size_leaf_vector":"1"}},{"base_weights":[-4.718562E-3,-1.2451369E-1,1.5885154E-2,-1.4589883E-2,-6.539474E-3,-3.4806032E-3,2.0319954E-3],"categories":[],"categories_nodes":[],"categories_segments":[],"categories_sizes":[],"default_left":[0,0,0,0,0,0,0],"id":18,"left_children":[1,3,5,-1,-1,-1,-1],"loss_changes":[2.0190413E-1,5.630195E-3,1.6443623E-2,0E0,0E0,0E0,0E0],"parents":[2147483647,0,0,1,1,2,2],"right_children":[2,4,6,-1,-1,-1,-1],"split_conditions":[6.666667E-1,5E-1,1E0,-1.4589883E-2,-6.539474E-3,-3.4806032E-3,2.0319954E-3],"split_indices":[4,4,4,0,0,0,0],"split_type":[0,0,0,0,0,0,0],"sum_hessian":[8E1,1.1E1,6.9E1,7E0,4E0,5E0,6.4E1],"tree_param":{"num_deleted":"0","num_feature":"6","num_nodes":"7","size_leaf_vector":"1"}},{"base_weights":[-4.525436E-3,-1.1382311E-1,1.4275957E-2,-1.331327E-2,-6.0163164E-3,-3.1905521E-3,1.8319233E-3],"categories":[],"categories_nodes":[],"categories_segments":[],"categories_sizes":[],"default_left":[0,0,0,0,0,0,0],"id":19,"left_children":[1,3,5,-1,-1,-1,-1],"loss_changes":[1.6807577E-1,4.424125E-3,1.3655196E-2,0E0,0E0,0E0,0E0],"parents":[2147483647,0,0,1,1,2,2],"right_children":[2,4,6,-1,-1,-1,-1],"split_conditions":[6.666667E-1,5E-1,1E0,-1.331327E-2,-6.0163164E-3,-3.1905521E-3,1.8319233E-3],"split_indices":[4,4,4,0,0,0,0],"split_type":[0,0,0,0,0,0,0],"sum_hessian":[8E1,1.1E1,6.9E1,7E0,4E0,5E0,6.4E1],"tree_param":{"num_deleted":"0","num_feature":"6","num_nodes":"7","size_leaf_vector":"1"}},{"base_weights":[-4.3283217E-3,-1.04051605E-1,1.2828931E-2,-1.2148358E-2,-5.5350116E-3,-2.924671E-3,1.6515468E-3],"categories":[],"categories_nodes":[],"categories_segments":[],"categories_sizes":[],"default_left":[0,0,0,0,0,0,0],"id":20,"left_children":[1,3,5,-1,-1,-1,-1],"loss_changes":[1.3992403E-1,3.4634322E-3,1.1340961E-2,0E0,0E0,0E0,0E0],"parents":[2147483647,0,0,1,1,2,2],"right_children":[2,4,6,-1,-1,-1,-1],"split_conditions":[6.666667E-1,5E-1,1E0,-1.2148358E-2,-5.5350116E-3,-2.924671E-3,1.6515468E-3],"split_indices":[4,4,4,0,0,0,0],"split_type":[0,0,0,0,0,0,0],"sum_hessian":[8E1,1.1E1,6.9E1,7E0,4E0,5E0,6.4E1],"tree_param":{"num_deleted":"0","num_feature":"6","num_nodes":"7","size_leaf_vector":"1"}},{"base_weights":[-4.129504E-3,-9.5120065E-2,1.1527871E-2,-1.1085378E-2,-5.0922106E-3,-2.6809475E-3,1.4889351E-3],"categories":[],"categories_nodes":[],"categories_segments":[],"categories_sizes":[],"default_left":[0,0,0,0,0,0,0],"id":21,"left_children":[1,3,5,-1,-1,-1,-1],"loss_changes":[1.1649506E-1,2.6998743E-3,9.42009E-3,0E0,0E0,0E0,0E0],"parents":[2147483647,0,0,1,1,2,2],"right_children":[2,4,6,-1,-1,-1,-1],"split_conditions":[6.666667E-1,5E-1,1E0,-1.1085378E-2,-5.0922106E-3,-2.6809475E-3,1.4889351E-3],"split_indices":[4,4,4,0,0,0,0],"split_type":[0,0,0,0,0,0,0],"sum_hessian":[8E1,1.1E1,6.9E1,7E0,4E0,5E0,6.4E1],"tree_param":{"num_deleted":"0","num_feature":"6","num_nodes":"7","size_leaf_vector":"1"}},{"base_weights":[-3.930984E-3,-8.695619E-2,1.0358065E-2,-1.0115407E-2,-4.6848347E-3,-2.4575344E-3,1.3423333E-3],"categories":[],"categories_nodes":[],"categories_segments":[],"categories_sizes":[],"default_left":[0,0,0,0,0,0,0],"id":22,"left_children":[1,3,5,-1,-1,-1,-1],"loss_changes":[9.699515E-2,2.094455E-3,7.825499E-3,0E0,0E0,0E0,0E0],"parents":[2147483647,0,0,1,1,2,2],"right_children":[2,4,6,-1,-1,-1,-1],"split_conditions":[6.666667E-1,5E-1,1E0,-1.0115407E-2,-4.6848347E-3,-2.4575344E-3,1.3423333E-3],"split_indices":[4,4,4,0,0,0,0],"split_type":[0,0,0,0,0,0,0],"sum_hessian":[8E1,1.1E1,6.9E1,7E0,4E0,5E0,6.4E1],"tree_param":{"num_deleted":"0","num_feature":"6","num_nodes":"7","size_leaf_vector":"1"}},{"base_weights":[-3.7343907E-3,-7.949393E-2,9.306308E-3,-9.230309E-3,-4.31005E-3,-2.2527378E-3,1.2101628E-3],"categories":[],"categories_nodes":[],"categories_segments":[],"categories_sizes":[],"default_left":[0,0,0,0,0,0,0],"id":23,"left_children":[1,3,5,-1,-1,-1,-1],"loss_changes":[8.0764346E-2,1.6157255E-3,6.501591E-3,0E0,0E0,0E0,0E0],"parents":[2147483647,0,0,1,1,2,2],"right_children":[2,4,6,-1,-1,-1,-1],"split_conditions":[6.666667E-1,5E-1,1E0,-9.230309E-3,-4.31005E-3,-2.2527378E-3,1.2101628E-3],"split_indices":[4,4,4,0,0,0,0],"split_type":[0,0,0,0,0,0,0],"sum_hessian":[8E1,1.1E1,6.9E1,7E0,4E0,5E0,6.4E1],"tree_param":{"num_deleted":"0","num_feature":"6","num_nodes":"7","size_leaf_vector":"1"}},{"base_weights":[-3.540978E-3,-7.2672896E-2,8.360794E-3,-8.422657E-3,-3.9652446E-3,-2.065008E-3,1.0910094E-3],"categories":[],"categories_nodes":[],"categories_segments":[],"categories_sizes":[],"default_left":[0,0,0,0,0,0,0],"id":24,"left_children":[1,3,5,-1,-1,-1,-1],"loss_changes":[6.725378E-2,1.2383014E-3,5.402311E-3,0E0,0E0,0E0,0E0],"parents":[2147483647,0,0,1,1,2,2],"right_children":[2,4,6,-1,-1,-1,-1],"split_conditions":[6.666667E-1,5E-1,1E0,-8.422657E-3,-3.9652446E-3,-2.065008E-3,1.0910094E-3],"split_indices":[4,4,4,0,0,0,0],"split_type":[0,0,0,0,0,0,0],"sum_hessian":[8E1,1.1E1,6.9E1,7E0,4E0,5E0,6.4E1],"tree_param":{"num_deleted":"0","num_feature":"6","num_nodes":"7","size_leaf_vector":"1"}},{"base_weights":[-3.351837E-3,-6.643793E-2,7.510805E-3,-7.685675E-3,-3.6480238E-3,-1.8929243E-3,9.835873E-4],"categories":[],"categories_nodes":[],"categories_segments":[],"categories_sizes":[],"default_left":[0,0,0,0,0,0,0],"id":25,"left_children":[1,3,5,-1,-1,-1,-1],"loss_changes":[5.600681E-2,9.4173476E-4,4.4894307E-3,0E0,0E0,0E0,0E0],"parents":[2147483647,0,0,1,1,2,2],"right_children":[2,4,6,-1,-1,-1,-1],"split_conditions":[6.666667E-1,5E-1,1E0,-7.685675E-3,-3.6480238E-3,-1.8929243E-3,9.835873E-4],"split_indices":[4,4,4,0,0,0,0],"split_type":[0,0,0,0,0,0,0],"sum_hessian":[8E1,1.1E1,6.9E1,7E0,4E0,5E0,6.4E1],"tree_param":{"num_deleted":"0","num_feature":"6","num_nodes":"7","size_leaf_vector":"1"}},{"base_weights":[-3.1678074E-3,-6.0738605E-2,6.7467266E-3,-7.013178E-3,-3.3561804E-3,-1.7351806E-3,8.867411E-4],"categories":[],"categories_nodes":[],"categories_segments":[],"categories_sizes":[],"default_left":[0,0,0,0,0,0,0],"id":26,"left_children":[1,3,5,-1,-1,-1,-1],"loss_changes":[4.6643578E-2,7.0957094E-4,3.7312421E-3,0E0,0E0,0E0,0E0],"parents":[2147483647,0,0,1,1,2,2],"right_children":[2,4,6,-1,-1,-1,-1],"split_conditions":[6.666667E-1,5E-1,1E0,-7.013178E-3,-3.3561804E-3,-1.7351806E-3,8.867411E-4],"split_indices":[4,4,4,0,0,0,0],"split_type":[0,0,0,0,0,0,0],"sum_hessian":[8E1,1.1E1,6.9E1,7E0,4E0,5E0,6.4E1],"tree_param":{"num_deleted":"0","num_feature":"6","num_nodes":"7","size_leaf_vector":"1"}},{"base_weights":[-2.9895185E-3,-5.5528864E-2,6.0599335E-3,-6.399525E-3,-3.0876875E-3,-1.5905848E-3,7.9943147E-4],"categories":[],"categories_nodes":[],"categories_segments":[],"categories_sizes":[],"default_left":[0,0,0,0,0,0,0],"id":27,"left_children":[1,3,5,-1,-1,-1,-1],"loss_changes":[3.884814E-2,5.2858517E-4,3.101469E-3,0E0,0E0,0E0,0E0],"parents":[2147483647,0,0,1,1,2,2],"right_children":[2,4,6,-1,-1,-1,-1],"split_conditions":[6.666667E-1,5E-1,1E0,-6.399525E-3,-3.0876875E-3,-1.5905848E-3,7.9943147E-4],"split_indices":[4,4,4,0,0,0,0],"split_type":[0,0,0,0,0,0,0],"sum_hessian":[8E1,1.1E1,6.9E1,7E0,4E0,5E0,6.4E1],"tree_param":{"num_deleted":"0","num_feature":"6","num_nodes":"7","size_leaf_vector":"1"}},{"base_weights":[-2.8174466E-3,-5.0766572E-2,5.4426524E-3,-5.8395662E-3,-2.8406715E-3,-1.4580339E-3,7.207196E-4],"categories":[],"categories_nodes":[],"categories_segments":[],"categories_sizes":[],"default_left":[0,0,0,0,0,0,0],"id":28,"left_children":[1,3,5,-1,-1,-1,-1],"loss_changes":[3.2357533E-2,3.8819574E-4,2.5782837E-3,0E0,0E0,0E0,0E0],"parents":[2147483647,0,0,1,1,2,2],"right_children":[2,4,6,-1,-1,-1,-1],"split_conditions":[6.666667E-1,5E-1,1E0,-5.8395662E-3,-2.8406715E-3,-1.4580339E-3,7.207196E-4],"split_indices":[4,4,4,0,0,0,0],"split_type":[0,0,0,0,0,0,0],"sum_hessian":[8E1,1.1E1,6.9E1,7E0,4E0,5E0,6.4E1],"tree_param":{"num_deleted":"0","num_feature":"6","num_nodes":"7","size_leaf_vector":"1"}},{"base_weights":[-2.6519813E-3,-4.6413258E-2,4.887837E-3,-5.328604E-3,-2.6134157E-3,-1.3365299E-3,6.497545E-4],"categories":[],"categories_nodes":[],"categories_segments":[],"categories_sizes":[],"default_left":[0,0,0,0,0,0,0],"id":29,"left_children":[1,3,5,-1,-1,-1,-1],"loss_changes":[2.695298E-2,2.798997E-4,2.143596E-3,0E0,0E0,0E0,0E0],"parents":[2147483647,0,0,1,1,2,2],"right_children":[2,4,6,-1,-1,-1,-1],"split_conditions":[6.666667E-1,5E-1,1E0,-5.328604E-3,-2.6134157E-3,-1.3365299E-3,6.497545E-4],"split_indices":[4,4,4,0,0,0,0],"split_type":[0,0,0,0,0,0,0],"sum_hessian":[8E1,1.1E1,6.9E1,7E0,4E0,5E0,6.4E1],"tree_param":{"num_deleted":"0","num_feature":"6","num_nodes":"7","size_leaf_vector":"1"}},{"base_weights":[-2.4933089E-3,-4.2433765E-2,4.389245E-3,-4.862351E-3,-2.4043417E-3,-1.2251537E-3,5.85779E-4],"categories":[],"categories_nodes":[],"categories_segments":[],"categories_sizes":[],"default_left":[0,0,0,0,0,0,0],"id":30,"left_children":[1,3,5,-1,-1,-1,-1],"loss_changes":[2.2452533E-2,1.9690208E-4,1.7824089E-3,0E0,0E0,0E0,0E0],"parents":[2147483647,0,0,1,1,2,2],"right_children":[2,4,6,-1,-1,-1,-1],"split_conditions":[6.666667E-1,5E-1,1E0,-4.862351E-3,-2.4043417E-3,-1.2251537E-3,5.85779E-4],"split_indices":[4,4,4,0,0,0,0],"split_type":[0,0,0,0,0,0,0],"sum_hessian":[8E1,1.1E1,6.9E1,7E0,4E0,5E0,6.4E1],"tree_param":{"num_deleted":"0","num_feature":"6","num_nodes":"7","size_leaf_vector":"1"}},{"base_weights":[-2.3415952E-3,-3.8795948E-2,3.941174E-3,-4.4368957E-3,-2.2119952E-3,-1.1230558E-3,5.281008E-4],"categories":[],"categories_nodes":[],"categories_segments":[],"categories_sizes":[],"default_left":[0,0,0,0,0,0,0],"id":31,"left_children":[1,3,5,-1,-1,-1,-1],"loss_changes":[1.870468E-2,1.3378635E-4,1.4822411E-3,0E0,0E0,0E0,0E0],"parents":[2147483647,0,0,1,1,2,2],"right_children":[2,4,6,-1,-1,-1,-1],"split_conditions":[6.666667E-1,5E-1,1E0,-4.4368957E-3,-2.2119952E-3,-1.1230558E-3,5.281008E-4],"split_indices":[4,4,4,0,0,0,0],"split_type":[0,0,0,0,0,0,0],"sum_hessian":[8E1,1.1E1,6.9E1,7E0,4E0,5E0,6.4E1],"tree_param":{"num_deleted":"0","num_feature":"6","num_nodes":"7","size_leaf_vector":"1"}},{"base_weights":[-2.1968624E-3,-3.5470434E-2,3.5385618E-3,-4.0486674E-3,-2.0350362E-3,-1.0294666E-3,4.7610357E-4],"categories":[],"categories_nodes":[],"categories_segments":[],"categories_sizes":[],"default_left":[0,0,0,0,0,0,0],"id":32,"left_children":[1,3,5,-1,-1,-1,-1],"loss_changes":[1.5583394E-2,8.623209E-5,1.2327665E-3,0E0,0E0,0E0,0E0],"parents":[2147483647,0,0,1,1,2,2],"right_children":[2,4,6,-1,-1,-1,-1],"split_conditions":[6.666667E-1,5E-1,1E0,-4.0486674E-3,-2.0350362E-3,-1.0294666E-3,4.7610357E-4],"split_indices":[4,4,4,0,0,0,0],"split_type":[0,0,0,0,0,0,0],"sum_hessian":[8E1,1.1E1,6.9E1,7E0,4E0,5E0,6.4E1],"tree_param":{"num_deleted":"0","num_feature":"6","num_nodes":"7","size_leaf_vector":"1"}},{"base_weights":[-2.0591288E-3,-3.243037E-2,3.1767853E-3,-3.6944088E-3,-1.8722344E-3,-9.4367564E-4,4.2922384E-4],"categories":[],"categories_nodes":[],"categories_segments":[],"categories_sizes":[],"default_left":[0,0,0,0,0,0,0],"id":33,"left_children":[1,3,5,-1,-1,-1,-1],"loss_changes":[1.2983743E-2,5.0809234E-5,1.025392E-3,0E0,0E0,0E0,0E0],"parents":[2147483647,0,0,1,1,2,2],"right_children":[2,4,6,-1,-1,-1,-1],"split_conditions":[6.666667E-1,5E-1,1E0,-3.6944088E-3,-1.8722344E-3,-9.4367564E-4,4.2922384E-4],"split_indices":[4,4,4,0,0,0,0],"split_type":[0,0,0,0,0,0,0],"sum_hessian":[8E1,1.1E1,6.9E1,7E0,4E0,5E0,6.4E1],"tree_param":{"num_deleted":"0","num_feature":"6","num_nodes":"7","size_leaf_vector":"1"}},{"base_weights":[-1.9282834E-3,-2.9651217E-2,2.8517663E-3,-3.3711481E-3,-1.722455E-3,-8.6503726E-4,3.869629E-4],"categories":[],"categories_nodes":[],"categories_segments":[],"categories_sizes":[],"default_left":[0,0,0,0,0,0,0],"id":34,"left_children":[1,3,5,-1,-1,-1,-1],"loss_changes":[1.0818436E-2,2.480112E-5,8.530055E-4,0E0,0E0,0E0,0E0],"parents":[2147483647,0,0,1,1,2,2],"right_children":[2,4,6,-1,-1,-1,-1],"split_conditions":[6.666667E-1,5E-1,1E0,-3.3711481E-3,-1.722455E-3,-8.6503726E-4,3.869629E-4],"split_indices":[4,4,4,0,0,0,0],"split_type":[0,0,0,0,0,0,0],"sum_hessian":[8E1,1.1E1,6.9E1,7E0,4E0,5E0,6.4E1],"tree_param":{"num_deleted":"0","num_feature":"6","num_nodes":"7","size_leaf_vector":"1"}},{"base_weights":[-1.8042333E-3,-2.7110562E-2,2.5597692E-3,-3.0761727E-3,-1.5846586E-3,-7.929504E-4,3.4886287E-4],"categories":[],"categories_nodes":[],"categories_segments":[],"categories_sizes":[],"default_left":[0,0,0,0,0,0,0],"id":35,"left_children":[1,3,5,-1,-1,-1,-1],"loss_changes":[9.014783E-3,6.0508028E-6,7.0967746E-4,0E0,0E0,0E0,0E0],"parents":[2147483647,0,0,1,1,2,2],"right_children":[2,4,6,-1,-1,-1,-1],"split_conditions":[6.666667E-1,5E-1,1E0,-3.0761727E-3,-1.5846586E-3,-7.929504E-4,3.4886287E-4],"split_indices":[4,4,4,0,0,0,0],"split_type":[0,0,0,0,0,0,0],"sum_hessian":[8E1,1.1E1,6.9E1,7E0,4E0,5E0,6.4E1],"tree_param":{"num_deleted":"0","num_feature":"6","num_nodes":"7","size_leaf_vector":"1"}},{"base_weights":[-1.6868383E-3,-2.4787912E-3,2.297443E-3,-7.268737E-4,3.14513E-4],"categories":[],"categories_nodes":[],"categories_segments":[],"categories_sizes":[],"default_left":[0,0,0,0,0],"id":36,"left_children":[1,-1,3,-1,-1],"loss_changes":[7.5122835E-3,0E0,5.904997E-4,0E0,0E0],"parents":[2147483647,0,0,2,2],"right_children":[2,-1,4,-1,-1],"split_conditions":[6.666667E-1,-2.4787912E-3,1E0,-7.268737E-4,3.14513E-4],"split_indices":[4,0,4,0,0],"split_type":[0,0,0,0,0],"sum_hessian":[8E1,1.1E1,6.9E1,5E0,6.4E1],"tree_param":{"num_deleted":"0","num_feature":"6","num_nodes":"5","size_leaf_vector":"1"}},{"base_weights":[-1.5538643E-3,-2.251569E-2,2.0617894E-3,-2.590113E-3,-1.2595844E-3,-6.663005E-4,2.8354352E-4],"categories":[],"categories_nodes":[],"categories_segments":[],"categories_sizes":[],"default_left":[0,0,0,0,0,0,0],"id":37,"left_children":[1,3,5,-1,-1,-1,-1],"loss_changes":[6.185469E-3,7.675029E-5,4.9138546E-4,0E0,0E0,0E0,0E0],"parents":[2147483647,0,0,1,1,2,2],"right_children":[2,4,6,-1,-1,-1,-1],"split_conditions":[6.666667E-1,5E-1,1E0,-2.590113E-3,-1.2595844E-3,-6.663005E-4,2.8354352E-4],"split_indices":[4,4,4,0,0,0,0],"split_type":[0,0,0,0,0,0,0],"sum_hessian":[8E1,1.1E1,6.9E1,7E0,4E0,5E0,6.4E1],"tree_param":{"num_deleted":"0","num_feature":"6","num_nodes":"7","size_leaf_vector":"1"}},{"base_weights":[-1.4507269E-3,-2.0584935E-2,1.8501477E-3,-2.3634783E-3,-1.1588192E-3,-6.107738E-4,2.5562578E-4],"categories":[],"categories_nodes":[],"categories_segments":[],"categories_sizes":[],"default_left":[0,0,0,0,0,0,0],"id":38,"left_children":[1,3,5,-1,-1,-1,-1],"loss_changes":[5.1540146E-3,5.5380166E-5,4.0895306E-4,0E0,0E0,0E0,0E0],"parents":[2147483647,0,0,1,1,2,2],"right_children":[2,4,6,-1,-1,-1,-1],"split_conditions":[6.666667E-1,5E-1,1E0,-2.3634783E-3,-1.1588192E-3,-6.107738E-4,2.5562578E-4],"split_indices":[4,4,4,0,0,0,0],"split_type":[0,0,0,0,0,0,0],"sum_hessian":[8E1,1.1E1,6.9E1,7E0,4E0,5E0,6.4E1],"tree_param":{"num_deleted":"0","num_feature":"6","num_nodes":"7","size_leaf_vector":"1"}},{"base_weights":[-1.3535381E-3,-1.8819962E-2,1.6600421E-3,-2.156674E-3,-1.0661125E-3,-5.598764E-4,2.3045465E-4],"categories":[],"categories_nodes":[],"categories_segments":[],"categories_sizes":[],"default_left":[0,0,0,0,0,0,0],"id":39,"left_children":[1,3,5,-1,-1,-1,-1],"loss_changes":[4.2947954E-3,3.900053E-5,3.403859E-4,0E0,0E0,0E0,0E0],"parents":[2147483647,0,0,1,1,2,2],"right_children":[2,4,6,-1,-1,-1,-1],"split_conditions":[6.666667E-1,5E-1,1E0,-2.156674E-3,-1.0661125E-3,-5.598764E-4,2.3045465E-4],"split_indices":[4,4,4,0,0,0,0],"split_type":[0,0,0,0,0,0,0],"sum_hessian":[8E1,1.1E1,6.9E1,7E0,4E0,5E0,6.4E1],"tree_param":{"num_deleted":"0","num_feature":"6","num_nodes":"7","size_leaf_vector":"1"}},{"base_weights":[-1.2620222E-3,-1.7206538E-2,1.4893523E-3,-1.967965E-3,-9.808255E-4,-5.1322085E-4,2.0776603E-4],"categories":[],"categories_nodes":[],"categories_segments":[],"categories_sizes":[],"default_left":[0,0,0,0,0,0,0],"id":40,"left_children":[1,3,5,-1,-1,-1,-1],"loss_changes":[3.5790429E-3,2.653827E-5,2.8334913E-4,0E0,0E0,0E0,0E0],"parents":[2147483647,0,0,1,1,2,2],"right_children":[2,4,6,-1,-1,-1,-1],"split_conditions":[6.666667E-1,5E-1,1E0,-1.967965E-3,-9.808255E-4,-5.1322085E-4,2.0776603E-4],"split_indices":[4,4,4,0,0,0,0],"split_type":[0,0,0,0,0,0,0],"sum_hessian":[8E1,1.1E1,6.9E1,7E0,4E0,5E0,6.4E1],"tree_param":{"num_deleted":"0","num_feature":"6","num_nodes":"7","size_leaf_vector":"1"}},{"base_weights":[-1.1760084E-3,-1.5731607E-2,1.3360373E-3,-1.795768E-3,-9.0235716E-4,-4.7045448E-4,1.8730751E-4],"categories":[],"categories_nodes":[],"categories_segments":[],"categories_sizes":[],"default_left":[0,0,0,0,0,0,0],"id":41,"left_children":[1,3,5,-1,-1,-1,-1],"loss_changes":[2.9827286E-3,1.7148443E-5,2.3589341E-4,0E0,0E0,0E0,0E0],"parents":[2147483647,0,0,1,1,2,2],"right_children":[2,4,6,-1,-1,-1,-1],"split_conditions":[6.666667E-1,5E-1,1E0,-1.795768E-3,-9.0235716E-4,-4.7045448E-4,1.8730751E-4],"split_indices":[4,4,4,0,0,0,0],"split_type":[0,0,0,0,0,0,0],"sum_hessian":[8E1,1.1E1,6.9E1,7E0,4E0,5E0,6.4E1],"tree_param":{"num_deleted":"0","num_feature":"6","num_nodes":"7","size_leaf_vector":"1"}},{"base_weights":[-1.0951897E-3,-1.4383291E-2,1.1984161E-3,-1.6386382E-3,-8.301688E-4,-4.3124953E-4,1.6886785E-4],"categories":[],"categories_nodes":[],"categories_segments":[],"categories_sizes":[],"default_left":[0,0,0,0,0,0,0],"id":42,"left_children":[1,3,5,-1,-1,-1,-1],"loss_changes":[2.4859281E-3,1.0149553E-5,1.9640788E-4,0E0,0E0,0E0,0E0],"parents":[2147483647,0,0,1,1,2,2],"right_children":[2,4,6,-1,-1,-1,-1],"split_conditions":[6.666667E-1,5E-1,1E0,-1.6386382E-3,-8.301688E-4,-4.3124953E-4,1.6886785E-4],"split_indices":[4,4,4,0,0,0,0],"split_type":[0,0,0,0,0,0,0],"sum_hessian":[8E1,1.1E1,6.9E1,7E0,4E0,5E0,6.4E1],"tree_param":{"num_deleted":"0","num_feature":"6","num_nodes":"7","size_leaf_vector":"1"}},{"base_weights":[-1.0193832E-3,-1.3150694E-2,1.0748326E-3,-1.4952574E-3,-7.637548E-4,-3.953129E-4,1.5224164E-4],"categories":[],"categories_nodes":[],"categories_segments":[],"categories_sizes":[],"default_left":[0,0,0,0,0,0,0],"id":43,"left_children":[1,3,5,-1,-1,-1,-1],"loss_changes":[2.0719871E-3,5.007256E-6,1.6354866E-4,0E0,0E0,0E0,0E0],"parents":[2147483647,0,0,1,1,2,2],"right_children":[2,4,6,-1,-1,-1,-1],"split_conditions":[6.666667E-1,5E-1,1E0,-1.4952574E-3,-7.637548E-4,-3.953129E-4,1.5224164E-4],"split_indices":[4,4,4,0,0,0,0],"split_type":[0,0,0,0,0,0,0],"sum_hessian":[8E1,1.1E1,6.9E1,7E0,4E0,5E0,6.4E1],"tree_param":{"num_deleted":"0","num_feature":"6","num_nodes":"7","size_leaf_vector":"1"}},{"base_weights":[-9.4832585E-4,-1.202387E-2,9.6388627E-4,-1.3644224E-3,-7.0265296E-4,-3.6237141E-4,1.372528E-4],"categories":[],"categories_nodes":[],"categories_segments":[],"categories_sizes":[],"default_left":[0,0,0,0,0,0,0],"id":44,"left_children":[1,3,5,-1,-1,-1,-1],"loss_changes":[1.7270717E-3,1.2979144E-6,1.362016E-4,0E0,0E0,0E0,0E0],"parents":[2147483647,0,0,1,1,2,2],"right_children":[2,4,6,-1,-1,-1,-1],"split_conditions":[6.666667E-1,5E-1,1E0,-1.3644224E-3,-7.0265296E-4,-3.6237141E-4,1.372528E-4],"split_indices":[4,4,4,0,0,0,0],"split_type":[0,0,0,0,0,0,0],"sum_hessian":[8E1,1.1E1,6.9E1,7E0,4E0,5E0,6.4E1],"tree_param":{"num_deleted":"0","num_feature":"6","num_nodes":"7","size_leaf_vector":"1"}},{"base_weights":[-8.8180235E-4,-1.0993731E-3,8.642682E-4,-3.3217174E-4,1.2373705E-4],"categories":[],"categories_nodes":[],"categories_segments":[],"categories_sizes":[],"default_left":[0,0,0,0,0],"id":45,"left_children":[1,-1,3,-1,-1],"loss_changes":[1.4396488E-3,0E0,1.1343621E-4,0E0,0E0],"parents":[2147483647,0,0,2,2],"right_children":[2,-1,4,-1,-1],"split_conditions":[6.666667E-1,-1.0993731E-3,1E0,-3.3217174E-4,1.2373705E-4],"split_indices":[4,0,4,0,0],"split_type":[0,0,0,0,0],"sum_hessian":[8E1,1.1E1,6.9E1,5E0,6.4E1],"tree_param":{"num_deleted":"0","num_feature":"6","num_nodes":"5","size_leaf_vector":"1"}},{"base_weights":[-8.0977054E-4,-9.98598E-3,7.7486207E-4,-1.1488403E-3,-5.584908E-4,-3.0449033E-4,1.1155348E-4],"categories":[],"categories_nodes":[],"categories_segments":[],"categories_sizes":[],"default_left":[0,0,0,0,0,0,0],"id":46,"left_children":[1,3,5,-1,-1,-1,-1],"loss_changes":[1.1855523E-3,1.518568E-5,9.4487E-5,0E0,0E0,0E0,0E0],"parents":[2147483647,0,0,1,1,2,2],"right_children":[2,4,6,-1,-1,-1,-1],"split_conditions":[6.666667E-1,5E-1,1E0,-1.1488403E-3,-5.584908E-4,-3.0449033E-4,1.1155348E-4],"split_indices":[4,4,4,0,0,0,0],"split_type":[0,0,0,0,0,0,0],"sum_hessian":[8E1,1.1E1,6.9E1,7E0,4E0,5E0,6.4E1],"tree_param":{"num_deleted":"0","num_feature":"6","num_nodes":"7","size_leaf_vector":"1"}},{"base_weights":[-7.522724E-4,-9.129658E-3,6.945976E-4,-1.0483167E-3,-5.1381113E-4,-2.7911365E-4,1.0056716E-4],"categories":[],"categories_nodes":[],"categories_segments":[],"categories_sizes":[],"default_left":[0,0,0,0,0,0,0],"id":47,"left_children":[1,3,5,-1,-1,-1,-1],"loss_changes":[9.881414E-4,1.09674875E-5,7.870945E-5,0E0,0E0,0E0,0E0],"parents":[2147483647,0,0,1,1,2,2],"right_children":[2,4,6,-1,-1,-1,-1],"split_conditions":[6.666667E-1,5E-1,1E0,-1.0483167E-3,-5.1381113E-4,-2.7911365E-4,1.0056716E-4],"split_indices":[4,4,4,0,0,0,0],"split_type":[0,0,0,0,0,0,0],"sum_hessian":[8E1,1.1E1,6.9E1,7E0,4E0,5E0,6.4E1],"tree_param":{"num_deleted":"0","num_feature":"6","num_nodes":"7","size_leaf_vector":"1"}},{"base_weights":[-6.9852377E-4,-8.346875E-3,6.226012E-4,-9.56589E-4,-4.7270776E-4,-2.5585294E-4,9.066655E-5],"categories":[],"categories_nodes":[],"categories_segments":[],"categories_sizes":[],"default_left":[0,0,0,0,0,0,0],"id":48,"left_children":[1,3,5,-1,-1,-1,-1],"loss_changes":[8.236555E-4,7.7322475E-6,6.557493E-5,0E0,0E0,0E0,0E0],"parents":[2147483647,0,0,1,1,2,2],"right_children":[2,4,6,-1,-1,-1,-1],"split_conditions":[6.666667E-1,5E-1,1E0,-9.56589E-4,-4.7270776E-4,-2.5585294E-4,9.066655E-5],"split_indices":[4,4,4,0,0,0,0],"split_type":[0,0,0,0,0,0,0],"sum_hessian":[8E1,1.1E1,6.9E1,7E0,4E0,5E0,6.4E1],"tree_param":{"num_deleted":"0","num_feature":"6","num_nodes":"7","size_leaf_vector":"1"}},{"base_weights":[-6.483474E-4,-7.6312902E-3,5.5799057E-4,-8.728874E-4,-4.3488978E-4,-2.3452938E-4,8.174016E-5],"categories":[],"categories_nodes":[],"categories_segments":[],"categories_sizes":[],"default_left":[0,0,0,0,0,0,0],"id":49,"left_children":[1,3,5,-1,-1,-1,-1],"loss_changes":[6.8658515E-4,5.2714604E-6,5.4637123E-5,0E0,0E0,0E0,0E0],"parents":[2147483647,0,0,1,1,2,2],"right_children":[2,4,6,-1,-1,-1,-1],"split_conditions":[6.666667E-1,5E-1,1E0,-8.728874E-4,-4.3488978E-4,-2.3452938E-4,8.174016E-5],"split_indices":[4,4,4,0,0,0,0],"split_type":[0,0,0,0,0,0,0],"sum_hessian":[8E1,1.1E1,6.9E1,7E0,4E0,5E0,6.4E1],"tree_param":{"num_deleted":"0","num_feature":"6","num_nodes":"7","size_leaf_vector":"1"}},{"base_weights":[-6.015266E-4,-6.9771474E-3,5.000302E-4,-7.9650973E-4,-4.0009976E-4,-2.1498401E-4,7.3694086E-5],"categories":[],"categories_nodes":[],"categories_segments":[],"categories_sizes":[],"default_left":[0,0,0,0,0,0,0],"id":50,"left_children":[1,3,5,-1,-1,-1,-1],"loss_changes":[5.723606E-4,3.4151017E-6,4.552908E-5,0E0,0E0,0E0,0E0],"parents":[2147483647,0,0,1,1,2,2],"right_children":[2,4,6,-1,-1,-1,-1],"split_conditions":[6.666667E-1,5E-1,1E0,-7.9650973E-4,-4.0009976E-4,-2.1498401E-4,7.3694086E-5],"split_indices":[4,4,4,0,0,0,0],"split_type":[0,0,0,0,0,0,0],"sum_hessian":[8E1,1.1E1,6.9E1,7E0,4E0,5E0,6.4E1],"tree_param":{"num_deleted":"0","num_feature":"6","num_nodes":"7","size_leaf_vector":"1"}},{"base_weights":[-5.578713E-4,-6.379141E-3,4.4803025E-4,-7.2681514E-4,-3.6808968E-4,-1.9706786E-4,6.644029E-5],"categories":[],"categories_nodes":[],"categories_segments":[],"categories_sizes":[],"default_left":[0,0,0,0,0,0,0],"id":51,"left_children":[1,3,5,-1,-1,-1,-1],"loss_changes":[4.771636E-4,2.031913E-6,3.7943297E-5,0E0,0E0,0E0,0E0],"parents":[2147483647,0,0,1,1,2,2],"right_children":[2,4,6,-1,-1,-1,-1],"split_conditions":[6.666667E-1,5E-1,1E0,-7.2681514E-4,-3.6808968E-4,-1.9706786E-4,6.644029E-5],"split_indices":[4,4,4,0,0,0,0],"split_type":[0,0,0,0,0,0,0],"sum_hessian":[8E1,1.1E1,6.9E1,7E0,4E0,5E0,6.4E1],"tree_param":{"num_deleted":"0","num_feature":"6","num_nodes":"7","size_leaf_vector":"1"}},{"base_weights":[-5.172286E-4,-5.8324593E-3,4.0134275E-4,-6.632188E-4,-3.386402E-4,-1.8064678E-4,5.9896614E-5],"categories":[],"categories_nodes":[],"categories_segments":[],"categories_sizes":[],"default_left":[0,0,0,0,0,0,0],"id":52,"left_children":[1,3,5,-1,-1,-1,-1],"loss_changes":[3.9781677E-4,1.0149379E-6,3.1624062E-5,0E0,0E0,0E0,0E0],"parents":[2147483647,0,0,1,1,2,2],"right_children":[2,4,6,-1,-1,-1,-1],"split_conditions":[6.666667E-1,5E-1,1E0,-6.632188E-4,-3.386402E-4,-1.8064678E-4,5.9896614E-5],"split_indices":[4,4,4,0,0,0,0],"split_type":[0,0,0,0,0,0,0],"sum_hessian":[8E1,1.1E1,6.9E1,7E0,4E0,5E0,6.4E1],"tree_param":{"num_deleted":"0","num_feature":"6","num_nodes":"7","size_leaf_vector":"1"}},{"base_weights":[-4.793703E-4,-5.3327106E-4,3.5947902E-4,-1.6559164E-4,5.399851E-5],"categories":[],"categories_nodes":[],"categories_segments":[],"categories_sizes":[],"default_left":[0,0,0,0,0],"id":53,"left_children":[1,-1,3,-1,-1],"loss_changes":[3.3168588E-4,0E0,2.6359543E-5,0E0,0E0],"parents":[2147483647,0,0,2,2],"right_children":[2,-1,4,-1,-1],"split_conditions":[6.666667E-1,-5.3327106E-4,1E0,-1.6559164E-4,5.399851E-5],"split_indices":[4,0,4,0,0],"split_type":[0,0,0,0,0],"sum_hessian":[8E1,1.1E1,6.9E1,5E0,6.4E1],"tree_param":{"num_deleted":"0","num_feature":"6","num_nodes":"5","size_leaf_vector":"1"}},{"base_weights":[-4.3939718E-4,-4.843875E-3,3.219332E-4,-5.585259E-4,-2.6888849E-4,-1.5179317E-4,4.8681406E-5],"categories":[],"categories_nodes":[],"categories_segments":[],"categories_sizes":[],"default_left":[0,0,0,0,0,0,0],"id":54,"left_children":[1,3,5,-1,-1,-1,-1],"loss_changes":[2.7317367E-4,4.1539897E-6,2.1974043E-5,0E0,0E0,0E0,0E0],"parents":[2147483647,0,0,1,1,2,2],"right_children":[2,4,6,-1,-1,-1,-1],"split_conditions":[6.666667E-1,5E-1,1E0,-5.585259E-4,-2.6888849E-4,-1.5179317E-4,4.8681406E-5],"split_indices":[4,4,4,0,0,0,0],"split_type":[0,0,0,0,0,0,0],"sum_hessian":[8E1,1.1E1,6.9E1,7E0,4E0,5E0,6.4E1],"tree_param":{"num_deleted":"0","num_feature":"6","num_nodes":"7","size_leaf_vector":"1"}},{"base_weights":[-4.0695712E-4,-4.4284426E-3,2.8825403E-4,-5.096549E-4,-2.4737834E-4,-1.3914208E-4,4.3886623E-5],"categories":[],"categories_nodes":[],"categories_segments":[],"categories_sizes":[],"default_left":[0,0,0,0,0,0,0],"id":55,"left_children":[1,3,5,-1,-1,-1,-1],"loss_changes":[2.2773481E-4,3.06328E-6,1.8319217E-5,0E0,0E0,0E0,0E0],"parents":[2147483647,0,0,1,1,2,2],"right_children":[2,4,6,-1,-1,-1,-1],"split_conditions":[6.666667E-1,5E-1,1E0,-5.096549E-4,-2.4737834E-4,-1.3914208E-4,4.3886623E-5],"split_indices":[4,4,4,0,0,0,0],"split_type":[0,0,0,0,0,0,0],"sum_hessian":[8E1,1.1E1,6.9E1,7E0,4E0,5E0,6.4E1],"tree_param":{"num_deleted":"0","num_feature":"6","num_nodes":"7","size_leaf_vector":"1"}},{"base_weights":[-3.7677205E-4,-4.0486907E-3,2.5808215E-4,-4.650601E-4,-2.2758961E-4,-1.2754898E-4,3.9567214E-5],"categories":[],"categories_nodes":[],"categories_segments":[],"categories_sizes":[],"default_left":[0,0,0,0,0,0,0],"id":56,"left_children":[1,3,5,-1,-1,-1,-1],"loss_changes":[1.8986665E-4,2.2204767E-6,1.5274964E-5,0E0,0E0,0E0,0E0],"parents":[2147483647,0,0,1,1,2,2],"right_children":[2,4,6,-1,-1,-1,-1],"split_conditions":[6.666667E-1,5E-1,1E0,-4.650601E-4,-2.2758961E-4,-1.2754898E-4,3.9567214E-5],"split_indices":[4,4,4,0,0,0,0],"split_type":[0,0,0,0,0,0,0],"sum_hessian":[8E1,1.1E1,6.9E1,7E0,4E0,5E0,6.4E1],"tree_param":{"num_deleted":"0","num_feature":"6","num_nodes":"7","size_leaf_vector":"1"}},{"base_weights":[-3.48741E-4,-3.7015486E-3,2.3100802E-4,-4.2436735E-4,-2.0938397E-4,-1.1691948E-4,3.5670353E-5],"categories":[],"categories_nodes":[],"categories_segments":[],"categories_sizes":[],"default_left":[0,0,0,0,0,0,0],"id":57,"left_children":[1,3,5,-1,-1,-1,-1],"loss_changes":[1.5830185E-4,1.5733531E-6,1.2737002E-5,0E0,0E0,0E0,0E0],"parents":[2147483647,0,0,1,1,2,2],"right_children":[2,4,6,-1,-1,-1,-1],"split_conditions":[6.666667E-1,5E-1,1E0,-4.2436735E-4,-2.0938397E-4,-1.1691948E-4,3.5670353E-5],"split_indices":[4,4,4,0,0,0,0],"split_type":[0,0,0,0,0,0,0],"sum_hessian":[8E1,1.1E1,6.9E1,7E0,4E0,5E0,6.4E1],"tree_param":{"num_deleted":"0","num_feature":"6","num_nodes":"7","size_leaf_vector":"1"}},{"base_weights":[-3.2267103E-4,-3.3842039E-3,2.0677278E-4,-3.8723517E-4,-1.9263268E-4,-1.0717412E-4,3.2160835E-5],"categories":[],"categories_nodes":[],"categories_segments":[],"categories_sizes":[],"default_left":[0,0,0,0,0,0,0],"id":58,"left_children":[1,3,5,-1,-1,-1,-1],"loss_changes":[1.3199344E-4,1.0804943E-6,1.0622E-5,0E0,0E0,0E0,0E0],"parents":[2147483647,0,0,1,1,2,2],"right_children":[2,4,6,-1,-1,-1,-1],"split_conditions":[6.666667E-1,5E-1,1E0,-3.8723517E-4,-1.9263268E-4,-1.0717412E-4,3.2160835E-5],"split_indices":[4,4,4,0,0,0,0],"split_type":[0,0,0,0,0,0,0],"sum_hessian":[8E1,1.1E1,6.9E1,7E0,4E0,5E0,6.4E1],"tree_param":{"num_deleted":"0","num_feature":"6","num_nodes":"7","size_leaf_vector":"1"}},{"base_weights":[-2.98509E-4,-3.0941027E-4,1.8500004E-4,-9.8243356E-5,2.8991699E-5],"categories":[],"categories_nodes":[],"categories_segments":[],"categories_sizes":[],"default_left":[0,0,0,0,0],"id":59,"left_children":[1,-1,3,-1,-1],"loss_changes":[1.1005969E-4,0E0,8.858675E-6,0E0,0E0],"parents":[2147483647,0,0,2,2],"right_children":[2,-1,4,-1,-1],"split_conditions":[6.666667E-1,-3.0941027E-4,1E0,-9.8243356E-5,2.8991699E-5],"split_indices":[4,0,4,0,0],"split_type":[0,0,0,0,0],"sum_hessian":[8E1,1.1E1,6.9E1,5E0,6.4E1],"tree_param":{"num_deleted":"0","num_feature":"6","num_nodes":"5","size_leaf_vector":"1"}},{"base_weights":[-2.7331515E-4,-2.8104775E-3,1.6553147E-4,-3.262787E-4,-1.5246868E-4,-9.0057656E-5,2.613948E-5],"categories":[],"categories_nodes":[],"categories_segments":[],"categories_sizes":[],"default_left":[0,0,0,0,0,0,0],"id":60,"left_children":[1,3,5,-1,-1,-1,-1],"loss_changes":[9.0652655E-5,2.004177E-6,7.389452E-6,0E0,0E0,0E0,0E0],"parents":[2147483647,0,0,1,1,2,2],"right_children":[2,4,6,-1,-1,-1,-1],"split_conditions":[6.666667E-1,5E-1,1E0,-3.262787E-4,-1.5246868E-4,-9.0057656E-5,2.613948E-5],"split_indices":[4,4,4,0,0,0,0],"split_type":[0,0,0,0,0,0,0],"sum_hessian":[8E1,1.1E1,6.9E1,7E0,4E0,5E0,6.4E1],"tree_param":{"num_deleted":"0","num_feature":"6","num_nodes":"7","size_leaf_vector":"1"}},{"base_weights":[-2.5270422E-4,-2.5693255E-3,1.4804091E-4,-2.9772933E-4,-1.402712E-4,-8.255243E-5,2.3563092E-5],"categories":[],"categories_nodes":[],"categories_segments":[],"categories_sizes":[],"default_left":[0,0,0,0,0,0,0],"id":61,"left_children":[1,3,5,-1,-1,-1,-1],"loss_changes":[7.557872E-5,1.5350015E-6,6.1637406E-6,0E0,0E0,0E0,0E0],"parents":[2147483647,0,0,1,1,2,2],"right_children":[2,4,6,-1,-1,-1,-1],"split_conditions":[6.666667E-1,5E-1,1E0,-2.9772933E-4,-1.402712E-4,-8.255243E-5,2.3563092E-5],"split_indices":[4,4,4,0,0,0,0],"split_type":[0,0,0,0,0,0,0],"sum_hessian":[8E1,1.1E1,6.9E1,7E0,4E0,5E0,6.4E1],"tree_param":{"num_deleted":"0","num_feature":"6","num_nodes":"7","size_leaf_vector":"1"}},{"base_weights":[-2.3355531E-4,-2.3489E-3,1.3241172E-4,-2.71678E-4,-1.290512E-4,-7.5673066E-5,2.1244929E-5],"categories":[],"categories_nodes":[],"categories_segments":[],"categories_sizes":[],"default_left":[0,0,0,0,0,0,0],"id":62,"left_children":[1,3,5,-1,-1,-1,-1],"loss_changes":[6.301688E-5,1.1662778E-6,5.142303E-6,0E0,0E0,0E0,0E0],"parents":[2147483647,0,0,1,1,2,2],"right_children":[2,4,6,-1,-1,-1,-1],"split_conditions":[6.666667E-1,5E-1,1E0,-2.71678E-4,-1.290512E-4,-7.5673066E-5,2.1244929E-5],"split_indices":[4,4,4,0,0,0,0],"split_type":[0,0,0,0,0,0,0],"sum_hessian":[8E1,1.1E1,6.9E1,7E0,4E0,5E0,6.4E1],"tree_param":{"num_deleted":"0","num_feature":"6","num_nodes":"7","size_leaf_vector":"1"}},{"base_weights":[-2.1579754E-4,-2.1474066E-4,1.1841825E-4,-6.9364905E-5,1.915565E-5],"categories":[],"categories_nodes":[],"categories_segments":[],"categories_sizes":[],"default_left":[0,0,0,0,0],"id":63,"left_children":[1,-1,3,-1,-1],"loss_changes":[5.254581E-5,0E0,4.2903953E-6,0E0,0E0],"parents":[2147483647,0,0,2,2],"right_children":[2,-1,4,-1,-1],"split_conditions":[6.666667E-1,-2.1474066E-4,1E0,-6.9364905E-5,1.915565E-5],"split_indices":[4,0,4,0,0],"split_type":[0,0,0,0,0],"sum_hessian":[8E1,1.1E1,6.9E1,5E0,6.4E1],"tree_param":{"num_deleted":"0","num_feature":"6","num_nodes":"5","size_leaf_vector":"1"}},{"base_weights":[-1.974693E-4,-1.950556E-3,1.0588084E-4,-2.2911637E-4,-1.01547244E-4,-6.3583255E-5,1.7271776E-5],"categories":[],"categories_nodes":[],"categories_segments":[],"categories_sizes":[],"default_left":[0,0,0,0,0,0,0],"id":64,"left_children":[1,3,5,-1,-1,-1,-1],"loss_changes":[4.3282253E-5,1.4953475E-6,3.5799878E-6,0E0,0E0,0E0,0E0],"parents":[2147483647,0,0,1,1,2,2],"right_children":[2,4,6,-1,-1,-1,-1],"split_conditions":[6.666667E-1,5E-1,1E0,-2.2911637E-4,-1.01547244E-4,-6.3583255E-5,1.7271776E-5],"split_indices":[4,4,4,0,0,0,0],"split_type":[0,0,0,0,0,0,0],"sum_hessian":[8E1,1.1E1,6.9E1,7E0,4E0,5E0,6.4E1],"tree_param":{"num_deleted":"0","num_feature":"6","num_nodes":"7","size_leaf_vector":"1"}},{"base_weights":[-1.8238525E-4,-1.7830493E-3,9.461982E-5,-2.0906869E-4,-9.3421935E-5,-5.8283407E-5,1.5569834E-5],"categories":[],"categories_nodes":[],"categories_segments":[],"categories_sizes":[],"default_left":[0,0,0,0,0,0,0],"id":65,"left_children":[1,3,5,-1,-1,-1,-1],"loss_changes":[3.608347E-5,1.1804223E-6,2.9871978E-6,0E0,0E0,0E0,0E0],"parents":[2147483647,0,0,1,1,2,2],"right_children":[2,4,6,-1,-1,-1,-1],"split_conditions":[6.666667E-1,5E-1,1E0,-2.0906869E-4,-9.3421935E-5,-5.8283407E-5,1.5569834E-5],"split_indices":[4,4,4,0,0,0,0],"split_type":[0,0,0,0,0,0,0],"sum_hessian":[8E1,1.1E1,6.9E1,7E0,4E0,5E0,6.4E1],"tree_param":{"num_deleted":"0","num_feature":"6","num_nodes":"7","size_leaf_vector":"1"}},{"base_weights":[-1.6839866E-4,-1.6299592E-4,8.4560255E-5,-5.342563E-5,1.4038086E-5],"categories":[],"categories_nodes":[],"categories_segments":[],"categories_sizes":[],"default_left":[0,0,0,0,0],"id":66,"left_children":[1,-1,3,-1,-1],"loss_changes":[3.0084726E-5,0E0,2.4929893E-6,0E0,0E0],"parents":[2147483647,0,0,2,2],"right_children":[2,-1,4,-1,-1],"split_conditions":[6.666667E-1,-1.6299592E-4,1E0,-5.342563E-5,1.4038086E-5],"split_indices":[4,0,4,0,0],"split_type":[0,0,0,0,0],"sum_hessian":[8E1,1.1E1,6.9E1,5E0,6.4E1],"tree_param":{"num_deleted":"0","num_feature":"6","num_nodes":"5","size_leaf_vector":"1"}},{"base_weights":[-1.5408007E-4,-1.4805386E-3,7.551398E-5,-1.7651304E-4,-7.2908406E-5,-4.897515E-5,1.2653058E-5],"categories":[],"categories_nodes":[],"categories_segments":[],"categories_sizes":[],"default_left":[0,0,0,0,0,0,0],"id":67,"left_children":[1,3,5,-1,-1,-1,-1],"loss_changes":[2.4780105E-5,1.279368E-6,2.080623E-6,0E0,0E0,0E0,0E0],"parents":[2147483647,0,0,1,1,2,2],"right_children":[2,4,6,-1,-1,-1,-1],"split_conditions":[6.666667E-1,5E-1,1E0,-1.7651304E-4,-7.2908406E-5,-4.897515E-5,1.2653058E-5],"split_indices":[4,4,4,0,0,0,0],"split_type":[0,0,0,0,0,0,0],"sum_hessian":[8E1,1.1E1,6.9E1,7E0,4E0,5E0,6.4E1],"tree_param":{"num_deleted":"0","num_feature":"6","num_nodes":"7","size_leaf_vector":"1"}},{"base_weights":[-1.4218579E-4,-1.3532739E-3,6.746054E-5,-1.6106815E-4,-6.707668E-5,-4.4892233E-5,1.1408879E-5],"categories":[],"categories_nodes":[],"categories_segments":[],"categories_sizes":[],"default_left":[0,0,0,0,0,0,0],"id":68,"left_children":[1,3,5,-1,-1,-1,-1],"loss_changes":[2.0657204E-5,1.0278E-6,1.7366792E-6,0E0,0E0,0E0,0E0],"parents":[2147483647,0,0,1,1,2,2],"right_children":[2,4,6,-1,-1,-1,-1],"split_conditions":[6.666667E-1,5E-1,1E0,-1.6106815E-4,-6.707668E-5,-4.4892233E-5,1.1408879E-5],"split_indices":[4,4,4,0,0,0,0],"split_type":[0,0,0,0,0,0,0],"sum_hessian":[8E1,1.1E1,6.9E1,7E0,4E0,5E0,6.4E1],"tree_param":{"num_deleted":"0","num_feature":"6","num_nodes":"7","size_leaf_vector":"1"}},{"base_weights":[-1.3117958E-4,-1.2369656E-4,6.0257742E-5,-4.115204E-5,1.0287945E-5],"categories":[],"categories_nodes":[],"categories_segments":[],"categories_sizes":[],"default_left":[0,0,0,0,0],"id":69,"left_children":[1,-1,3,-1,-1],"loss_changes":[1.7221322E-5,0E0,1.4498963E-6,0E0,0E0],"parents":[2147483647,0,0,2,2],"right_children":[2,-1,4,-1,-1],"split_conditions":[6.666667E-1,-1.2369656E-4,1E0,-4.115204E-5,1.0287945E-5],"split_indices":[4,0,4,0,0],"split_type":[0,0,0,0,0],"sum_hessian":[8E1,1.1E1,6.9E1,5E0,6.4E1],"tree_param":{"num_deleted":"0","num_feature":"6","num_nodes":"5","size_leaf_vector":"1"}},{"base_weights":[-1.19990844E-4,-1.1235828E-3,5.3767646E-5,-1.3615124E-4,-5.1817893E-5,-3.7724774E-5,9.272649E-6],"categories":[],"categories_nodes":[],"categories_segments":[],"categories_sizes":[],"default_left":[0,0,0,0,0,0,0],"id":70,"left_children":[1,3,5,-1,-1,-1,-1],"loss_changes":[1.4185406E-5,1.023016E-6,1.2104109E-6,0E0,0E0,0E0,0E0],"parents":[2147483647,0,0,1,1,2,2],"right_children":[2,4,6,-1,-1,-1,-1],"split_conditions":[6.666667E-1,5E-1,1E0,-1.3615124E-4,-5.1817893E-5,-3.7724774E-5,9.272649E-6],"split_indices":[4,4,4,0,0,0,0],"split_type":[0,0,0,0,0,0,0],"sum_hessian":[8E1,1.1E1,6.9E1,7E0,4E0,5E0,6.4E1],"tree_param":{"num_deleted":"0","num_feature":"6","num_nodes":"7","size_leaf_vector":"1"}},{"base_weights":[-1.10684676E-4,-1.02689584E-4,4.7961305E-5,-3.458063E-5,8.357121E-6],"categories":[],"categories_nodes":[],"categories_segments":[],"categories_sizes":[],"default_left":[0,0,0,0,0],"id":71,"left_children":[1,-1,3,-1,-1],"loss_changes":[1.1822862E-5,0E0,1.0104415E-6,0E0,0E0],"parents":[2147483647,0,0,2,2],"right_children":[2,-1,4,-1,-1],"split_conditions":[6.666667E-1,-1.02689584E-4,1E0,-3.458063E-5,8.357121E-6],"split_indices":[4,0,4,0,0],"split_type":[0,0,0,0,0],"sum_hessian":[8E1,1.1E1,6.9E1,5E0,6.4E1],"tree_param":{"num_deleted":"0","num_feature":"6","num_nodes":"5","size_leaf_vector":"1"}},{"base_weights":[-1.0119803E-4,-1.15252675E-4,1.3826667E-5,-3.874898E-5,7.535494E-6],"categories":[],"categories_nodes":[],"categories_segments":[],"categories_sizes":[],"default_left":[0,0,0,0,0],"id":72,"left_children":[1,-1,3,-1,-1],"loss_changes":[9.811165E-6,0E0,1.8564302E-6,0E0,0E0],"parents":[2147483647,0,0,2,2],"right_children":[2,-1,4,-1,-1],"split_conditions":[5E-1,-1.15252675E-4,1E0,-3.874898E-5,7.535494E-6],"split_indices":[4,0,4,0,0],"split_type":[0,0,0,0,0],"sum_hessian":[8E1,7E0,7.3E1,9E0,6.4E1],"tree_param":{"num_deleted":"0","num_feature":"6","num_nodes":"5","size_leaf_vector":"1"}},{"base_weights":[-9.2867114E-5,-1.0516807E-4,1.204336E-5,-3.526211E-5,6.7960295E-6],"categories":[],"categories_nodes":[],"categories_segments":[],"categories_sizes":[],"default_left":[0,0,0,0,0],"id":73,"left_children":[1,-1,3,-1,-1],"loss_changes":[8.160421E-6,0E0,1.5328922E-6,0E0,0E0],"parents":[2147483647,0,0,2,2],"right_children":[2,-1,4,-1,-1],"split_conditions":[5E-1,-1.0516807E-4,1E0,-3.526211E-5,6.7960295E-6],"split_indices":[4,0,4,0,0],"split_type":[0,0,0,0,0],"sum_hessian":[8E1,7E0,7.3E1,9E0,6.4E1],"tree_param":{"num_deleted":"0","num_feature":"6","num_nodes":"5","size_leaf_vector":"1"}},{"base_weights":[-8.522668E-5,-7.795055E-5,3.5010064E-6],"categories":[],"categories_nodes":[],"categories_segments":[],"categories_sizes":[],"default_left":[0,0,0],"id":74,"left_children":[1,-1,-1],"loss_changes":[6.7889946E-6,0E0,0E0],"parents":[2147483647,0,0],"right_children":[2,-1,-1],"split_conditions":[6.666667E-1,-7.795055E-5,3.5010064E-6],"split_indices":[4,0,0],"split_type":[0,0,0],"sum_hessian":[8E1,1.1E1,6.9E1],"tree_param":{"num_deleted":"0","num_feature":"6","num_nodes":"3","size_leaf_vector":"1"}},{"base_weights":[-7.763589E-5,-8.914518E-5,1.1393347E-5,-2.9143692E-5,5.7807333E-6],"categories":[],"categories_nodes":[],"categories_segments":[],"categories_sizes":[],"default_left":[0,0,0,0,0],"id":75,"left_children":[1,-1,3,-1,-1],"loss_changes":[5.878882E-6,0E0,1.0569586E-6,0E0,0E0],"parents":[2147483647,0,0,2,2],"right_children":[2,-1,4,-1,-1],"split_conditions":[5E-1,-8.914518E-5,1E0,-2.9143692E-5,5.7807333E-6],"split_indices":[4,0,4,0,0],"split_type":[0,0,0,0,0],"sum_hessian":[8E1,7E0,7.3E1,9E0,6.4E1],"tree_param":{"num_deleted":"0","num_feature":"6","num_nodes":"5","size_leaf_vector":"1"}},{"base_weights":[-7.126168E-5,-8.134498E-5,9.937867E-7],"categories":[],"categories_nodes":[],"categories_segments":[],"categories_sizes":[],"default_left":[0,0,0],"id":76,"left_children":[1,-1,-1],"loss_changes":[4.8895763E-6,0E0,0E0],"parents":[2147483647,0,0],"right_children":[2,-1,-1],"split_conditions":[5E-1,-8.134498E-5,9.937867E-7],"split_indices":[4,0,0],"split_type":[0,0,0],"sum_hessian":[8E1,7E0,7.3E1],"tree_param":{"num_deleted":"0","num_feature":"6","num_nodes":"3","size_leaf_vector":"1"}},{"base_weights":[-6.514507E-5,-5.0584425E-5,5.1116945E-6],"categories":[],"categories_nodes":[],"categories_segments":[],"categories_sizes":[],"default_left":[0,0,0],"id":77,"left_children":[1,-1,-1],"loss_changes":[4.1760195E-6,0E0,0E0],"parents":[2147483647,0,0],"right_children":[2,-1,-1],"split_conditions":[1E0,-5.0584425E-5,5.1116945E-6],"split_indices":[4,0,0],"split_type":[0,0,0],"sum_hessian":[8E1,1.6E1,6.4E1],"tree_param":{"num_deleted":"0","num_feature":"6","num_nodes":"3","size_leaf_vector":"1"}},{"base_weights":[-5.9201044E-5,-6.980116E-5,1.0659567E-6],"categories":[],"categories_nodes":[],"categories_segments":[],"categories_sizes":[],"default_left":[0,0,0],"id":78,"left_children":[1,-1,-1],"loss_changes":[3.6222834E-6,0E0,0E0],"parents":[2147483647,0,0],"right_children":[2,-1,-1],"split_conditions":[5E-1,-6.980116E-5,1.0659567E-6],"split_indices":[4,0,0],"split_type":[0,0,0],"sum_hessian":[8E1,7E0,7.3E1],"tree_param":{"num_deleted":"0","num_feature":"6","num_nodes":"3","size_leaf_vector":"1"}},{"base_weights":[-5.4135766E-5,-4.3005115E-5,4.501343E-6],"categories":[],"categories_nodes":[],"categories_segments":[],"categories_sizes":[],"default_left":[0,0,0],"id":79,"left_children":[1,-1,-1],"loss_changes":[3.0383665E-6,0E0,0E0],"parents":[2147483647,0,0],"right_children":[2,-1,-1],"split_conditions":[1E0,-4.3005115E-5,4.501343E-6],"split_indices":[4,0,0],"split_type":[0,0,0],"sum_hessian":[8E1,1.6E1,6.4E1],"tree_param":{"num_deleted":"0","num_feature":"6","num_nodes":"3","size_leaf_vector":"1"}},{"base_weights":[-4.921688E-5,-5.9930608E-5,1.0917315E-6],"categories":[],"categories_nodes":[],"categories_segments":[],"categories_sizes":[],"default_left":[0,0,0],"id":80,"left_children":[1,-1,-1],"loss_changes":[2.6859555E-6,0E0,0E0],"parents":[2147483647,0,0],"right_children":[2,-1,-1],"split_conditions":[5E-1,-5.9930608E-5,1.0917315E-6],"split_indices":[4,0,0],"split_type":[0,0,0],"sum_hessian":[8E1,7E0,7.3E1],"tree_param":{"num_deleted":"0","num_feature":"6","num_nodes":"3","size_leaf_vector":"1"}},{"base_weights":[-4.500461E-5,-5.468668E-5,9.85893E-7],"categories":[],"categories_nodes":[],"categories_segments":[],"categories_sizes":[],"default_left":[0,0,0],"id":81,"left_children":[1,-1,-1],"loss_changes":[2.2356405E-6,0E0,0E0],"parents":[2147483647,0,0],"right_children":[2,-1,-1],"split_conditions":[5E-1,-5.468668E-5,9.85893E-7],"split_indices":[4,0,0],"split_type":[0,0,0],"sum_hessian":[8E1,7E0,7.3E1],"tree_param":{"num_deleted":"0","num_feature":"6","num_nodes":"3","size_leaf_vector":"1"}},{"base_weights":[-4.1191804E-5,-3.4346926E-5,3.84991E-6],"categories":[],"categories_nodes":[],"categories_segments":[],"categories_sizes":[],"default_left":[0,0,0],"id":82,"left_children":[1,-1,-1],"loss_changes":[1.964413E-6,0E0,0E0],"parents":[2147483647,0,0],"right_children":[2,-1,-1],"split_conditions":[1E0,-3.4346926E-5,3.84991E-6],"split_indices":[4,0,0],"split_type":[0,0,0],"sum_hessian":[8E1,1.6E1,6.4E1],"tree_param":{"num_deleted":"0","num_feature":"6","num_nodes":"3","size_leaf_vector":"1"}},{"base_weights":[-3.747003E-5,-4.6896235E-5,9.684144E-7],"categories":[],"categories_nodes":[],"categories_segments":[],"categories_sizes":[],"default_left":[0,0,0],"id":83,"left_children":[1,-1,-1],"loss_changes":[1.6526212E-6,0E0,0E0],"parents":[2147483647,0,0],"right_children":[2,-1,-1],"split_conditions":[5E-1,-4.6896235E-5,9.684144E-7],"split_indices":[4,0,0],"split_type":[0,0,0],"sum_hessian":[8E1,7E0,7.3E1],"tree_param":{"num_deleted":"0","num_feature":"6","num_nodes":"3","size_leaf_vector":"1"}},{"base_weights":[-3.4276753E-5,-2.923452E-5,3.37454E-6],"categories":[],"categories_nodes":[],"categories_segments":[],"categories_sizes":[],"default_left":[0,0,0],"id":84,"left_children":[1,-1,-1],"loss_changes":[1.4317692E-6,0E0,0E0],"parents":[2147483647,0,0],"right_children":[2,-1,-1],"split_conditions":[1E0,-2.923452E-5,3.37454E-6],"split_indices":[4,0,0],"split_type":[0,0,0],"sum_hessian":[8E1,1.6E1,6.4E1],"tree_param":{"num_deleted":"0","num_feature":"6","num_nodes":"3","size_leaf_vector":"1"}},{"base_weights":[-3.118959E-5,-4.0234798E-5,9.3571236E-7],"categories":[],"categories_nodes":[],"categories_segments":[],"categories_sizes":[],"default_left":[0,0,0],"id":85,"left_children":[1,-1,-1],"loss_changes":[1.2227542E-6,0E0,0E0],"parents":[2147483647,0,0],"right_children":[2,-1,-1],"split_conditions":[5E-1,-4.0234798E-5,9.3571236E-7],"split_indices":[4,0,0],"split_type":[0,0,0],"sum_hessian":[8E1,7E0,7.3E1],"tree_param":{"num_deleted":"0","num_feature":"6","num_nodes":"3","size_leaf_vector":"1"}},{"base_weights":[-2.8571993E-5,-2.4878289E-5,2.94612E-6],"categories":[],"categories_nodes":[],"categories_segments":[],"categories_sizes":[],"default_left":[0,0,0],"id":86,"left_children":[1,-1,-1],"loss_changes":[1.0424724E-6,0E0,0E0],"parents":[2147483647,0,0],"right_children":[2,-1,-1],"split_conditions":[1E0,-2.4878289E-5,2.94612E-6],"split_indices":[4,0,0],"split_type":[0,0,0],"sum_hessian":[8E1,1.6E1,6.4E1],"tree_param":{"num_deleted":"0","num_feature":"6","num_nodes":"3","size_leaf_vector":"1"}},{"base_weights":[-2.5967993E-5],"categories":[],"categories_nodes":[],"categories_segments":[],"categories_sizes":[],"default_left":[0],"id":87,"left_children":[-1],"loss_changes":[0E0],"parents":[2147483647],"right_children":[-1],"split_conditions":[-2.5967993E-6],"split_indices":[0],"split_type":[0],"sum_hessian":[8E1],"tree_param":{"num_deleted":"0","num_feature":"6","num_nodes":"1","size_leaf_vector":"1"}},{"base_weights":[-2.3379996E-5],"categories":[],"categories_nodes":[],"categories_segments":[],"categories_sizes":[],"default_left":[0],"id":88,"left_children":[-1],"loss_changes":[0E0],"parents":[2147483647],"right_children":[-1],"split_conditions":[-2.3379996E-6],"split_indices":[0],"split_type":[0],"sum_hessian":[8E1],"tree_param":{"num_deleted":"0","num_feature":"6","num_nodes":"1","size_leaf_vector":"1"}},{"base_weights":[-2.1082955E-5],"categories":[],"categories_nodes":[],"categories_segments":[],"categories_sizes":[],"default_left":[0],"id":89,"left_children":[-1],"loss_changes":[0E0],"parents":[2147483647],"right_children":[-1],"split_conditions":[-2.1082956E-6],"split_indices":[0],"split_type":[0],"sum_hessian":[8E1],"tree_param":{"num_deleted":"0","num_feature":"6","num_nodes":"1","size_leaf_vector":"1"}},{"base_weights":[-1.9020636E-5],"categories":[],"categories_nodes":[],"categories_segments":[],"categories_sizes":[],"default_left":[0],"id":90,"left_children":[-1],"loss_changes":[0E0],"parents":[2147483647],"right_children":[-1],"split_conditions":[-1.9020636E-6],"split_indices":[0],"split_type":[0],"sum_hessian":[8E1],"tree_param":{"num_deleted":"0","num_feature":"6","num_nodes":"1","size_leaf_vector":"1"}},{"base_weights":[-1.7137292E-5],"categories":[],"categories_nodes":[],"categories_segments":[],"categories_sizes":[],"default_left":[0],"id":91,"left_children":[-1],"loss_changes":[0E0],"parents":[2147483647],"right_children":[-1],"split_conditions":[-1.7137293E-6],"split_indices":[0],"split_type":[0],"sum_hessian":[8E1],"tree_param":{"num_deleted":"0","num_feature":"6","num_nodes":"1","size_leaf_vector":"1"}},{"base_weights":[-1.5431377E-5],"categories":[],"categories_nodes":[],"categories_segments":[],"categories_sizes":[],"default_left":[0],"id":92,"left_children":[-1],"loss_changes":[0E0],"parents":[2147483647],"right_children":[-1],"split_conditions":[-1.5431377E-6],"split_indices":[0],"split_type":[0],"sum_hessian":[8E1],"tree_param":{"num_deleted":"0","num_feature":"6","num_nodes":"1","size_leaf_vector":"1"}},{"base_weights":[-1.3901357E-5],"categories":[],"categories_nodes":[],"categories_segments":[],"categories_sizes":[],"default_left":[0],"id":93,"left_children":[-1],"loss_changes":[0E0],"parents":[2147483647],"right_children":[-1],"split_conditions":[-1.3901357E-6],"split_indices":[0],"split_type":[0],"sum_hessian":[8E1],"tree_param":{"num_deleted":"0","num_feature":"6","num_nodes":"1","size_leaf_vector":"1"}},{"base_weights":[-1.2545713E-5],"categories":[],"categories_nodes":[],"categories_segments":[],"categories_sizes":[],"default_left":[0],"id":94,"left_children":[-1],"loss_changes":[0E0],"parents":[2147483647],"right_children":[-1],"split_conditions":[-1.2545713E-6],"split_indices":[0],"split_type":[0],"sum_hessian":[8E1],"tree_param":{"num_deleted":"0","num_feature":"6","num_nodes":"1","size_leaf_vector":"1"}},{"base_weights":[-1.1309219E-5],"categories":[],"categories_nodes":[],"categories_segments":[],"categories_sizes":[],"default_left":[0],"id":95,"left_children":[-1],"loss_changes":[0E0],"parents":[2147483647],"right_children":[-1],"split_conditions":[-1.130922E-6],"split_indices":[0],"split_type":[0],"sum_hessian":[8E1],"tree_param":{"num_deleted":"0","num_feature":"6","num_nodes":"1","size_leaf_vector":"1"}},{"base_weights":[-1.0190848E-5],"categories":[],"categories_nodes":[],"categories_segments":[],"categories_sizes":[],"default_left":[0],"id":96,"left_children":[-1],"loss_changes":[0E0],"parents":[2147483647],"right_children":[-1],"split_conditions":[-1.0190848E-6],"split_indices":[0],"split_type":[0],"sum_hessian":[8E1],"tree_param":{"num_deleted":"0","num_feature":"6","num_nodes":"1","size_leaf_vector":"1"}},{"base_weights":[-9.189578E-6],"categories":[],"categories_nodes":[],"categories_segments":[],"categories_sizes":[],"default_left":[0],"id":97,"left_children":[-1],"loss_changes":[0E0],"parents":[2147483647],"right_children":[-1],"split_conditions":[-9.189578E-7],"split_indices":[0],"split_type":[0],"sum_hessian":[8E1],"tree_param":{"num_deleted":"0","num_feature":"6","num_nodes":"1","size_leaf_vector":"1"}},{"base_weights":[-8.304396E-6],"categories":[],"categories_nodes":[],"categories_segments":[],"categories_sizes":[],"default_left":[0],"id":98,"left_children":[-1],"loss_changes":[0E0],"parents":[2147483647],"right_children":[-1],"split_conditions":[-8.304396E-7],"split_indices":[0],"split_type":[0],"sum_hessian":[8E1],"tree_param":{"num_deleted":"0","num_feature":"6","num_nodes":"1","size_leaf_vector":"1"}},{"base_weights":[-7.4805803E-6],"categories":[],"categories_nodes":[],"categories_segments":[],"categories_sizes":[],"default_left":[0],"id":99,"left_children":[-1],"loss_changes":[0E0],"parents":[2147483647],"right_children":[-1],"split_conditions":[-7.48058E-7],"split_indices":[0],"split_type":[0],"sum_hessian":[8E1],"tree_param":{"num_deleted":"0","num_feature":"6","num_nodes":"1","size_leaf_vector":"1"}}]},"name":"gbtree"},"learner_model_param":{"base_score":"8.666667E-1","boost_from_average":"1","num_class":"0","num_feature":"6","num_target":"1"},"objective":{"name":"reg:squarederror","reg_loss_param":{"scale_pos_weight":"1"}}},"version":[2,1,3]}