{"learner":{"attributes":{"scikit_learn":"{\"_estimator_type\": \"regressor\"}"},"feature_names":["user_id","learning_language","lexeme_id","accuracy_rate","session_accuracy","delta_days"],"feature_types":["int","int","int","float","float","float"],"gradient_booster":{"model":{"gbtree_model_param":{"num_parallel_tree":"1","num_trees":"100"},"iteration_indptr":[0,1,2,3,4,5,6,7,8,9,10,11,12,13,14,15,16,17,18,19,20,21,22,23,24,25,26,27,28,29,30,31,32,33,34,35,36,37,38,39,40,41,42,43,44,45,46,47,48,49,50,51,52,53,54,55,56,57,58,59,60,61,62,63,64,65,66,67,68,69,70,71,72,73,74,75,76,77,78,79,80,81,82,83,84,85,86,87,88,89,90,91,92,93,94,95,96,97,98,99,100],"tree_info":[0,0,0,0,0,0,0,0,0,0,0,0,0,0,0,0,0,0,0,0,0,0,0,0,0,0,0,0,0,0,0,0,0,0,0,0,0,0,0,0,0,0,0,0,0,0,0,0,0,0,0,0,0,0,0,0,0,0,0,0,0,0,0,0,0,0,0,0,0,0,0,0,0,0,0,0,0,0,0,0,0,0,0,0,0,0,0,0,0,0,0,0,0,0,0,0,0,0,0,0],"trees":[{"base_weights":[-1.26915545E-8,-7.287423E-1,8.6432435E-2,-8.981713E-1,-4.0780696E-1,-1.7374702E-1,1.01515405E-1,-8.982005E-2,-6.997598E-2,-5.6358665E-1,-3.9799842E-1,-2.34231E-1,-1.15387715E-1,-6.7328652E-3,1.01795375E-1,-5.685002E-1,-4.973565E-2,-3.9820082E-2,-3.25913E-2,-2.971654E-1,-2.3019513E-1,-1.4782846E-1,-8.095235E-2,-1.8294754E-2,1.4989378E-2,4.8510237E-3,1.0179618E-2,-6.456448E-2,-5.647948E-2,-2.9814843E-2,-2.7197314E-2,-2.3154188E-2,-1.8496132E-1,-1.4825927E-1,-1.2141492E-2,-9.801361E-2,-5.714727E-2,-2.3488777E-2,-9.335456E-3,5.0713676E-3,2.7750412E-2,-1.9821351E-2,-1.8383984E-2,-1.6923016E-2,-1.4820076E-2,-9.827727E-3,-8.096556E-3,-6.488148E-3,-4.144952E-3,-3.1280715E-3,-2.3196894E-3,-1.519039E-3,-9.26053E-4,1.794485E-4,1.0868879E-3,2.1835384E-3,3.4672786E-3],"categories":[],"categories_nodes":[],"categories_segments":[],"categories_sizes":[],"default_left":[0,0,0,0,0,0,0,0,0,0,0,0,0,0,0,0,0,0,0,0,0,0,0,0,0,0,0,0,0,0,0,0,0,0,0,0,0,0,0,0,0,0,0,0,0,0,0,0,0,0,0,0,0,0,0,0,0],"id":0,"left_children":[1,3,5,7,9,11,13,-1,-1,15,17,19,21,23,25,27,-1,-1,-1,29,31,33,35,37,39,-1,-1,-1,-1,-1,-1,-1,41,43,-1,45,47,49,51,53,55,-1,-1,-1,-1,-1,-1,-1,-1,-1,-1,-1,-1,-1,-1,-1,-1],"loss_changes":[2.4382342E5,2.2317656E4,1.3580268E4,9.375E-1,2.1646875E2,6.693008E2,9.912891E1,0E0,0E0,2.4501953E0,1.8164062E0,2.358252E1,1.0779785E2,2.1197305E0,1.3671875E-1,1.8681641E0,0E0,0E0,0E0,5.7769775E-2,5.288086E0,5.4748535E-1,1.9008911E1,2.5609434E-1,3.7094498E-1,0E0,0E0,0E0,0E0,0E0,0E0,0E0,1.2359619E-3,3.491211E-2,0E0,1.14593506E-1,2.3706245E0,7.2027445E-3,7.468164E-4,3.1345803E-2,5.173576E-2,0E0,0E0,0E0,0E0,0E0,0E0,0E0,0E0,0E0,0E0,0E0,0E0,0E0,0E0,0E0,0E0],"parents":[2147483647,0,0,1,1,2,2,3,3,4,4,5,5,6,6,9,9,10,10,11,11,12,12,13,13,14,14,15,15,19,19,20,20,21,21,22,22,23,23,24,24,32,32,33,33,35,35,36,36,37,37,38,38,39,39,40,40],"right_children":[2,4,6,8,10,12,14,-1,-1,16,18,20,22,24,26,28,-1,-1,-1,30,32,34,36,38,40,-1,-1,-1,-1,-1,-1,-1,42,44,-1,46,48,50,52,54,56,-1,-1,-1,-1,-1,-1,-1,-1,-1,-1,-1,-1,-1,-1,-1,-1],"split_conditions":[6E-1,2.5E-1,8.666667E-1,1.6666667E-1,5E-1,7.2727275E-1,9.4736844E-1,-8.982005E-2,-6.997598E-2,4E-1,5.714286E-1,6.363636E-1,7.8571427E-1,9E-1,1E0,3.3333334E-1,-4.973565E-2,-3.9820082E-2,-3.25913E-2,6.25E-1,6.923077E-1,7.692308E-1,8.235294E-1,8.8235295E-1,9.166667E-1,4.8510237E-3,1.0179618E-2,-6.456448E-2,-5.647948E-2,-2.9814843E-2,-2.7197314E-2,-2.3154188E-2,7.1428573E-1,7.5E-1,-1.2141492E-2,8.125E-1,8.4615386E-1,8.75E-1,8.888889E-1,9.0909094E-1,9.285714E-1,-1.9821351E-2,-1.8383984E-2,-1.6923016E-2,-1.4820076E-2,-9.827727E-3,-8.096556E-3,-6.488148E-3,-4.144952E-3,-3.1280715E-3,-2.3196894E-3,-1.519039E-3,-9.26053E-4,1.794485E-4,1.0868879E-3,2.1835384E-3,3.4672786E-3],"split_indices":[4,4,4,4,4,4,4,0,0,4,4,4,4,4,4,4,0,0,0,4,4,4,4,4,4,0,0,0,0,0,0,0,4,4,0,4,4,4,4,4,4,0,0,0,0,0,0,0,0,0,0,0,0,0,0,0,0],"split_type":[0,0,0,0,0,0,0,0,0,0,0,0,0,0,0,0,0,0,0,0,0,0,0,0,0,0,0,0,0,0,0,0,0,0,0,0,0,0,0,0,0,0,0,0,0,0,0,0,0,0,0,0,0,0,0,0,0],"sum_hessian":[3.871011E6,4.1044E5,3.460571E6,2.68625E5,1.41815E5,1.89621E5,3.27095E6,2.68582E5,4.3E1,8.397E3,1.33418E5,9.3114E4,9.6507E4,8.438E3,3.262512E6,7.81E3,5.87E2,1.3304E5,3.78E2,5.607E3,8.7507E4,4.9691E4,4.6816E4,5.507E3,2.931E3,5E1,3.262462E6,3.5E2,7.46E3,5.386E3,2.21E2,8.4973E4,2.534E3,4.8889E4,8.02E2,2.7269E4,1.9547E4,3.485E3,2.022E3,1.65E3,1.281E3,1.84E2,2.35E3,1.28E2,4.8761E4,2.6849E4,4.2E2,1.3093E4,6.454E3,1.22E2,3.363E3,2.3E1,1.999E3,1.055E3,5.95E2,6.93E2,5.88E2],"tree_param":{"num_deleted":"0","num_feature":"6","num_nodes":"57","size_leaf_vector":"1"}},{"base_weights":[-1.7966524E-7,-6.5586907E-1,7.778912E-2,-8.083548E-1,-3.67028E-1,-1.563733E-1,9.136385E-2,-8.083808E-2,-6.313741E-2,-5.0724834E-1,-3.5819915E-1,-2.1080916E-1,-1.0384968E-1,-6.05969E-3,9.1615826E-2,-5.116657E-1,-4.4770543E-2,-3.5838105E-2,-2.9340772E-2,-2.673517E-1,-2.0716874E-1,-1.3304648E-1,-7.2857715E-2,-1.64667E-2,1.349279E-2,4.375431E-3,9.161654E-3,-5.8126427E-2,-5.083229E-2,-2.683391E-2,-2.4436148E-2,-2.0838045E-2,-1.6648026E-1,-1.3343397E-1,-1.0928857E-2,-8.82129E-2,-5.1433083E-2,-2.1141458E-2,-8.403095E-3,4.5649833E-3,2.4979776E-2,-1.784993E-2,-1.6546367E-2,-1.5243831E-2,-1.33380955E-2,-8.84499E-3,-7.288822E-3,-5.821123E-3,-3.6910027E-3,-2.8178096E-3,-2.087789E-3,-1.3734659E-3,-8.334915E-4,1.6151855E-4,9.783813E-4,1.9654974E-3,3.121141E-3],"categories":[],"categories_nodes":[],"categories_segments":[],"categories_sizes":[],"default_left":[0,0,0,0,0,0,0,0,0,0,0,0,0,0,0,0,0,0,0,0,0,0,0,0,0,0,0,0,0,0,0,0,0,0,0,0,0,0,0,0,0,0,0,0,0,0,0,0,0,0,0,0,0,0,0,0,0],"id":1,"left_children":[1,3,5,7,9,11,13,-1,-1,15,17,19,21,23,25,27,-1,-1,-1,29,31,33,35,37,39,-1,-1,-1,-1,-1,-1,-1,41,43,-1,45,47,49,51,53,55,-1,-1,-1,-1,-1,-1,-1,-1,-1,-1,-1,-1,-1,-1,-1,-1],"loss_changes":[1.9749747E5,1.8077219E4,1.1000105E4,7.34375E-1,1.7538477E2,5.4213965E2,8.029883E1,0E0,0E0,1.9799805E0,1.4667969E0,1.9111328E1,8.731714E1,1.7174139E0,1.07421875E-1,1.5216064E0,0E0,0E0,0E0,6.222534E-2,4.2790527E0,4.428711E-1,1.5397278E1,2.074486E-1,3.005731E-1,0E0,0E0,0E0,0E0,0E0,0E0,0E0,1.4419556E-3,2.8930664E-2,0E0,9.259033E-2,1.9221458E0,5.8768988E-3,6.209016E-4,2.54005E-2,4.1926146E-2,0E0,0E0,0E0,0E0,0E0,0E0,0E0,0E0,0E0,0E0,0E0,0E0,0E0,0E0,0E0,0E0],"parents":[2147483647,0,0,1,1,2,2,3,3,4,4,5,5,6,6,9,9,10,10,11,11,12,12,13,13,14,14,15,15,19,19,20,20,21,21,22,22,23,23,24,24,32,32,33,33,35,35,36,36,37,37,38,38,39,39,40,40],"right_children":[2,4,6,8,10,12,14,-1,-1,16,18,20,22,24,26,28,-1,-1,-1,30,32,34,36,38,40,-1,-1,-1,-1,-1,-1,-1,42,44,-1,46,48,50,52,54,56,-1,-1,-1,-1,-1,-1,-1,-1,-1,-1,-1,-1,-1,-1,-1,-1],"split_conditions":[6E-1,2.5E-1,8.666667E-1,1.6666667E-1,5E-1,7.2727275E-1,9.4736844E-1,-8.083808E-2,-6.313741E-2,4E-1,5.714286E-1,6.666667E-1,7.8571427E-1,9E-1,1E0,3.3333334E-1,-4.4770543E-2,-3.5838105E-2,-2.9340772E-2,6.25E-1,6.923077E-1,7.692308E-1,8.235294E-1,8.8235295E-1,9.166667E-1,4.375431E-3,9.161654E-3,-5.8126427E-2,-5.083229E-2,-2.683391E-2,-2.4436148E-2,-2.0838045E-2,7.1428573E-1,7.5E-1,-1.0928857E-2,8.125E-1,8.5714287E-1,8.75E-1,8.888889E-1,9.0909094E-1,9.285714E-1,-1.784993E-2,-1.6546367E-2,-1.5243831E-2,-1.33380955E-2,-8.84499E-3,-7.288822E-3,-5.821123E-3,-3.6910027E-3,-2.8178096E-3,-2.087789E-3,-1.3734659E-3,-8.334915E-4,1.6151855E-4,9.783813E-4,1.9654974E-3,3.121141E-3],"split_indices":[4,4,4,4,4,4,4,0,0,4,4,4,4,4,4,4,0,0,0,4,4,4,4,4,4,0,0,0,0,0,0,0,4,4,0,4,4,4,4,4,4,0,0,0,0,0,0,0,0,0,0,0,0,0,0,0,0],"split_type":[0,0,0,0,0,0,0,0,0,0,0,0,0,0,0,0,0,0,0,0,0,0,0,0,0,0,0,0,0,0,0,0,0,0,0,0,0,0,0,0,0,0,0,0,0,0,0,0,0,0,0,0,0,0,0,0,0],"sum_hessian":[3.871011E6,4.1044E5,3.460571E6,2.68625E5,1.41815E5,1.89621E5,3.27095E6,2.68582E5,4.3E1,8.397E3,1.33418E5,9.3114E4,9.6507E4,8.438E3,3.262512E6,7.81E3,5.87E2,1.3304E5,3.78E2,5.628E3,8.7486E4,4.9691E4,4.6816E4,5.507E3,2.931E3,5E1,3.262462E6,3.5E2,7.46E3,5.386E3,2.42E2,8.4952E4,2.534E3,4.8889E4,8.02E2,2.7269E4,1.9547E4,3.485E3,2.022E3,1.65E3,1.281E3,1.84E2,2.35E3,1.28E2,4.8761E4,2.6849E4,4.2E2,1.3325E4,6.222E3,1.22E2,3.363E3,2.3E1,1.999E3,1.055E3,5.95E2,6.93E2,5.88E2],"tree_param":{"num_deleted":"0","num_feature":"6","num_nodes":"57","size_leaf_vector":"1"}},{"base_weights":[-2.9313767E-7,-5.9028304E-1,7.001016E-2,-7.275198E-1,-3.303267E-1,-1.407369E-1,8.222747E-2,-7.27543E-2,-5.696717E-2,-4.565418E-1,-3.2237968E-1,-1.897294E-1,-9.3465395E-2,-5.4538334E-3,8.245425E-2,-4.6051306E-1,-4.0301103E-2,-3.225432E-2,-2.6414437E-2,-2.4062563E-1,-1.8645252E-1,-1.19667195E-1,-6.5484755E-2,-1.48213245E-2,1.214562E-2,3.9464645E-3,8.24549E-3,-5.239852E-2,-4.5752767E-2,-2.415102E-2,-2.2002587E-2,-1.8754268E-2,-1.498458E-1,-1.2009116E-1,-9.7676385E-3,-7.931511E-2,-4.6290267E-2,-1.9028736E-2,-7.5638574E-3,5.7875565E-3,2.5260968E-2,-1.6074589E-2,-1.4892434E-2,-1.3731266E-2,-1.2004315E-2,-7.952809E-3,-6.561672E-3,-5.2573173E-3,-3.3538193E-3,-2.5383194E-3,-1.8790737E-3,-7.613489E-4,-1.6125209E-4,1.4538098E-4,1.0750259E-3,2.1959757E-3,3.1553942E-3],"categories":[],"categories_nodes":[],"categories_segments":[],"categories_sizes":[],"default_left":[0,0,0,0,0,0,0,0,0,0,0,0,0,0,0,0,0,0,0,0,0,0,0,0,0,0,0,0,0,0,0,0,0,0,0,0,0,0,0,0,0,0,0,0,0,0,0,0,0,0,0,0,0,0,0,0,0],"id":2,"left_children":[1,3,5,7,9,11,13,-1,-1,15,17,19,21,23,25,27,-1,-1,-1,29,31,33,35,37,39,-1,-1,-1,-1,-1,-1,-1,41,43,-1,45,47,49,51,53,55,-1,-1,-1,-1,-1,-1,-1,-1,-1,-1,-1,-1,-1,-1,-1,-1],"loss_changes":[1.5997334E5,1.4642484E4,8.910158E3,5.78125E-1,1.4209863E2,4.391372E2,6.504297E1,0E0,0E0,1.5996094E0,1.1845703E0,1.5485107E1,7.074634E1,1.3914566E0,8.7890625E-2,1.2404785E0,0E0,0E0,0E0,4.9468994E-2,3.4631348E0,4.529419E-1,1.2386215E1,1.6804373E-1,2.4434808E-1,0E0,0E0,0E0,0E0,0E0,0E0,0E0,1.5220642E-3,2.3864746E-2,0E0,7.3913574E-2,1.5644226E0,4.7949553E-3,5.85258E-4,4.24824E-2,1.9188225E-2,0E0,0E0,0E0,0E0,0E0,0E0,0E0,0E0,0E0,0E0,0E0,0E0,0E0,0E0,0E0,0E0],"parents":[2147483647,0,0,1,1,2,2,3,3,4,4,5,5,6,6,9,9,10,10,11,11,12,12,13,13,14,14,15,15,19,19,20,20,21,21,22,22,23,23,24,24,32,32,33,33,35,35,36,36,37,37,38,38,39,39,40,40],"right_children":[2,4,6,8,10,12,14,-1,-1,16,18,20,22,24,26,28,-1,-1,-1,30,32,34,36,38,40,-1,-1,-1,-1,-1,-1,-1,42,44,-1,46,48,50,52,54,56,-1,-1,-1,-1,-1,-1,-1,-1,-1,-1,-1,-1,-1,-1,-1,-1],"split_conditions":[6E-1,2.5E-1,8.666667E-1,1.6666667E-1,5E-1,7.2727275E-1,9.4736844E-1,-7.27543E-2,-5.696717E-2,4E-1,5.714286E-1,6.666667E-1,8E-1,9E-1,1E0,2.857143E-1,-4.0301103E-2,-3.225432E-2,-2.6414437E-2,6.25E-1,6.923077E-1,7.692308E-1,8.235294E-1,8.8235295E-1,9.230769E-1,3.9464645E-3,8.24549E-3,-5.239852E-2,-4.5752767E-2,-2.415102E-2,-2.2002587E-2,-1.8754268E-2,7.1428573E-1,7.5E-1,-9.7676385E-3,8.125E-1,8.4615386E-1,8.75E-1,8.947368E-1,9.0909094E-1,9.3333334E-1,-1.6074589E-2,-1.4892434E-2,-1.3731266E-2,-1.2004315E-2,-7.952809E-3,-6.561672E-3,-5.2573173E-3,-3.3538193E-3,-2.5383194E-3,-1.8790737E-3,-7.613489E-4,-1.6125209E-4,1.4538098E-4,1.0750259E-3,2.1959757E-3,3.1553942E-3],"split_indices":[4,4,4,4,4,4,4,0,0,4,4,4,4,4,4,4,0,0,0,4,4,4,4,4,4,0,0,0,0,0,0,0,4,4,0,4,4,4,4,4,4,0,0,0,0,0,0,0,0,0,0,0,0,0,0,0,0],"split_type":[0,0,0,0,0,0,0,0,0,0,0,0,0,0,0,0,0,0,0,0,0,0,0,0,0,0,0,0,0,0,0,0,0,0,0,0,0,0,0,0,0,0,0,0,0,0,0,0,0,0,0,0,0,0,0,0,0],"sum_hessian":[3.871011E6,4.1044E5,3.460571E6,2.68625E5,1.41815E5,1.89621E5,3.27095E6,2.68582E5,4.3E1,8.397E3,1.33418E5,9.3114E4,9.6507E4,8.438E3,3.262512E6,7.81E3,5.87E2,1.3304E5,3.78E2,5.628E3,8.7486E4,4.9836E4,4.6671E4,5.507E3,2.931E3,5E1,3.262462E6,3.43E2,7.467E3,5.386E3,2.42E2,8.4952E4,2.534E3,4.8889E4,9.47E2,2.7124E4,1.9547E4,3.485E3,2.022E3,1.975E3,9.56E2,1.84E2,2.35E3,1.28E2,4.8761E4,2.6704E4,4.2E2,1.3093E4,6.454E3,1.22E2,3.363E3,2.005E3,1.7E1,1.055E3,9.2E2,6.3E2,3.26E2],"tree_param":{"num_deleted":"0","num_feature":"6","num_nodes":"57","size_leaf_vector":"1"}},{"base_weights":[-3.6461344E-7,-5.312555E-1,6.300913E-2,-6.547683E-1,-2.9729542E-1,-1.2666403E-1,7.400475E-2,-6.547889E-2,-5.1399916E-2,-4.109041E-1,-2.9014215E-1,-1.7075752E-1,-8.411947E-2,-4.908298E-3,7.420885E-2,-4.1447434E-1,-3.627785E-2,-2.9028907E-2,-2.3779962E-2,-2.1666235E-1,-1.6781373E-1,-1.0770119E-1,-5.8936775E-2,-1.3340155E-2,1.0933303E-2,3.5595545E-3,7.420943E-3,-4.7118675E-2,-4.117508E-2,-2.1736367E-2,-1.9866878E-2,-1.6878936E-2,-1.3469438E-2,-1.0808257E-1,-8.791904E-3,-7.136259E-2,-4.1629214E-2,-1.7094793E-2,-6.745972E-3,3.6288353E-3,2.0331698E-2,-1.2368786E-2,-1.0803907E-2,-7.157558E-3,-5.8896425E-3,-4.71361E-3,-2.9866307E-3,-2.2865508E-3,-1.6880181E-3,-6.7905494E-4,-1.4602476E-4,1.3085717E-4,7.733818E-4,1.7547868E-3,2.8408181E-3],"categories":[],"categories_nodes":[],"categories_segments":[],"categories_sizes":[],"default_left":[0,0,0,0,0,0,0,0,0,0,0,0,0,0,0,0,0,0,0,0,0,0,0,0,0,0,0,0,0,0,0,0,0,0,0,0,0,0,0,0,0,0,0,0,0,0,0,0,0,0,0,0,0,0,0],"id":3,"left_children":[1,3,5,7,9,11,13,-1,-1,15,17,19,21,23,25,27,-1,-1,-1,29,31,33,35,37,39,-1,-1,-1,-1,-1,-1,-1,-1,41,-1,43,45,47,49,51,53,-1,-1,-1,-1,-1,-1,-1,-1,-1,-1,-1,-1,-1,-1],"loss_changes":[1.29578734E5,1.1860352E4,7.217291E3,4.375E-1,1.1513086E2,3.557046E2,5.268164E1,0E0,0E0,1.2926025E0,9.5703125E-1,1.2546875E1,5.7304993E1,1.1273777E0,7.03125E-2,1.0124512E0,0E0,0E0,0E0,2.758789E-2,2.8046875E0,3.665161E-1,1.0034348E1,1.3625598E-1,2.0120883E-1,0E0,0E0,0E0,0E0,0E0,0E0,0E0,0E0,1.9836426E-2,0E0,6.791687E-2,1.2621994E0,3.959775E-3,4.613474E-4,1.5715063E-2,2.8325379E-2,0E0,0E0,0E0,0E0,0E0,0E0,0E0,0E0,0E0,0E0,0E0,0E0,0E0,0E0],"parents":[2147483647,0,0,1,1,2,2,3,3,4,4,5,5,6,6,9,9,10,10,11,11,12,12,13,13,14,14,15,15,19,19,20,20,21,21,22,22,23,23,24,24,33,33,35,35,36,36,37,37,38,38,39,39,40,40],"right_children":[2,4,6,8,10,12,14,-1,-1,16,18,20,22,24,26,28,-1,-1,-1,30,32,34,36,38,40,-1,-1,-1,-1,-1,-1,-1,-1,42,-1,44,46,48,50,52,54,-1,-1,-1,-1,-1,-1,-1,-1,-1,-1,-1,-1,-1,-1],"split_conditions":[6E-1,2.5E-1,8.666667E-1,1.6666667E-1,5E-1,7.2727275E-1,9.4736844E-1,-6.547889E-2,-5.1399916E-2,4E-1,5.714286E-1,6.363636E-1,8E-1,9E-1,1E0,3.3333334E-1,-3.627785E-2,-2.9028907E-2,-2.3779962E-2,6.25E-1,7E-1,7.692308E-1,8.333333E-1,8.888889E-1,9.166667E-1,3.5595545E-3,7.420943E-3,-4.7118675E-2,-4.117508E-2,-2.1736367E-2,-1.9866878E-2,-1.6878936E-2,-1.3469438E-2,7.5E-1,-8.791904E-3,8.125E-1,8.5714287E-1,8.75E-1,8.947368E-1,9.0909094E-1,9.3333334E-1,-1.2368786E-2,-1.0803907E-2,-7.157558E-3,-5.8896425E-3,-4.71361E-3,-2.9866307E-3,-2.2865508E-3,-1.6880181E-3,-6.7905494E-4,-1.4602476E-4,1.3085717E-4,7.733818E-4,1.7547868E-3,2.8408181E-3],"split_indices":[4,4,4,4,4,4,4,0,0,4,4,4,4,4,4,4,0,0,0,4,4,4,4,4,4,0,0,0,0,0,0,0,0,4,0,4,4,4,4,4,4,0,0,0,0,0,0,0,0,0,0,0,0,0,0],"split_type":[0,0,0,0,0,0,0,0,0,0,0,0,0,0,0,0,0,0,0,0,0,0,0,0,0,0,0,0,0,0,0,0,0,0,0,0,0,0,0,0,0,0,0,0,0,0,0,0,0,0,0,0,0,0,0],"sum_hessian":[3.871011E6,4.1044E5,3.460571E6,2.68625E5,1.41815E5,1.89621E5,3.27095E6,2.68582E5,4.3E1,8.397E3,1.33418E5,9.3114E4,9.6507E4,8.438E3,3.262512E6,7.81E3,5.87E2,1.3304E5,3.78E2,5.607E3,8.7507E4,4.9836E4,4.6671E4,5.507E3,2.931E3,5E1,3.262462E6,3.5E2,7.46E3,5.386E3,2.21E2,8.4999E4,2.508E3,4.8889E4,9.47E2,2.7165E4,1.9506E4,3.508E3,1.999E3,1.65E3,1.281E3,1.28E2,4.8761E4,2.6704E4,4.61E2,1.3284E4,6.222E3,1.22E2,3.386E3,1.982E3,1.7E1,1.055E3,5.95E2,9.55E2,3.26E2],"tree_param":{"num_deleted":"0","num_feature":"6","num_nodes":"55","size_leaf_vector":"1"}},{"base_weights":[-4.435612E-7,-4.7813064E-1,5.670817E-2,-5.892919E-1,-2.6756713E-1,-1.1399829E-1,6.6604264E-2,-5.8931023E-2,-4.6376742E-2,-3.6982855E-1,-2.6112834E-1,-1.5368252E-1,-7.5708084E-2,-4.4173794E-3,6.678795E-2,-3.730382E-1,-3.2656234E-2,-2.612604E-2,-2.1408238E-2,-1.9493026E-1,-1.5102683E-1,-9.693174E-2,-5.3043548E-2,-1.2007012E-2,9.841869E-3,3.2105807E-3,6.678847E-3,-4.2475738E-2,-3.7060592E-2,-1.956313E-2,-1.7858692E-2,-1.5190989E-2,-1.213743E-1,-9.727482E-2,-7.913639E-2,-6.4226806E-2,-3.7466705E-2,-1.5418641E-2,-6.122215E-3,4.618083E-3,2.0617582E-2,-1.3088234E-2,-1.2057449E-2,-1.1141495E-2,-9.723541E-3,-8.653437E-3,-7.809225E-3,-6.441829E-3,-5.301952E-3,-4.2587053E-3,-2.7159357E-3,-2.0597547E-3,-1.5224698E-3,-6.162233E-4,-1.322329E-4,1.17786345E-4,8.557555E-4,1.8015305E-3,2.5576053E-3],"categories":[],"categories_nodes":[],"categories_segments":[],"categories_sizes":[],"default_left":[0,0,0,0,0,0,0,0,0,0,0,0,0,0,0,0,0,0,0,0,0,0,0,0,0,0,0,0,0,0,0,0,0,0,0,0,0,0,0,0,0,0,0,0,0,0,0,0,0,0,0,0,0,0,0,0,0,0,0],"id":4,"left_children":[1,3,5,7,9,11,13,-1,-1,15,17,19,21,23,25,27,-1,-1,-1,29,31,33,35,37,39,-1,-1,-1,-1,-1,-1,-1,41,43,45,47,49,51,53,55,57,-1,-1,-1,-1,-1,-1,-1,-1,-1,-1,-1,-1,-1,-1,-1,-1,-1,-1],"loss_changes":[1.0495904E5,9.60682E3,5.846045E3,3.4375E-1,9.328027E1,2.8812207E2,4.267383E1,0E0,0E0,1.0443115E0,7.734375E-1,1.0170654E1,4.641754E1,9.1340744E-1,5.6640625E-2,8.253174E-1,0E0,0E0,0E0,2.9525757E-2,2.272461E0,2.9656982E-1,8.127853E0,1.10488296E-1,1.6494712E-1,0E0,0E0,0E0,0E0,0E0,0E0,0E0,3.4980774E-3,1.6418457E-2,5.6552887E-4,5.4885864E-2,1.028368E0,3.1878352E-3,3.8042665E-4,2.6769955E-2,1.188767E-2,0E0,0E0,0E0,0E0,0E0,0E0,0E0,0E0,0E0,0E0,0E0,0E0,0E0,0E0,0E0,0E0,0E0,0E0],"parents":[2147483647,0,0,1,1,2,2,3,3,4,4,5,5,6,6,9,9,10,10,11,11,12,12,13,13,14,14,15,15,19,19,20,20,21,21,22,22,23,23,24,24,32,32,33,33,34,34,35,35,36,36,37,37,38,38,39,39,40,40],"right_children":[2,4,6,8,10,12,14,-1,-1,16,18,20,22,24,26,28,-1,-1,-1,30,32,34,36,38,40,-1,-1,-1,-1,-1,-1,-1,42,44,46,48,50,52,54,56,58,-1,-1,-1,-1,-1,-1,-1,-1,-1,-1,-1,-1,-1,-1,-1,-1,-1,-1],"split_conditions":[6E-1,2.5E-1,8.666667E-1,1.6666667E-1,5E-1,7.2727275E-1,9.4736844E-1,-5.8931023E-2,-4.6376742E-2,4E-1,5.714286E-1,6.666667E-1,8E-1,9E-1,1E0,2.857143E-1,-3.2656234E-2,-2.612604E-2,-2.1408238E-2,6.25E-1,6.923077E-1,7.692308E-1,8.333333E-1,8.8235295E-1,9.230769E-1,3.2105807E-3,6.678847E-3,-4.2475738E-2,-3.7060592E-2,-1.956313E-2,-1.7858692E-2,-1.5190989E-2,7.1428573E-1,7.5E-1,7.777778E-1,8.125E-1,8.4210527E-1,8.75E-1,8.947368E-1,9.0909094E-1,9.3333334E-1,-1.3088234E-2,-1.2057449E-2,-1.1141495E-2,-9.723541E-3,-8.653437E-3,-7.809225E-3,-6.441829E-3,-5.301952E-3,-4.2587053E-3,-2.7159357E-3,-2.0597547E-3,-1.5224698E-3,-6.162233E-4,-1.322329E-4,1.17786345E-4,8.557555E-4,1.8015305E-3,2.5576053E-3],"split_indices":[4,4,4,4,4,4,4,0,0,4,4,4,4,4,4,4,0,0,0,4,4,4,4,4,4,0,0,0,0,0,0,0,4,4,4,4,4,4,4,4,4,0,0,0,0,0,0,0,0,0,0,0,0,0,0,0,0,0,0],"split_type":[0,0,0,0,0,0,0,0,0,0,0,0,0,0,0,0,0,0,0,0,0,0,0,0,0,0,0,0,0,0,0,0,0,0,0,0,0,0,0,0,0,0,0,0,0,0,0,0,0,0,0,0,0,0,0,0,0,0,0],"sum_hessian":[3.871011E6,4.1044E5,3.460571E6,2.68625E5,1.41815E5,1.89621E5,3.27095E6,2.68582E5,4.3E1,8.397E3,1.33418E5,9.3114E4,9.6507E4,8.438E3,3.262512E6,7.81E3,5.87E2,1.3304E5,3.78E2,5.628E3,8.7486E4,4.9836E4,4.6671E4,5.507E3,2.931E3,5E1,3.262462E6,3.43E2,7.467E3,5.386E3,2.42E2,8.4952E4,2.534E3,4.8889E4,9.47E2,2.7165E4,1.9506E4,3.485E3,2.022E3,1.975E3,9.56E2,1.84E2,2.35E3,1.28E2,4.8761E4,1.07E2,8.4E2,2.6704E4,4.61E2,1.303E4,6.476E3,1.22E2,3.363E3,2.005E3,1.7E1,1.055E3,9.2E2,6.3E2,3.26E2],"tree_param":{"num_deleted":"0","num_feature":"6","num_nodes":"59","size_leaf_vector":"1"}},{"base_weights":[-4.791411E-7,-4.3031824E-1,5.103734E-2,-5.303631E-1,-2.4081156E-1,-1.02599174E-1,5.994387E-2,-5.303795E-2,-4.184447E-2,-3.32859E-1,-2.3501587E-1,-1.3831513E-1,-6.8137854E-2,-3.975509E-3,6.0109187E-2,-3.3574453E-1,-2.9396161E-2,-2.3513457E-2,-1.927306E-2,-1.7544387E-1,-1.3592464E-1,-8.729706E-2,-4.7800634E-2,-1.0807079E-2,8.859506E-3,2.8958158E-3,6.010966E-3,-3.8195558E-2,-3.3352558E-2,-1.760718E-2,-1.6080173E-2,-1.3671911E-2,-1.0924681E-1,-8.754776E-2,-7.192486E-3,-5.7855755E-2,-3.3720396E-2,-1.3851673E-2,-5.459937E-3,2.8828585E-3,1.6549509E-2,-1.1786486E-2,-1.085222E-2,-1.0035983E-2,-8.751207E-3,-5.8027846E-3,-4.772904E-3,-3.8193983E-3,-2.4164668E-3,-1.8554534E-3,-1.3676797E-3,-5.495875E-4,-1.19741424E-4,1.0601962E-4,6.107437E-4,1.2916155E-3,2.0802477E-3],"categories":[],"categories_nodes":[],"categories_segments":[],"categories_sizes":[],"default_left":[0,0,0,0,0,0,0,0,0,0,0,0,0,0,0,0,0,0,0,0,0,0,0,0,0,0,0,0,0,0,0,0,0,0,0,0,0,0,0,0,0,0,0,0,0,0,0,0,0,0,0,0,0,0,0,0,0],"id":5,"left_children":[1,3,5,7,9,11,13,-1,-1,15,17,19,21,23,25,27,-1,-1,-1,29,31,33,35,37,39,-1,-1,-1,-1,-1,-1,-1,41,43,-1,45,47,49,51,53,55,-1,-1,-1,-1,-1,-1,-1,-1,-1,-1,-1,-1,-1,-1,-1,-1],"loss_changes":[8.5017055E4,7.7814844E3,4.735342E3,2.734375E-1,7.5578125E1,2.3338062E2,3.4564453E1,0E0,0E0,8.438721E-1,6.2402344E-1,8.240601E0,3.75997E1,7.4005514E-1,4.6875E-2,6.7352295E-1,0E0,0E0,0E0,2.34375E-2,1.8393555E0,1.852417E-1,6.626335E0,8.959395E-2,1.3470829E-1,0E0,0E0,0E0,0E0,0E0,0E0,0E0,3.0403137E-3,1.3549805E-2,0E0,4.4822693E-2,8.329716E-1,2.6320815E-3,2.9979646E-4,9.696976E-3,1.9541472E-2,0E0,0E0,0E0,0E0,0E0,0E0,0E0,0E0,0E0,0E0,0E0,0E0,0E0,0E0,0E0,0E0],"parents":[2147483647,0,0,1,1,2,2,3,3,4,4,5,5,6,6,9,9,10,10,11,11,12,12,13,13,14,14,15,15,19,19,20,20,21,21,22,22,23,23,24,24,32,32,33,33,35,35,36,36,37,37,38,38,39,39,40,40],"right_children":[2,4,6,8,10,12,14,-1,-1,16,18,20,22,24,26,28,-1,-1,-1,30,32,34,36,38,40,-1,-1,-1,-1,-1,-1,-1,42,44,-1,46,48,50,52,54,56,-1,-1,-1,-1,-1,-1,-1,-1,-1,-1,-1,-1,-1,-1,-1,-1],"split_conditions":[6E-1,2.5E-1,8.666667E-1,1.6666667E-1,5E-1,7.2727275E-1,9.4736844E-1,-5.303795E-2,-4.184447E-2,4E-1,5.714286E-1,6.666667E-1,7.8571427E-1,9E-1,1E0,3.3333334E-1,-2.9396161E-2,-2.3513457E-2,-1.927306E-2,6.25E-1,6.923077E-1,7.692308E-1,8.333333E-1,8.888889E-1,9.166667E-1,2.8958158E-3,6.010966E-3,-3.8195558E-2,-3.3352558E-2,-1.760718E-2,-1.6080173E-2,-1.3671911E-2,7.1428573E-1,7.5E-1,-7.192486E-3,8.125E-1,8.5714287E-1,8.75E-1,8.947368E-1,9.0909094E-1,9.285714E-1,-1.1786486E-2,-1.085222E-2,-1.0035983E-2,-8.751207E-3,-5.8027846E-3,-4.772904E-3,-3.8193983E-3,-2.4164668E-3,-1.8554534E-3,-1.3676797E-3,-5.495875E-4,-1.19741424E-4,1.0601962E-4,6.107437E-4,1.2916155E-3,2.0802477E-3],"split_indices":[4,4,4,4,4,4,4,0,0,4,4,4,4,4,4,4,0,0,0,4,4,4,4,4,4,0,0,0,0,0,0,0,4,4,0,4,4,4,4,4,4,0,0,0,0,0,0,0,0,0,0,0,0,0,0,0,0],"split_type":[0,0,0,0,0,0,0,0,0,0,0,0,0,0,0,0,0,0,0,0,0,0,0,0,0,0,0,0,0,0,0,0,0,0,0,0,0,0,0,0,0,0,0,0,0,0,0,0,0,0,0,0,0,0,0,0,0],"sum_hessian":[3.871011E6,4.1044E5,3.460571E6,2.68625E5,1.41815E5,1.89621E5,3.27095E6,2.68582E5,4.3E1,8.397E3,1.33418E5,9.3114E4,9.6507E4,8.438E3,3.262512E6,7.81E3,5.87E2,1.3304E5,3.78E2,5.628E3,8.7486E4,4.9691E4,4.6816E4,5.507E3,2.931E3,5E1,3.262462E6,3.5E2,7.46E3,5.386E3,2.42E2,8.4952E4,2.534E3,4.8889E4,8.02E2,2.731E4,1.9506E4,3.508E3,1.999E3,1.65E3,1.281E3,1.84E2,2.35E3,1.28E2,4.8761E4,2.6849E4,4.61E2,1.3284E4,6.222E3,1.22E2,3.386E3,1.982E3,1.7E1,1.055E3,5.95E2,6.93E2,5.88E2],"tree_param":{"num_deleted":"0","num_feature":"6","num_nodes":"57","size_leaf_vector":"1"}},{"base_weights":[-5.063658E-7,-3.8728702E-1,4.5933593E-2,-4.7732717E-1,-2.1673144E-1,-9.2339836E-2,5.39495E-2,-4.773417E-2,-3.775512E-2,-2.9958513E-1,-2.1151462E-1,-1.2448434E-1,-6.1324496E-2,-3.6580826E-3,5.409809E-2,-3.0217925E-1,-2.6461545E-2,-2.116213E-2,-1.7350841E-2,-1.579055E-1,-1.22332565E-1,-7.851864E-2,-4.2963047E-2,-9.727064E-3,7.834392E-3,2.6004452E-3,5.409871E-3,-3.4432054E-2,-3.0019764E-2,-1.5846793E-2,-1.447877E-2,-1.23047335E-2,-9.8331064E-2,-7.8777425E-2,-6.3347975E-3,-5.2035876E-2,-3.0371305E-2,-1.2493428E-2,-4.9553034E-3,3.703813E-3,1.6564785E-2,-1.0614211E-2,-9.767459E-3,-9.040165E-3,-7.874514E-3,-5.2160365E-3,-4.198543E-3,-3.453038E-3,-2.1972696E-3,-1.6714185E-3,-1.2335388E-3,-4.9875677E-4,-1.08432105E-4,9.5425996E-5,6.852374E-4,1.5063706E-3,2.1963927E-3],"categories":[],"categories_nodes":[],"categories_segments":[],"categories_sizes":[],"default_left":[0,0,0,0,0,0,0,0,0,0,0,0,0,0,0,0,0,0,0,0,0,0,0,0,0,0,0,0,0,0,0,0,0,0,0,0,0,0,0,0,0,0,0,0,0,0,0,0,0,0,0,0,0,0,0,0,0],"id":6,"left_children":[1,3,5,7,9,11,13,-1,-1,15,17,19,21,23,25,27,-1,-1,-1,29,31,33,35,37,39,-1,-1,-1,-1,-1,-1,-1,41,43,-1,45,47,49,51,53,55,-1,-1,-1,-1,-1,-1,-1,-1,-1,-1,-1,-1,-1,-1,-1,-1],"loss_changes":[6.8864E4,6.3029688E3,3.8356577E3,2.1484375E-1,6.1234375E1,1.8904016E2,2.7999023E1,0E0,0E0,6.8182373E-1,5.0390625E-1,6.67688E0,3.0465118E1,5.870721E-1,5.46875E-2,5.489502E-1,0E0,0E0,0E0,1.8600464E-2,1.4888916E0,1.9070435E-1,5.330353E0,7.264602E-2,1.048418E-1,0E0,0E0,0E0,0E0,0E0,0E0,0E0,2.6302338E-3,1.1260986E-2,0E0,3.174591E-2,6.8206024E-1,2.119124E-3,2.4725497E-4,1.7099962E-2,7.2387755E-3,0E0,0E0,0E0,0E0,0E0,0E0,0E0,0E0,0E0,0E0,0E0,0E0,0E0,0E0,0E0,0E0],"parents":[2147483647,0,0,1,1,2,2,3,3,4,4,5,5,6,6,9,9,10,10,11,11,12,12,13,13,14,14,15,15,19,19,20,20,21,21,22,22,23,23,24,24,32,32,33,33,35,35,36,36,37,37,38,38,39,39,40,40],"right_children":[2,4,6,8,10,12,14,-1,-1,16,18,20,22,24,26,28,-1,-1,-1,30,32,34,36,38,40,-1,-1,-1,-1,-1,-1,-1,42,44,-1,46,48,50,52,54,56,-1,-1,-1,-1,-1,-1,-1,-1,-1,-1,-1,-1,-1,-1,-1,-1],"split_conditions":[6E-1,2.5E-1,8.666667E-1,1.6666667E-1,5E-1,7.2727275E-1,9.411765E-1,-4.773417E-2,-3.775512E-2,4E-1,5.714286E-1,6.666667E-1,8E-1,9E-1,1E0,2.857143E-1,-2.6461545E-2,-2.116213E-2,-1.7350841E-2,6.25E-1,6.923077E-1,7.777778E-1,8.235294E-1,8.8235295E-1,9.230769E-1,2.6004452E-3,5.409871E-3,-3.4432054E-2,-3.0019764E-2,-1.5846793E-2,-1.447877E-2,-1.23047335E-2,7.1428573E-1,7.5E-1,-6.3347975E-3,8.181818E-1,8.4210527E-1,8.75E-1,8.947368E-1,9.0909094E-1,9.375E-1,-1.0614211E-2,-9.767459E-3,-9.040165E-3,-7.874514E-3,-5.2160365E-3,-4.198543E-3,-3.453038E-3,-2.1972696E-3,-1.6714185E-3,-1.2335388E-3,-4.9875677E-4,-1.08432105E-4,9.5425996E-5,6.852374E-4,1.5063706E-3,2.1963927E-3],"split_indices":[4,4,4,4,4,4,4,0,0,4,4,4,4,4,4,4,0,0,0,4,4,4,4,4,4,0,0,0,0,0,0,0,4,4,0,4,4,4,4,4,4,0,0,0,0,0,0,0,0,0,0,0,0,0,0,0,0],"split_type":[0,0,0,0,0,0,0,0,0,0,0,0,0,0,0,0,0,0,0,0,0,0,0,0,0,0,0,0,0,0,0,0,0,0,0,0,0,0,0,0,0,0,0,0,0,0,0,0,0,0,0,0,0,0,0,0,0],"sum_hessian":[3.871011E6,4.1044E5,3.460571E6,2.68625E5,1.41815E5,1.89621E5,3.27095E6,2.68582E5,4.3E1,8.397E3,1.33418E5,9.3114E4,9.6507E4,8.415E3,3.262535E6,7.81E3,5.87E2,1.3304E5,3.78E2,5.628E3,8.7486E4,4.9836E4,4.6671E4,5.507E3,2.908E3,7.3E1,3.262462E6,3.43E2,7.467E3,5.386E3,2.42E2,8.4952E4,2.534E3,4.8996E4,8.4E2,2.7124E4,1.9547E4,3.485E3,2.022E3,1.975E3,9.33E2,1.84E2,2.35E3,1.28E2,4.8868E4,2.6788E4,3.36E2,1.3071E4,6.476E3,1.22E2,3.363E3,2.005E3,1.7E1,1.055E3,9.2E2,7.33E2,2E2],"tree_param":{"num_deleted":"0","num_feature":"6","num_nodes":"57","size_leaf_vector":"1"}},{"base_weights":[-5.563554E-7,-3.4855884E-1,4.1340183E-2,-4.2959476E-1,-1.9505918E-1,-8.310639E-2,4.855453E-2,-4.2960774E-2,-3.4065414E-2,-2.6963747E-1,-1.9036342E-1,-1.1203659E-1,-5.5192452E-2,-3.2921622E-3,4.8688255E-2,-2.719696E-1,-2.3819892E-2,-1.9045932E-2,-1.5620333E-2,-1.4212035E-1,-1.10099696E-1,-7.066726E-2,-3.8667057E-2,-8.755002E-3,7.052497E-3,2.343916E-3,4.8688813E-3,-3.0962288E-2,-2.7016176E-2,-1.4262407E-2,-1.3036855E-2,-1.107394E-2,-8.838913E-3,-7.091598E-2,-5.776588E-2,-4.681881E-2,-2.7312715E-2,-1.12238405E-2,-4.4190465E-3,2.2870654E-3,1.3296084E-2,-8.143155E-3,-7.088671E-3,-6.303356E-3,-5.7020723E-3,-4.695824E-3,-3.8658164E-3,-3.105682E-3,-1.9775769E-3,-1.5056342E-3,-1.1081349E-3,-4.4480176E-4,-9.8192366E-5,8.589232E-5,4.8136277E-4,1.0506721E-3,1.6692765E-3],"categories":[],"categories_nodes":[],"categories_segments":[],"categories_sizes":[],"default_left":[0,0,0,0,0,0,0,0,0,0,0,0,0,0,0,0,0,0,0,0,0,0,0,0,0,0,0,0,0,0,0,0,0,0,0,0,0,0,0,0,0,0,0,0,0,0,0,0,0,0,0,0,0,0,0,0,0],"id":7,"left_children":[1,3,5,7,9,11,13,-1,-1,15,17,19,21,23,25,27,-1,-1,-1,29,31,33,35,37,39,-1,-1,-1,-1,-1,-1,-1,-1,41,43,45,47,49,51,53,55,-1,-1,-1,-1,-1,-1,-1,-1,-1,-1,-1,-1,-1,-1,-1,-1],"loss_changes":[5.577997E4,5.1053906E3,3.1069077E3,1.6015625E-1,4.9612793E1,1.5312415E2,2.267871E1,0E0,0E0,5.509033E-1,4.0771484E-1,5.4101562E0,2.4677002E1,4.7566012E-1,4.4433594E-2,4.4805908E-1,0E0,0E0,0E0,1.4732361E-2,1.2052002E0,1.5582275E-1,4.318573E0,5.8912307E-2,8.652219E-2,0E0,0E0,0E0,0E0,0E0,0E0,0E0,0E0,9.262085E-3,1.2683868E-4,2.9094696E-2,5.498562E-1,1.7493963E-3,1.9478425E-4,5.9531517E-3,1.1753097E-2,0E0,0E0,0E0,0E0,0E0,0E0,0E0,0E0,0E0,0E0,0E0,0E0,0E0,0E0,0E0,0E0],"parents":[2147483647,0,0,1,1,2,2,3,3,4,4,5,5,6,6,9,9,10,10,11,11,12,12,13,13,14,14,15,15,19,19,20,20,21,21,22,22,23,23,24,24,33,33,34,34,35,35,36,36,37,37,38,38,39,39,40,40],"right_children":[2,4,6,8,10,12,14,-1,-1,16,18,20,22,24,26,28,-1,-1,-1,30,32,34,36,38,40,-1,-1,-1,-1,-1,-1,-1,-1,42,44,46,48,50,52,54,56,-1,-1,-1,-1,-1,-1,-1,-1,-1,-1,-1,-1,-1,-1,-1,-1],"split_conditions":[6E-1,2.5E-1,8.666667E-1,1.6666667E-1,5E-1,7.2727275E-1,9.411765E-1,-4.2960774E-2,-3.4065414E-2,4E-1,5.714286E-1,6.666667E-1,8E-1,9E-1,1E0,3.3333334E-1,-2.3819892E-2,-1.9045932E-2,-1.5620333E-2,6.25E-1,7E-1,7.692308E-1,8.333333E-1,8.888889E-1,9.166667E-1,2.343916E-3,4.8688813E-3,-3.0962288E-2,-2.7016176E-2,-1.4262407E-2,-1.3036855E-2,-1.107394E-2,-8.838913E-3,7.5E-1,7.777778E-1,8.125E-1,8.4210527E-1,8.75E-1,8.947368E-1,9.0909094E-1,9.285714E-1,-8.143155E-3,-7.088671E-3,-6.303356E-3,-5.7020723E-3,-4.695824E-3,-3.8658164E-3,-3.105682E-3,-1.9775769E-3,-1.5056342E-3,-1.1081349E-3,-4.4480176E-4,-9.8192366E-5,8.589232E-5,4.8136277E-4,1.0506721E-3,1.6692765E-3],"split_indices":[4,4,4,4,4,4,4,0,0,4,4,4,4,4,4,4,0,0,0,4,4,4,4,4,4,0,0,0,0,0,0,0,0,4,4,4,4,4,4,4,4,0,0,0,0,0,0,0,0,0,0,0,0,0,0,0,0],"split_type":[0,0,0,0,0,0,0,0,0,0,0,0,0,0,0,0,0,0,0,0,0,0,0,0,0,0,0,0,0,0,0,0,0,0,0,0,0,0,0,0,0,0,0,0,0,0,0,0,0,0,0,0,0,0,0,0,0],"sum_hessian":[3.871011E6,4.1044E5,3.460571E6,2.68625E5,1.41815E5,1.89621E5,3.27095E6,2.68582E5,4.3E1,8.397E3,1.33418E5,9.3114E4,9.6507E4,8.415E3,3.262535E6,7.81E3,5.87E2,1.3304E5,3.78E2,5.628E3,8.7486E4,4.9836E4,4.6671E4,5.507E3,2.908E3,7.3E1,3.262462E6,3.5E2,7.46E3,5.386E3,2.42E2,8.4978E4,2.508E3,4.8889E4,9.47E2,2.7165E4,1.9506E4,3.508E3,1.999E3,1.65E3,1.258E3,1.28E2,4.8761E4,1.07E2,8.4E2,2.6704E4,4.61E2,1.303E4,6.476E3,1.22E2,3.386E3,1.982E3,1.7E1,1.055E3,5.95E2,6.93E2,5.65E2],"tree_param":{"num_deleted":"0","num_feature":"6","num_nodes":"57","size_leaf_vector":"1"}},{"base_weights":[-5.57777E-7,-3.1370342E-1,3.7206158E-2,-3.8663557E-1,-1.7555407E-1,-7.4796215E-2,4.3699093E-2,-3.8664714E-2,-3.0736292E-2,-2.4268346E-1,-1.7132732E-1,-1.0083344E-1,-4.967363E-2,-2.9629334E-3,4.381945E-2,-2.4478006E-1,-2.1441955E-2,-1.7141351E-2,-1.40624195E-2,-1.2791318E-1,-9.908995E-2,-6.360109E-2,-3.4800638E-2,-7.8800805E-3,6.34838E-3,2.1126943E-3,4.381995E-3,-2.7911631E-2,-2.4316564E-2,-1.2836434E-2,-1.1738534E-2,-9.966894E-3,-7.964765E-2,-6.3824706E-2,-5.200195E-2,-4.2137235E-2,-2.4581695E-2,-1.0123234E-2,-4.0108208E-3,2.970229E-3,1.3488507E-2,-8.648003E-3,-7.907614E-3,-7.368931E-3,-6.379892E-3,-5.678855E-3,-5.1325425E-3,-4.225144E-3,-3.3931897E-3,-2.7862221E-3,-1.7574407E-3,-1.3562968E-3,-9.994456E-4,-4.0368323E-4,-8.892086E-5,7.731143E-5,5.4861716E-4,1.2202518E-3,1.8117499E-3],"categories":[],"categories_nodes":[],"categories_segments":[],"categories_sizes":[],"default_left":[0,0,0,0,0,0,0,0,0,0,0,0,0,0,0,0,0,0,0,0,0,0,0,0,0,0,0,0,0,0,0,0,0,0,0,0,0,0,0,0,0,0,0,0,0,0,0,0,0,0,0,0,0,0,0,0,0,0,0],"id":8,"left_children":[1,3,5,7,9,11,13,-1,-1,15,17,19,21,23,25,27,-1,-1,-1,29,31,33,35,37,39,-1,-1,-1,-1,-1,-1,-1,41,43,45,47,49,51,53,55,57,-1,-1,-1,-1,-1,-1,-1,-1,-1,-1,-1,-1,-1,-1,-1,-1,-1,-1],"loss_changes":[4.51819E4,4.13534E3,2.5166152E3,1.25E-1,4.0197266E1,1.2403088E2,1.8369629E1,0E0,0E0,4.4519043E-1,3.2910156E-1,4.383545E0,1.9988739E1,3.8537744E-1,3.6621094E-2,3.651123E-1,0E0,0E0,0E0,1.1665344E-2,9.769287E-1,1.2593079E-1,3.4980698E0,4.7765225E-2,7.012624E-2,0E0,0E0,0E0,0E0,0E0,0E0,0E0,3.0612946E-3,7.751465E-3,1.5544891E-4,2.4024963E-2,4.4792938E-1,1.4086068E-3,1.6066805E-4,1.0918718E-2,5.3388625E-3,0E0,0E0,0E0,0E0,0E0,0E0,0E0,0E0,0E0,0E0,0E0,0E0,0E0,0E0,0E0,0E0,0E0,0E0],"parents":[2147483647,0,0,1,1,2,2,3,3,4,4,5,5,6,6,9,9,10,10,11,11,12,12,13,13,14,14,15,15,19,19,20,20,21,21,22,22,23,23,24,24,32,32,33,33,34,34,35,35,36,36,37,37,38,38,39,39,40,40],"right_children":[2,4,6,8,10,12,14,-1,-1,16,18,20,22,24,26,28,-1,-1,-1,30,32,34,36,38,40,-1,-1,-1,-1,-1,-1,-1,42,44,46,48,50,52,54,56,58,-1,-1,-1,-1,-1,-1,-1,-1,-1,-1,-1,-1,-1,-1,-1,-1,-1,-1],"split_conditions":[6E-1,2.5E-1,8.666667E-1,1.6666667E-1,5E-1,7.2727275E-1,9.411765E-1,-3.8664714E-2,-3.0736292E-2,4E-1,5.714286E-1,6.666667E-1,8E-1,9E-1,1E0,2.857143E-1,-2.1441955E-2,-1.7141351E-2,-1.40624195E-2,6.25E-1,6.923077E-1,7.692308E-1,8.333333E-1,8.8235295E-1,9.230769E-1,2.1126943E-3,4.381995E-3,-2.7911631E-2,-2.4316564E-2,-1.2836434E-2,-1.1738534E-2,-9.966894E-3,7.1428573E-1,7.3333335E-1,7.777778E-1,8.181818E-1,8.5714287E-1,8.75E-1,8.947368E-1,9.0909094E-1,9.375E-1,-8.648003E-3,-7.907614E-3,-7.368931E-3,-6.379892E-3,-5.678855E-3,-5.1325425E-3,-4.225144E-3,-3.3931897E-3,-2.7862221E-3,-1.7574407E-3,-1.3562968E-3,-9.994456E-4,-4.0368323E-4,-8.892086E-5,7.731143E-5,5.4861716E-4,1.2202518E-3,1.8117499E-3],"split_indices":[4,4,4,4,4,4,4,0,0,4,4,4,4,4,4,4,0,0,0,4,4,4,4,4,4,0,0,0,0,0,0,0,4,4,4,4,4,4,4,4,4,0,0,0,0,0,0,0,0,0,0,0,0,0,0,0,0,0,0],"split_type":[0,0,0,0,0,0,0,0,0,0,0,0,0,0,0,0,0,0,0,0,0,0,0,0,0,0,0,0,0,0,0,0,0,0,0,0,0,0,0,0,0,0,0,0,0,0,0,0,0,0,0,0,0,0,0,0,0,0,0],"sum_hessian":[3.871011E6,4.1044E5,3.460571E6,2.68625E5,1.41815E5,1.89621E5,3.27095E6,2.68582E5,4.3E1,8.397E3,1.33418E5,9.3114E4,9.6507E4,8.415E3,3.262535E6,7.81E3,5.87E2,1.3304E5,3.78E2,5.628E3,8.7486E4,4.9836E4,4.6671E4,5.507E3,2.908E3,7.3E1,3.262462E6,3.43E2,7.467E3,5.386E3,2.42E2,8.4952E4,2.534E3,4.8889E4,9.47E2,2.7165E4,1.9506E4,3.485E3,2.022E3,1.975E3,9.33E2,1.84E2,2.35E3,1.2E2,4.8769E4,1.07E2,8.4E2,2.6788E4,3.77E2,1.3284E4,6.222E3,1.22E2,3.363E3,2.005E3,1.7E1,1.055E3,9.2E2,7.33E2,2E2],"tree_param":{"num_deleted":"0","num_feature":"6","num_nodes":"59","size_leaf_vector":"1"}},{"base_weights":[-5.827694E-7,-2.823335E-1,3.3485502E-2,-3.4797227E-1,-1.5799941E-1,-6.7317046E-2,3.9329167E-2,-3.4798257E-2,-2.773252E-2,-2.184239E-1,-1.5419483E-1,-9.075063E-2,-4.4706646E-2,-2.6665323E-3,3.9437488E-2,-2.2030875E-1,-1.9301409E-2,-1.5427229E-2,-1.265989E-2,-1.1512621E-1,-8.918124E-2,-5.7241466E-2,-3.132084E-2,-7.0925793E-3,5.714813E-3,1.9042807E-3,3.943794E-3,-2.5098844E-2,-2.188359E-2,-1.1553026E-2,-1.0569512E-2,-8.970215E-3,-7.168941E-2,-5.7442505E-2,-4.681315E-2,-3.79238E-2,-2.212376E-2,-9.094559E-3,-3.5765613E-3,1.8115933E-3,1.0828793E-2,-7.7878805E-3,-7.117187E-3,-6.6381292E-3,-5.741915E-3,-5.11623E-3,-4.6198973E-3,-3.8026467E-3,-3.05477E-3,-2.5165356E-3,-1.6000996E-3,-1.2217691E-3,-8.9784554E-4,-3.5999136E-4,-8.05219E-5,6.958803E-5,3.7853874E-4,9.375031E-4,1.536487E-3],"categories":[],"categories_nodes":[],"categories_segments":[],"categories_sizes":[],"default_left":[0,0,0,0,0,0,0,0,0,0,0,0,0,0,0,0,0,0,0,0,0,0,0,0,0,0,0,0,0,0,0,0,0,0,0,0,0,0,0,0,0,0,0,0,0,0,0,0,0,0,0,0,0,0,0,0,0,0,0],"id":9,"left_children":[1,3,5,7,9,11,13,-1,-1,15,17,19,21,23,25,27,-1,-1,-1,29,31,33,35,37,39,-1,-1,-1,-1,-1,-1,-1,41,43,45,47,49,51,53,55,57,-1,-1,-1,-1,-1,-1,-1,-1,-1,-1,-1,-1,-1,-1,-1,-1,-1,-1],"loss_changes":[3.659742E4,3.3496094E3,2.0384749E3,9.765625E-2,3.256836E1,1.0046582E2,1.4879883E1,0E0,0E0,3.597107E-1,2.6538086E-1,3.5518188E0,1.6191147E1,3.122424E-1,2.9296875E-2,2.9800415E-1,0E0,0E0,0E0,9.239197E-3,7.9071045E-1,1.0179138E-1,2.833458E0,3.873825E-2,5.8046907E-2,0E0,0E0,0E0,0E0,0E0,0E0,0E0,2.5758743E-3,6.4086914E-3,1.6856194E-4,1.940918E-2,3.6287498E-1,1.1627078E-3,1.2653507E-4,3.6331783E-3,8.158267E-3,0E0,0E0,0E0,0E0,0E0,0E0,0E0,0E0,0E0,0E0,0E0,0E0,0E0,0E0,0E0,0E0,0E0,0E0],"parents":[2147483647,0,0,1,1,2,2,3,3,4,4,5,5,6,6,9,9,10,10,11,11,12,12,13,13,14,14,15,15,19,19,20,20,21,21,22,22,23,23,24,24,32,32,33,33,34,34,35,35,36,36,37,37,38,38,39,39,40,40],"right_children":[2,4,6,8,10,12,14,-1,-1,16,18,20,22,24,26,28,-1,-1,-1,30,32,34,36,38,40,-1,-1,-1,-1,-1,-1,-1,42,44,46,48,50,52,54,56,58,-1,-1,-1,-1,-1,-1,-1,-1,-1,-1,-1,-1,-1,-1,-1,-1,-1,-1],"split_conditions":[6E-1,2.5E-1,8.666667E-1,1.6666667E-1,5E-1,7.2727275E-1,9.411765E-1,-3.4798257E-2,-2.773252E-2,4E-1,5.714286E-1,6.666667E-1,8E-1,9E-1,1E0,3.3333334E-1,-1.9301409E-2,-1.5427229E-2,-1.265989E-2,6.25E-1,6.923077E-1,7.692308E-1,8.333333E-1,8.888889E-1,9.166667E-1,1.9042807E-3,3.943794E-3,-2.5098844E-2,-2.188359E-2,-1.1553026E-2,-1.0569512E-2,-8.970215E-3,7.1428573E-1,7.3333335E-1,7.777778E-1,8.181818E-1,8.4210527E-1,8.75E-1,8.947368E-1,9.0909094E-1,9.3333334E-1,-7.7878805E-3,-7.117187E-3,-6.6381292E-3,-5.741915E-3,-5.11623E-3,-4.6198973E-3,-3.8026467E-3,-3.05477E-3,-2.5165356E-3,-1.6000996E-3,-1.2217691E-3,-8.9784554E-4,-3.5999136E-4,-8.05219E-5,6.958803E-5,3.7853874E-4,9.375031E-4,1.536487E-3],"split_indices":[4,4,4,4,4,4,4,0,0,4,4,4,4,4,4,4,0,0,0,4,4,4,4,4,4,0,0,0,0,0,0,0,4,4,4,4,4,4,4,4,4,0,0,0,0,0,0,0,0,0,0,0,0,0,0,0,0,0,0],"split_type":[0,0,0,0,0,0,0,0,0,0,0,0,0,0,0,0,0,0,0,0,0,0,0,0,0,0,0,0,0,0,0,0,0,0,0,0,0,0,0,0,0,0,0,0,0,0,0,0,0,0,0,0,0,0,0,0,0,0,0],"sum_hessian":[3.871011E6,4.1044E5,3.460571E6,2.68625E5,1.41815E5,1.89621E5,3.27095E6,2.68582E5,4.3E1,8.397E3,1.33418E5,9.3114E4,9.6507E4,8.415E3,3.262535E6,7.81E3,5.87E2,1.3304E5,3.78E2,5.628E3,8.7486E4,4.9836E4,4.6671E4,5.507E3,2.908E3,7.3E1,3.262462E6,3.5E2,7.46E3,5.386E3,2.42E2,8.4952E4,2.534E3,4.8889E4,9.47E2,2.7165E4,1.9506E4,3.508E3,1.999E3,1.65E3,1.258E3,1.84E2,2.35E3,1.2E2,4.8769E4,1.07E2,8.4E2,2.6788E4,3.77E2,1.303E4,6.476E3,1.22E2,3.386E3,1.982E3,1.7E1,1.055E3,5.95E2,9.55E2,3.03E2],"tree_param":{"num_deleted":"0","num_feature":"6","num_nodes":"59","size_leaf_vector":"1"}},{"base_weights":[-5.896073E-7,-2.5410053E-1,3.0136922E-2,-3.1317526E-1,-1.4220013E-1,-6.0585774E-2,3.5396244E-2,-3.131844E-2,-2.5022296E-2,-1.965894E-1,-1.3877556E-1,-8.1676066E-2,-4.023634E-2,-2.3998388E-3,3.549373E-2,-1.9828388E-1,-1.737455E-2,-1.3884517E-2,-1.1397239E-2,-1.03662476E-1,-8.0266126E-2,-5.155181E-2,-2.8225128E-2,-6.3837916E-3,5.1443386E-3,1.7164231E-3,3.5494138E-3,-2.2625998E-2,-1.9696867E-2,-1.0397936E-2,-9.550617E-3,-8.073474E-3,-6.452633E-2,-5.169853E-2,-4.2554936E-3,-3.4162056E-2,-1.9911617E-2,-8.202677E-3,-3.2463633E-3,2.3682108E-3,1.1012095E-2,-7.013302E-3,-6.4057685E-3,-5.957001E-3,-5.1676645E-3,-3.4265444E-3,-2.807944E-3,-2.2577415E-3,-1.4217416E-3,-1.1005849E-3,-8.0977444E-4,-3.267332E-4,-7.291668E-5,6.2638755E-5,4.362779E-4,9.963659E-4,1.4785926E-3],"categories":[],"categories_nodes":[],"categories_segments":[],"categories_sizes":[],"default_left":[0,0,0,0,0,0,0,0,0,0,0,0,0,0,0,0,0,0,0,0,0,0,0,0,0,0,0,0,0,0,0,0,0,0,0,0,0,0,0,0,0,0,0,0,0,0,0,0,0,0,0,0,0,0,0,0,0],"id":10,"left_children":[1,3,5,7,9,11,13,-1,-1,15,17,19,21,23,25,27,-1,-1,-1,29,31,33,35,37,39,-1,-1,-1,-1,-1,-1,-1,41,43,-1,45,47,49,51,53,55,-1,-1,-1,-1,-1,-1,-1,-1,-1,-1,-1,-1,-1,-1,-1,-1],"loss_changes":[2.9643984E4,2.71317E3,1.651179E3,7.8125E-2,2.6387207E1,8.137787E1,1.2052734E1,0E0,0E0,2.9058838E-1,2.1484375E-1,2.8781738E0,1.3115189E1,2.5298116E-1,2.34375E-2,2.4285889E-1,0E0,0E0,0E0,4.558563E-3,6.402588E-1,6.340027E-2,2.310051E0,3.140545E-2,4.7360487E-2,0E0,0E0,0E0,0E0,0E0,0E0,0E0,2.1686554E-3,5.340576E-3,0E0,1.6212463E-2,2.9578686E-1,9.3626976E-4,1.0439567E-4,6.8622567E-3,3.5481676E-3,0E0,0E0,0E0,0E0,0E0,0E0,0E0,0E0,0E0,0E0,0E0,0E0,0E0,0E0,0E0,0E0],"parents":[2147483647,0,0,1,1,2,2,3,3,4,4,5,5,6,6,9,9,10,10,11,11,12,12,13,13,14,14,15,15,19,19,20,20,21,21,22,22,23,23,24,24,32,32,33,33,35,35,36,36,37,37,38,38,39,39,40,40],"right_children":[2,4,6,8,10,12,14,-1,-1,16,18,20,22,24,26,28,-1,-1,-1,30,32,34,36,38,40,-1,-1,-1,-1,-1,-1,-1,42,44,-1,46,48,50,52,54,56,-1,-1,-1,-1,-1,-1,-1,-1,-1,-1,-1,-1,-1,-1,-1,-1],"split_conditions":[6E-1,2.5E-1,8.666667E-1,1.6666667E-1,5E-1,7.2727275E-1,9.411765E-1,-3.131844E-2,-2.5022296E-2,4E-1,5.714286E-1,6.363636E-1,7.8571427E-1,9E-1,1E0,2.857143E-1,-1.737455E-2,-1.3884517E-2,-1.1397239E-2,6.25E-1,6.923077E-1,7.692308E-1,8.333333E-1,8.8235295E-1,9.230769E-1,1.7164231E-3,3.5494138E-3,-2.2625998E-2,-1.9696867E-2,-1.0397936E-2,-9.550617E-3,-8.073474E-3,7.1428573E-1,7.5E-1,-4.2554936E-3,8.125E-1,8.5714287E-1,8.75E-1,8.947368E-1,9.0909094E-1,9.375E-1,-7.013302E-3,-6.4057685E-3,-5.957001E-3,-5.1676645E-3,-3.4265444E-3,-2.807944E-3,-2.2577415E-3,-1.4217416E-3,-1.1005849E-3,-8.0977444E-4,-3.267332E-4,-7.291668E-5,6.2638755E-5,4.362779E-4,9.963659E-4,1.4785926E-3],"split_indices":[4,4,4,4,4,4,4,0,0,4,4,4,4,4,4,4,0,0,0,4,4,4,4,4,4,0,0,0,0,0,0,0,4,4,0,4,4,4,4,4,4,0,0,0,0,0,0,0,0,0,0,0,0,0,0,0,0],"split_type":[0,0,0,0,0,0,0,0,0,0,0,0,0,0,0,0,0,0,0,0,0,0,0,0,0,0,0,0,0,0,0,0,0,0,0,0,0,0,0,0,0,0,0,0,0,0,0,0,0,0,0,0,0,0,0,0,0],"sum_hessian":[3.871011E6,4.1044E5,3.460571E6,2.68625E5,1.41815E5,1.89621E5,3.27095E6,2.68582E5,4.3E1,8.397E3,1.33418E5,9.3114E4,9.6507E4,8.415E3,3.262535E6,7.81E3,5.87E2,1.3304E5,3.78E2,5.607E3,8.7507E4,4.9691E4,4.6816E4,5.507E3,2.908E3,7.3E1,3.262462E6,3.43E2,7.467E3,5.386E3,2.21E2,8.4973E4,2.534E3,4.8889E4,8.02E2,2.731E4,1.9506E4,3.485E3,2.022E3,1.975E3,9.33E2,1.84E2,2.35E3,1.28E2,4.8761E4,2.6849E4,4.61E2,1.3284E4,6.222E3,1.22E2,3.363E3,2.005E3,1.7E1,1.055E3,9.2E2,7.33E2,2E2],"tree_param":{"num_deleted":"0","num_feature":"6","num_nodes":"57","size_leaf_vector":"1"}},{"base_weights":[-5.6917526E-7,-2.2869082E-1,2.7123228E-2,-2.8185797E-1,-1.279807E-1,-5.452756E-2,3.185664E-2,-2.818661E-2,-2.2576934E-2,-1.7693754E-1,-1.24898165E-1,-7.350893E-2,-3.6212962E-2,-2.1597685E-3,3.194438E-2,-1.7846088E-1,-1.5640046E-2,-1.2496074E-2,-1.0260522E-2,-9.3263365E-2,-7.223707E-2,-4.6367943E-2,-2.5368558E-2,-5.7458156E-3,4.630918E-3,1.5470991E-3,3.1944741E-3,-2.0345798E-2,-1.77261E-2,-9.358338E-3,-8.578543E-3,-7.2658695E-3,-5.8078982E-2,-4.65196E-2,-3.7477072E-3,-3.0715736E-2,-1.7920626E-2,-7.3692235E-3,-2.8946733E-3,1.433451E-3,8.8202655E-3,-6.3157603E-3,-5.765464E-3,-5.365918E-3,-4.6499805E-3,-3.0808668E-3,-2.5277603E-3,-2.031982E-3,-1.2795896E-3,-9.914198E-4,-7.2746264E-4,-2.913495E-4,-6.6032015E-5,5.638024E-5,2.9718998E-4,6.884821E-4,1.1177824E-3],"categories":[],"categories_nodes":[],"categories_segments":[],"categories_sizes":[],"default_left":[0,0,0,0,0,0,0,0,0,0,0,0,0,0,0,0,0,0,0,0,0,0,0,0,0,0,0,0,0,0,0,0,0,0,0,0,0,0,0,0,0,0,0,0,0,0,0,0,0,0,0,0,0,0,0,0,0],"id":11,"left_children":[1,3,5,7,9,11,13,-1,-1,15,17,19,21,23,25,27,-1,-1,-1,29,31,33,35,37,39,-1,-1,-1,-1,-1,-1,-1,41,43,-1,45,47,49,51,53,55,-1,-1,-1,-1,-1,-1,-1,-1,-1,-1,-1,-1,-1,-1,-1,-1],"loss_changes":[2.4011691E4,2.1976582E3,1.3374673E3,5.859375E-2,2.1379395E1,6.591681E1,9.762207E0,0E0,0E0,2.3480225E-1,1.730957E-1,2.3327637E0,1.0626732E1,2.049707E-1,1.9042969E-2,1.9822693E-1,0E0,0E0,0E0,5.4359436E-3,5.180359E-1,6.5452576E-2,1.8581829E0,2.547282E-2,3.895428E-2,0E0,0E0,0E0,0E0,0E0,0E0,0E0,1.8224716E-3,4.432678E-3,0E0,1.2950897E-2,2.3958254E-1,7.726699E-4,8.218549E-5,2.2072128E-3,5.667761E-3,0E0,0E0,0E0,0E0,0E0,0E0,0E0,0E0,0E0,0E0,0E0,0E0,0E0,0E0,0E0,0E0],"parents":[2147483647,0,0,1,1,2,2,3,3,4,4,5,5,6,6,9,9,10,10,11,11,12,12,13,13,14,14,15,15,19,19,20,20,21,21,22,22,23,23,24,24,32,32,33,33,35,35,36,36,37,37,38,38,39,39,40,40],"right_children":[2,4,6,8,10,12,14,-1,-1,16,18,20,22,24,26,28,-1,-1,-1,30,32,34,36,38,40,-1,-1,-1,-1,-1,-1,-1,42,44,-1,46,48,50,52,54,56,-1,-1,-1,-1,-1,-1,-1,-1,-1,-1,-1,-1,-1,-1,-1,-1],"split_conditions":[6E-1,2.5E-1,8.666667E-1,1.6666667E-1,5E-1,7.2727275E-1,9.411765E-1,-2.818661E-2,-2.2576934E-2,4E-1,5.714286E-1,6.666667E-1,8E-1,9E-1,1E0,3.3333334E-1,-1.5640046E-2,-1.2496074E-2,-1.0260522E-2,6.25E-1,6.923077E-1,7.777778E-1,8.333333E-1,8.888889E-1,9.166667E-1,1.5470991E-3,3.1944741E-3,-2.0345798E-2,-1.77261E-2,-9.358338E-3,-8.578543E-3,-7.2658695E-3,7.1428573E-1,7.5E-1,-3.7477072E-3,8.125E-1,8.5714287E-1,8.75E-1,8.947368E-1,9.0909094E-1,9.285714E-1,-6.3157603E-3,-5.765464E-3,-5.365918E-3,-4.6499805E-3,-3.0808668E-3,-2.5277603E-3,-2.031982E-3,-1.2795896E-3,-9.914198E-4,-7.2746264E-4,-2.913495E-4,-6.6032015E-5,5.638024E-5,2.9718998E-4,6.884821E-4,1.1177824E-3],"split_indices":[4,4,4,4,4,4,4,0,0,4,4,4,4,4,4,4,0,0,0,4,4,4,4,4,4,0,0,0,0,0,0,0,4,4,0,4,4,4,4,4,4,0,0,0,0,0,0,0,0,0,0,0,0,0,0,0,0],"split_type":[0,0,0,0,0,0,0,0,0,0,0,0,0,0,0,0,0,0,0,0,0,0,0,0,0,0,0,0,0,0,0,0,0,0,0,0,0,0,0,0,0,0,0,0,0,0,0,0,0,0,0,0,0,0,0,0,0],"sum_hessian":[3.871011E6,4.1044E5,3.460571E6,2.68625E5,1.41815E5,1.89621E5,3.27095E6,2.68582E5,4.3E1,8.397E3,1.33418E5,9.3114E4,9.6507E4,8.415E3,3.262535E6,7.81E3,5.87E2,1.3304E5,3.78E2,5.628E3,8.7486E4,4.9836E4,4.6671E4,5.507E3,2.908E3,7.3E1,3.262462E6,3.5E2,7.46E3,5.386E3,2.42E2,8.4952E4,2.534E3,4.8996E4,8.4E2,2.7165E4,1.9506E4,3.508E3,1.999E3,1.65E3,1.258E3,1.84E2,2.35E3,1.28E2,4.8868E4,2.6704E4,4.61E2,1.3284E4,6.222E3,1.22E2,3.386E3,1.982E3,1.7E1,1.055E3,5.95E2,6.93E2,5.65E2],"tree_param":{"num_deleted":"0","num_feature":"6","num_nodes":"57","size_leaf_vector":"1"}},{"base_weights":[-5.401315E-7,-2.0582204E-1,2.441091E-2,-2.5367233E-1,-1.1518318E-1,-4.907512E-2,2.8671E-2,-2.5367958E-2,-2.0370552E-2,-1.5925018E-1,-1.1240854E-1,-6.615844E-2,-3.2591898E-2,-1.9437779E-3,2.8749965E-2,-1.6061968E-1,-1.4078704E-2,-1.1246478E-2,-9.237177E-3,-8.394021E-2,-6.501359E-2,-4.1731406E-2,-2.2831906E-2,-5.1716045E-3,4.1685677E-3,1.39448E-3,2.875029E-3,-1.8341308E-2,-1.5954822E-2,-8.4226765E-3,-7.724219E-3,-6.5390947E-3,-5.220678E-2,-4.187713E-2,-3.417232E-2,-2.764439E-2,-1.6128732E-2,-6.64644E-3,-2.6276368E-3,1.8987947E-3,8.966109E-3,-5.6537897E-3,-5.189166E-3,-4.8568705E-3,-4.1859667E-3,-3.7270435E-3,-3.373383E-3,-2.772047E-3,-2.217941E-3,-1.8359624E-3,-1.1637941E-3,-8.9308526E-4,-6.5609376E-4,-2.6445396E-4,-5.979472E-5,5.0746978E-5,3.491998E-4,7.774977E-4,1.1408996E-3],"categories":[],"categories_nodes":[],"categories_segments":[],"categories_sizes":[],"default_left":[0,0,0,0,0,0,0,0,0,0,0,0,0,0,0,0,0,0,0,0,0,0,0,0,0,0,0,0,0,0,0,0,0,0,0,0,0,0,0,0,0,0,0,0,0,0,0,0,0,0,0,0,0,0,0,0,0,0,0],"id":12,"left_children":[1,3,5,7,9,11,13,-1,-1,15,17,19,21,23,25,27,-1,-1,-1,29,31,33,35,37,39,-1,-1,-1,-1,-1,-1,-1,41,43,45,47,49,51,53,55,57,-1,-1,-1,-1,-1,-1,-1,-1,-1,-1,-1,-1,-1,-1,-1,-1,-1,-1],"loss_changes":[1.9449523E4,1.7800938E3,1.0833579E3,4.4921875E-2,1.73219E1,5.3393127E1,7.9074707E0,0E0,0E0,1.8974304E-1,1.4001465E-1,1.8901367E0,8.607704E0,1.6606581E-1,1.5136719E-2,1.6149902E-1,0E0,0E0,0E0,4.299164E-3,4.194336E-1,5.3474426E-2,1.5051422E0,2.0648181E-2,3.1660035E-2,0E0,0E0,0E0,0E0,0E0,0E0,0E0,4.901886E-4,3.6773682E-3,3.0636787E-5,1.0681152E-2,1.9521666E-1,6.222874E-4,6.7821704E-5,4.378355E-3,2.6290491E-3,0E0,0E0,0E0,0E0,0E0,0E0,0E0,0E0,0E0,0E0,0E0,0E0,0E0,0E0,0E0,0E0,0E0,0E0],"parents":[2147483647,0,0,1,1,2,2,3,3,4,4,5,5,6,6,9,9,10,10,11,11,12,12,13,13,14,14,15,15,19,19,20,20,21,21,22,22,23,23,24,24,32,32,33,33,34,34,35,35,36,36,37,37,38,38,39,39,40,40],"right_children":[2,4,6,8,10,12,14,-1,-1,16,18,20,22,24,26,28,-1,-1,-1,30,32,34,36,38,40,-1,-1,-1,-1,-1,-1,-1,42,44,46,48,50,52,54,56,58,-1,-1,-1,-1,-1,-1,-1,-1,-1,-1,-1,-1,-1,-1,-1,-1,-1,-1],"split_conditions":[6E-1,2.5E-1,8.666667E-1,1.6666667E-1,5E-1,7.2727275E-1,9.411765E-1,-2.5367958E-2,-2.0370552E-2,4E-1,5.714286E-1,6.666667E-1,8E-1,9E-1,1E0,2.857143E-1,-1.4078704E-2,-1.1246478E-2,-9.237177E-3,6.25E-1,7E-1,7.692308E-1,8.333333E-1,8.8235295E-1,9.230769E-1,1.39448E-3,2.875029E-3,-1.8341308E-2,-1.5954822E-2,-8.4226765E-3,-7.724219E-3,-6.5390947E-3,7.1428573E-1,7.3333335E-1,7.777778E-1,8.181818E-1,8.4210527E-1,8.75E-1,8.947368E-1,9.0909094E-1,9.3333334E-1,-5.6537897E-3,-5.189166E-3,-4.8568705E-3,-4.1859667E-3,-3.7270435E-3,-3.373383E-3,-2.772047E-3,-2.217941E-3,-1.8359624E-3,-1.1637941E-3,-8.9308526E-4,-6.5609376E-4,-2.6445396E-4,-5.979472E-5,5.0746978E-5,3.491998E-4,7.774977E-4,1.1408996E-3],"split_indices":[4,4,4,4,4,4,4,0,0,4,4,4,4,4,4,4,0,0,0,4,4,4,4,4,4,0,0,0,0,0,0,0,4,4,4,4,4,4,4,4,4,0,0,0,0,0,0,0,0,0,0,0,0,0,0,0,0,0,0],"split_type":[0,0,0,0,0,0,0,0,0,0,0,0,0,0,0,0,0,0,0,0,0,0,0,0,0,0,0,0,0,0,0,0,0,0,0,0,0,0,0,0,0,0,0,0,0,0,0,0,0,0,0,0,0,0,0,0,0,0,0],"sum_hessian":[3.871011E6,4.1044E5,3.460571E6,2.68625E5,1.41815E5,1.89621E5,3.27095E6,2.68582E5,4.3E1,8.397E3,1.33418E5,9.3114E4,9.6507E4,8.415E3,3.262535E6,7.81E3,5.87E2,1.3304E5,3.78E2,5.628E3,8.7486E4,4.9836E4,4.6671E4,5.507E3,2.908E3,7.3E1,3.262462E6,3.43E2,7.467E3,5.386E3,2.42E2,8.4978E4,2.508E3,4.8889E4,9.47E2,2.7165E4,1.9506E4,3.485E3,2.022E3,1.975E3,9.33E2,1.58E2,2.35E3,1.2E2,4.8769E4,1.07E2,8.4E2,2.6788E4,3.77E2,1.303E4,6.476E3,1.22E2,3.363E3,2.005E3,1.7E1,1.055E3,9.2E2,6.3E2,3.03E2],"tree_param":{"num_deleted":"0","num_feature":"6","num_nodes":"59","size_leaf_vector":"1"}},{"base_weights":[-5.2897906E-7,-1.852401E-1,2.1969803E-2,-2.2830528E-1,-1.0366532E-1,-4.4167906E-2,2.5803901E-2,-2.2830961E-2,-1.6213607E-2,-1.4333093E-1,-1.0116781E-1,-5.9542947E-2,-2.9332962E-2,-1.7493534E-3,2.5874969E-2,-1.445621E-1,-1.2673231E-2,-1.0121836E-2,-8.315898E-3,-7.554906E-2,-5.8512416E-2,-3.755858E-2,-2.05489E-2,-4.6547963E-3,3.7525129E-3,1.2569193E-3,2.5875263E-3,-1.6492866E-2,-1.4358458E-2,-7.5805658E-3,-6.954975E-3,-5.8853887E-3,-4.7045935E-2,-3.7689593E-2,-3.0762577E-2,-2.4880148E-2,-1.4516031E-2,-5.971226E-3,-2.342793E-3,1.1320482E-3,7.1859E-3,-5.112832E-3,-4.6704686E-3,-4.375196E-3,-3.767378E-3,-3.3577927E-3,-3.0364457E-3,-2.4956006E-3,-2.044141E-3,-1.6523822E-3,-1.047434E-3,-8.045057E-4,-5.8941514E-4,-2.3579621E-4,-5.4148502E-5,4.5679426E-5,2.3265718E-4,6.1970757E-4,1.0271856E-3],"categories":[],"categories_nodes":[],"categories_segments":[],"categories_sizes":[],"default_left":[0,0,0,0,0,0,0,0,0,0,0,0,0,0,0,0,0,0,0,0,0,0,0,0,0,0,0,0,0,0,0,0,0,0,0,0,0,0,0,0,0,0,0,0,0,0,0,0,0,0,0,0,0,0,0,0,0,0,0],"id":13,"left_children":[1,3,5,7,9,11,13,-1,-1,15,17,19,21,23,25,27,-1,-1,-1,29,31,33,35,37,39,-1,-1,-1,-1,-1,-1,-1,41,43,45,47,49,51,53,55,57,-1,-1,-1,-1,-1,-1,-1,-1,-1,-1,-1,-1,-1,-1,-1,-1,-1,-1],"loss_changes":[1.5754152E4,1.4418682E3,8.775272E2,4.0039062E-2,1.4034546E1,4.324875E1,6.4050293E0,0E0,0E0,1.5330505E-1,1.1303711E-1,1.5314636E0,6.972351E0,1.3455024E-1,1.2451172E-2,1.3182068E-1,0E0,0E0,0E0,3.3950806E-3,3.397827E-1,4.321289E-2,1.2191696E0,1.6750105E-2,2.6164342E-2,0E0,0E0,0E0,0E0,0E0,0E0,0E0,1.1439323E-3,3.036499E-3,4.2915344E-5,8.636475E-3,1.581235E-1,5.134493E-4,5.3372234E-5,1.330645E-3,3.7781447E-3,0E0,0E0,0E0,0E0,0E0,0E0,0E0,0E0,0E0,0E0,0E0,0E0,0E0,0E0,0E0,0E0,0E0,0E0],"parents":[2147483647,0,0,1,1,2,2,3,3,4,4,5,5,6,6,9,9,10,10,11,11,12,12,13,13,14,14,15,15,19,19,20,20,21,21,22,22,23,23,24,24,32,32,33,33,34,34,35,35,36,36,37,37,38,38,39,39,40,40],"right_children":[2,4,6,8,10,12,14,-1,-1,16,18,20,22,24,26,28,-1,-1,-1,30,32,34,36,38,40,-1,-1,-1,-1,-1,-1,-1,42,44,46,48,50,52,54,56,58,-1,-1,-1,-1,-1,-1,-1,-1,-1,-1,-1,-1,-1,-1,-1,-1,-1,-1],"split_conditions":[6E-1,2.5E-1,8.666667E-1,2E-1,5E-1,7.2727275E-1,9.411765E-1,-2.2830961E-2,-1.6213607E-2,4E-1,5.714286E-1,6.666667E-1,8E-1,9E-1,1E0,3.3333334E-1,-1.2673231E-2,-1.0121836E-2,-8.315898E-3,6.25E-1,6.923077E-1,7.692308E-1,8.333333E-1,8.888889E-1,9.166667E-1,1.2569193E-3,2.5875263E-3,-1.6492866E-2,-1.4358458E-2,-7.5805658E-3,-6.954975E-3,-5.8853887E-3,7.1428573E-1,7.3333335E-1,7.777778E-1,8.125E-1,8.4210527E-1,8.75E-1,8.947368E-1,9.0909094E-1,9.3333334E-1,-5.112832E-3,-4.6704686E-3,-4.375196E-3,-3.767378E-3,-3.3577927E-3,-3.0364457E-3,-2.4956006E-3,-2.044141E-3,-1.6523822E-3,-1.047434E-3,-8.045057E-4,-5.8941514E-4,-2.3579621E-4,-5.4148502E-5,4.5679426E-5,2.3265718E-4,6.1970757E-4,1.0271856E-3],"split_indices":[4,4,4,4,4,4,4,0,0,4,4,4,4,4,4,4,0,0,0,4,4,4,4,4,4,0,0,0,0,0,0,0,4,4,4,4,4,4,4,4,4,0,0,0,0,0,0,0,0,0,0,0,0,0,0,0,0,0,0],"split_type":[0,0,0,0,0,0,0,0,0,0,0,0,0,0,0,0,0,0,0,0,0,0,0,0,0,0,0,0,0,0,0,0,0,0,0,0,0,0,0,0,0,0,0,0,0,0,0,0,0,0,0,0,0,0,0,0,0,0,0],"sum_hessian":[3.871011E6,4.1044E5,3.460571E6,2.68625E5,1.41815E5,1.89621E5,3.27095E6,2.68605E5,2E1,8.397E3,1.33418E5,9.3114E4,9.6507E4,8.415E3,3.262535E6,7.81E3,5.87E2,1.3304E5,3.78E2,5.628E3,8.7486E4,4.9836E4,4.6671E4,5.507E3,2.908E3,7.3E1,3.262462E6,3.5E2,7.46E3,5.386E3,2.42E2,8.4952E4,2.534E3,4.8889E4,9.47E2,2.7165E4,1.9506E4,3.508E3,1.999E3,1.65E3,1.258E3,1.84E2,2.35E3,1.2E2,4.8769E4,1.07E2,8.4E2,2.6704E4,4.61E2,1.303E4,6.476E3,1.22E2,3.386E3,1.982E3,1.7E1,1.055E3,5.95E2,9.55E2,3.03E2],"tree_param":{"num_deleted":"0","num_feature":"6","num_nodes":"59","size_leaf_vector":"1"}},{"base_weights":[-4.9112685E-7,-1.6671634E-1,1.9772835E-2,-2.0547488E-1,-9.329924E-2,-3.9751407E-2,2.322354E-2,-2.0548085E-2,-1.6449377E-2,-1.2900302E-1,-9.105118E-2,-5.3588998E-2,-2.6399901E-2,-1.574379E-3,2.3287501E-2,-1.3010983E-1,-1.140806E-2,-9.109661E-3,-7.4864994E-3,-6.802564E-2,-5.2663207E-2,-3.3803023E-2,-1.8494181E-2,-4.1896137E-3,3.3779368E-3,1.1329236E-3,2.3287765E-3,-1.4868015E-2,-1.2923702E-2,-6.822649E-3,-6.2845596E-3,-5.29704E-3,-4.234523E-2,-3.3920806E-2,-2.7693072E-2,-2.2392314E-2,-1.3064582E-2,-5.3854785E-3,-2.1268486E-3,1.5127664E-3,7.320334E-3,-4.604313E-3,-4.2036227E-3,-3.925363E-3,-3.3906002E-3,-3.0251248E-3,-2.7331626E-3,-2.2454464E-3,-1.7928595E-3,-1.4824368E-3,-9.3056506E-4,-7.247114E-4,-5.3158094E-4,-3.554019E-4,-2.108659E-4,4.1118034E-5,2.7741803E-4,6.5641804E-4,1.0045192E-3],"categories":[],"categories_nodes":[],"categories_segments":[],"categories_sizes":[],"default_left":[0,0,0,0,0,0,0,0,0,0,0,0,0,0,0,0,0,0,0,0,0,0,0,0,0,0,0,0,0,0,0,0,0,0,0,0,0,0,0,0,0,0,0,0,0,0,0,0,0,0,0,0,0,0,0,0,0,0,0],"id":14,"left_children":[1,3,5,7,9,11,13,-1,-1,15,17,19,21,23,25,27,-1,-1,-1,29,31,33,35,37,39,-1,-1,-1,-1,-1,-1,-1,41,43,45,47,49,51,53,55,57,-1,-1,-1,-1,-1,-1,-1,-1,-1,-1,-1,-1,-1,-1,-1,-1,-1,-1],"loss_changes":[1.2760899E4,1.1679072E3,7.1080444E2,3.125E-2,1.1370972E1,3.503177E1,5.1882324E0,0E0,0E0,1.2385559E-1,9.1308594E-2,1.2409058E0,5.647705E0,1.0901371E-1,1.0009766E-2,1.0739136E-1,0E0,0E0,0E0,1.5468597E-3,2.7513123E-1,3.4923553E-2,9.875326E-1,1.3575621E-2,2.1379512E-2,0E0,0E0,0E0,0E0,0E0,0E0,0E0,9.613037E-4,2.532959E-3,4.9829483E-5,7.1344376E-3,1.2889934E-1,4.1360408E-4,4.5021996E-5,2.7446216E-3,1.858484E-3,0E0,0E0,0E0,0E0,0E0,0E0,0E0,0E0,0E0,0E0,0E0,0E0,0E0,0E0,0E0,0E0,0E0,0E0],"parents":[2147483647,0,0,1,1,2,2,3,3,4,4,5,5,6,6,9,9,10,10,11,11,12,12,13,13,14,14,15,15,19,19,20,20,21,21,22,22,23,23,24,24,32,32,33,33,34,34,35,35,36,36,37,37,38,38,39,39,40,40],"right_children":[2,4,6,8,10,12,14,-1,-1,16,18,20,22,24,26,28,-1,-1,-1,30,32,34,36,38,40,-1,-1,-1,-1,-1,-1,-1,42,44,46,48,50,52,54,56,58,-1,-1,-1,-1,-1,-1,-1,-1,-1,-1,-1,-1,-1,-1,-1,-1,-1,-1],"split_conditions":[6E-1,2.5E-1,8.666667E-1,1.6666667E-1,5E-1,7.2727275E-1,9.411765E-1,-2.0548085E-2,-1.6449377E-2,4E-1,5.714286E-1,6.363636E-1,8E-1,9E-1,1E0,2.857143E-1,-1.140806E-2,-9.109661E-3,-7.4864994E-3,6.25E-1,6.923077E-1,7.692308E-1,8.333333E-1,8.8235295E-1,9.230769E-1,1.1329236E-3,2.3287765E-3,-1.4868015E-2,-1.2923702E-2,-6.822649E-3,-6.2845596E-3,-5.29704E-3,7.1428573E-1,7.5E-1,7.777778E-1,8.181818E-1,8.5714287E-1,8.75E-1,8.888889E-1,9.0909094E-1,9.375E-1,-4.604313E-3,-4.2036227E-3,-3.925363E-3,-3.3906002E-3,-3.0251248E-3,-2.7331626E-3,-2.2454464E-3,-1.7928595E-3,-1.4824368E-3,-9.3056506E-4,-7.247114E-4,-5.3158094E-4,-3.554019E-4,-2.108659E-4,4.1118034E-5,2.7741803E-4,6.5641804E-4,1.0045192E-3],"split_indices":[4,4,4,4,4,4,4,0,0,4,4,4,4,4,4,4,0,0,0,4,4,4,4,4,4,0,0,0,0,0,0,0,4,4,4,4,4,4,4,4,4,0,0,0,0,0,0,0,0,0,0,0,0,0,0,0,0,0,0],"split_type":[0,0,0,0,0,0,0,0,0,0,0,0,0,0,0,0,0,0,0,0,0,0,0,0,0,0,0,0,0,0,0,0,0,0,0,0,0,0,0,0,0,0,0,0,0,0,0,0,0,0,0,0,0,0,0,0,0,0,0],"sum_hessian":[3.871011E6,4.1044E5,3.460571E6,2.68625E5,1.41815E5,1.89621E5,3.27095E6,2.68582E5,4.3E1,8.397E3,1.33418E5,9.3114E4,9.6507E4,8.415E3,3.262535E6,7.81E3,5.87E2,1.3304E5,3.78E2,5.607E3,8.7507E4,4.9836E4,4.6671E4,5.507E3,2.908E3,7.3E1,3.262462E6,3.43E2,7.467E3,5.386E3,2.21E2,8.4973E4,2.534E3,4.8889E4,9.47E2,2.7165E4,1.9506E4,3.485E3,2.022E3,1.975E3,9.33E2,1.84E2,2.35E3,1.28E2,4.8761E4,1.07E2,8.4E2,2.6788E4,3.77E2,1.3284E4,6.222E3,1.22E2,3.363E3,2.3E1,1.999E3,1.055E3,9.2E2,7.33E2,2E2],"tree_param":{"num_deleted":"0","num_feature":"6","num_nodes":"59","size_leaf_vector":"1"}},{"base_weights":[-4.562496E-7,-1.5004493E-1,1.7795563E-2,-1.8492754E-1,-8.39697E-2,-3.5776503E-2,2.090121E-2,-1.8493107E-2,-1.3102847E-2,-1.161074E-1,-8.194618E-2,-4.823037E-2,-2.3760116E-2,-1.416929E-3,2.0958776E-2,-1.1710242E-1,-1.0269198E-2,-8.1987E-3,-6.7398227E-3,-6.120211E-2,-4.7395203E-2,-3.0443061E-2,-1.6666269E-2,-3.7817135E-3,3.0213655E-3,1.021164E-3,2.0959014E-3,-1.336959E-2,-1.1630609E-2,-6.140511E-3,-5.6450064E-3,-4.767159E-3,-3.8114183E-2,-3.0528866E-2,-2.5181042E-3,-2.0171225E-2,-1.17582595E-2,-4.847316E-3,-1.9280391E-3,8.8053977E-4,5.8552623E-3,-4.146368E-3,-3.78344E-3,-3.5519954E-3,-3.0515858E-3,-2.023312E-3,-1.6530439E-3,-1.3342053E-3,-8.375253E-4,-6.5282726E-4,-4.7844133E-4,-3.2134057E-4,-1.9115103E-4,3.5934347E-5,1.8173907E-4,4.5247117E-4,7.47637E-4],"categories":[],"categories_nodes":[],"categories_segments":[],"categories_sizes":[],"default_left":[0,0,0,0,0,0,0,0,0,0,0,0,0,0,0,0,0,0,0,0,0,0,0,0,0,0,0,0,0,0,0,0,0,0,0,0,0,0,0,0,0,0,0,0,0,0,0,0,0,0,0,0,0,0,0,0,0],"id":15,"left_children":[1,3,5,7,9,11,13,-1,-1,15,17,19,21,23,25,27,-1,-1,-1,29,31,33,35,37,39,-1,-1,-1,-1,-1,-1,-1,41,43,-1,45,47,49,51,53,55,-1,-1,-1,-1,-1,-1,-1,-1,-1,-1,-1,-1,-1,-1,-1,-1],"loss_changes":[1.0336356E4,9.46E2,5.7575696E2,2.6367188E-2,9.212952E0,2.837587E1,4.2023926E0,0E0,0E0,1.0006714E-1,7.373047E-2,1.0058746E0,4.5747223E0,8.834249E-2,8.056641E-3,8.766937E-2,0E0,0E0,0E0,1.964569E-3,2.2261047E-1,2.166748E-2,8.0512524E-1,1.0836907E-2,1.7746532E-2,0E0,0E0,0E0,0E0,0E0,0E0,0E0,8.068085E-4,2.0866394E-3,0E0,5.8202744E-3,1.0440636E-1,3.3736974E-4,3.647618E-5,8.138033E-4,2.6817918E-3,0E0,0E0,0E0,0E0,0E0,0E0,0E0,0E0,0E0,0E0,0E0,0E0,0E0,0E0,0E0,0E0],"parents":[2147483647,0,0,1,1,2,2,3,3,4,4,5,5,6,6,9,9,10,10,11,11,12,12,13,13,14,14,15,15,19,19,20,20,21,21,22,22,23,23,24,24,32,32,33,33,35,35,36,36,37,37,38,38,39,39,40,40],"right_children":[2,4,6,8,10,12,14,-1,-1,16,18,20,22,24,26,28,-1,-1,-1,30,32,34,36,38,40,-1,-1,-1,-1,-1,-1,-1,42,44,-1,46,48,50,52,54,56,-1,-1,-1,-1,-1,-1,-1,-1,-1,-1,-1,-1,-1,-1,-1,-1],"split_conditions":[6E-1,2.5E-1,8.666667E-1,2E-1,5E-1,7.2727275E-1,9.411765E-1,-1.8493107E-2,-1.3102847E-2,4E-1,5.714286E-1,6.666667E-1,7.8571427E-1,8.947368E-1,1E0,3.3333334E-1,-1.0269198E-2,-8.1987E-3,-6.7398227E-3,6.25E-1,6.923077E-1,7.692308E-1,8.333333E-1,8.8235295E-1,9.166667E-1,1.021164E-3,2.0959014E-3,-1.336959E-2,-1.1630609E-2,-6.140511E-3,-5.6450064E-3,-4.767159E-3,7.1428573E-1,7.3333335E-1,-2.5181042E-3,8.125E-1,8.5714287E-1,8.75E-1,8.888889E-1,9.0909094E-1,9.285714E-1,-4.146368E-3,-3.78344E-3,-3.5519954E-3,-3.0515858E-3,-2.023312E-3,-1.6530439E-3,-1.3342053E-3,-8.375253E-4,-6.5282726E-4,-4.7844133E-4,-3.2134057E-4,-1.9115103E-4,3.5934347E-5,1.8173907E-4,4.5247117E-4,7.47637E-4],"split_indices":[4,4,4,4,4,4,4,0,0,4,4,4,4,4,4,4,0,0,0,4,4,4,4,4,4,0,0,0,0,0,0,0,4,4,0,4,4,4,4,4,4,0,0,0,0,0,0,0,0,0,0,0,0,0,0,0,0],"split_type":[0,0,0,0,0,0,0,0,0,0,0,0,0,0,0,0,0,0,0,0,0,0,0,0,0,0,0,0,0,0,0,0,0,0,0,0,0,0,0,0,0,0,0,0,0,0,0,0,0,0,0,0,0,0,0,0,0],"sum_hessian":[3.871011E6,4.1044E5,3.460571E6,2.68625E5,1.41815E5,1.89621E5,3.27095E6,2.68605E5,2E1,8.397E3,1.33418E5,9.3114E4,9.6507E4,8.415E3,3.262535E6,7.81E3,5.87E2,1.3304E5,3.78E2,5.628E3,8.7486E4,4.9691E4,4.6816E4,5.49E3,2.925E3,7.3E1,3.262462E6,3.5E2,7.46E3,5.386E3,2.42E2,8.4952E4,2.534E3,4.8889E4,8.02E2,2.731E4,1.9506E4,3.485E3,2.005E3,1.667E3,1.258E3,1.84E2,2.35E3,1.2E2,4.8769E4,2.6849E4,4.61E2,1.3284E4,6.222E3,1.22E2,3.363E3,2.3E1,1.982E3,1.072E3,5.95E2,6.93E2,5.65E2],"tree_param":{"num_deleted":"0","num_feature":"6","num_nodes":"57","size_leaf_vector":"1"}},{"base_weights":[-4.2224244E-7,-1.3504064E-1,1.6016018E-2,-1.664349E-1,-7.55731E-2,-3.219905E-2,1.8811114E-2,-1.6643979E-2,-1.3279554E-2,-1.0450087E-1,-7.3751695E-2,-4.3407574E-2,-2.138426E-2,-1.2480175E-3,1.8862994E-2,-1.2036439E-2,-1.0379602E-1,-7.378839E-3,-6.0676215E-3,-5.5083975E-2,-4.2655807E-2,-2.7381826E-2,-1.4979515E-2,-3.3943946E-3,2.7845516E-3,9.422735E-4,1.8863137E-3,-1.0467706E-2,-9.244025E-3,-5.526572E-3,-5.082832E-3,-4.2904466E-3,-3.4305867E-2,-2.7470693E-2,-2.217189E-3,-1.814202E-2,-1.0590428E-2,-4.362903E-3,-1.7237989E-3,1.2133246E-3,6.025889E-3,-3.733969E-3,-3.4052543E-3,-3.1865228E-3,-2.745853E-3,-1.8187019E-3,-1.4511193E-3,-1.206233E-3,-7.618169E-4,-5.880731E-4,-4.3061087E-4,-1.7354898E-4,-3.2515E-5,3.341845E-5,2.2200115E-4,5.31003E-4,8.3447056E-4],"categories":[],"categories_nodes":[],"categories_segments":[],"categories_sizes":[],"default_left":[0,0,0,0,0,0,0,0,0,0,0,0,0,0,0,0,0,0,0,0,0,0,0,0,0,0,0,0,0,0,0,0,0,0,0,0,0,0,0,0,0,0,0,0,0,0,0,0,0,0,0,0,0,0,0,0,0],"id":16,"left_children":[1,3,5,7,9,11,13,-1,-1,15,17,19,21,23,25,-1,27,-1,-1,29,31,33,35,37,39,-1,-1,-1,-1,-1,-1,-1,41,43,-1,45,47,49,51,53,55,-1,-1,-1,-1,-1,-1,-1,-1,-1,-1,-1,-1,-1,-1,-1,-1],"loss_changes":[8.372473E3,7.6625586E2,4.6636713E2,2.2460938E-2,7.4644775E0,2.2984634E1,3.4040527E0,0E0,0E0,8.140564E-2,5.9509277E-2,8.1500244E-1,3.7067413E0,7.305249E-2,4.272461E-3,0E0,7.083893E-2,0E0,0E0,1.543045E-3,1.8019104E-1,2.2464752E-2,6.476393E-1,8.904345E-3,1.4925003E-2,0E0,0E0,0E0,0E0,0E0,0E0,0E0,6.766319E-4,1.7433167E-3,0E0,4.1675568E-3,8.542824E-2,2.751872E-4,3.2514334E-5,1.7480555E-3,1.5442595E-3,0E0,0E0,0E0,0E0,0E0,0E0,0E0,0E0,0E0,0E0,0E0,0E0,0E0,0E0,0E0,0E0],"parents":[2147483647,0,0,1,1,2,2,3,3,4,4,5,5,6,6,9,9,10,10,11,11,12,12,13,13,14,14,16,16,19,19,20,20,21,21,22,22,23,23,24,24,32,32,33,33,35,35,36,36,37,37,38,38,39,39,40,40],"right_children":[2,4,6,8,10,12,14,-1,-1,16,18,20,22,24,26,-1,28,-1,-1,30,32,34,36,38,40,-1,-1,-1,-1,-1,-1,-1,42,44,-1,46,48,50,52,54,56,-1,-1,-1,-1,-1,-1,-1,-1,-1,-1,-1,-1,-1,-1,-1,-1],"split_conditions":[6E-1,2.5E-1,8.666667E-1,1.6666667E-1,5E-1,7.2727275E-1,9.4736844E-1,-1.6643979E-2,-1.3279554E-2,3.3333334E-1,5.714286E-1,6.666667E-1,8E-1,9E-1,1E0,-1.2036439E-2,4E-1,-7.378839E-3,-6.0676215E-3,6.25E-1,6.923077E-1,7.777778E-1,8.235294E-1,8.8235295E-1,9.230769E-1,9.422735E-4,1.8863137E-3,-1.0467706E-2,-9.244025E-3,-5.526572E-3,-5.082832E-3,-4.2904466E-3,7.1428573E-1,7.5E-1,-2.217189E-3,8.181818E-1,8.4210527E-1,8.75E-1,8.947368E-1,9.0909094E-1,9.375E-1,-3.733969E-3,-3.4052543E-3,-3.1865228E-3,-2.745853E-3,-1.8187019E-3,-1.4511193E-3,-1.206233E-3,-7.618169E-4,-5.880731E-4,-4.3061087E-4,-1.7354898E-4,-3.2515E-5,3.341845E-5,2.2200115E-4,5.31003E-4,8.3447056E-4],"split_indices":[4,4,4,4,4,4,4,0,0,4,4,4,4,4,4,0,4,0,0,4,4,4,4,4,4,0,0,0,0,0,0,0,4,4,0,4,4,4,4,4,4,0,0,0,0,0,0,0,0,0,0,0,0,0,0,0,0],"split_type":[0,0,0,0,0,0,0,0,0,0,0,0,0,0,0,0,0,0,0,0,0,0,0,0,0,0,0,0,0,0,0,0,0,0,0,0,0,0,0,0,0,0,0,0,0,0,0,0,0,0,0,0,0,0,0,0,0],"sum_hessian":[3.871011E6,4.1044E5,3.460571E6,2.68625E5,1.41815E5,1.89621E5,3.27095E6,2.68582E5,4.3E1,8.397E3,1.33418E5,9.3114E4,9.6507E4,8.438E3,3.262512E6,3.5E2,8.047E3,1.3304E5,3.78E2,5.628E3,8.7486E4,4.9836E4,4.6671E4,5.507E3,2.931E3,5E1,3.262462E6,7.46E3,5.87E2,5.386E3,2.42E2,8.4952E4,2.534E3,4.8996E4,8.4E2,2.7124E4,1.9547E4,3.485E3,2.022E3,1.975E3,9.56E2,1.84E2,2.35E3,1.28E2,4.8868E4,2.6788E4,3.36E2,1.3071E4,6.476E3,1.22E2,3.363E3,2.005E3,1.7E1,1.055E3,9.2E2,7.33E2,2.23E2],"tree_param":{"num_deleted":"0","num_feature":"6","num_nodes":"57","size_leaf_vector":"1"}},{"base_weights":[-4.0300367E-7,-1.2153677E-1,1.4414412E-2,-1.4979151E-1,-6.8016134E-2,-2.8979322E-2,1.6930008E-2,-1.4979439E-2,-1.0590237E-2,-9.405456E-2,-6.637665E-2,-3.906704E-2,-1.9245964E-2,-1.147801E-3,1.6976636E-2,-1.0852317E-2,-9.3424976E-2,-6.640963E-3,-5.4624593E-3,-4.957749E-2,-3.8390342E-2,-2.4643794E-2,-1.3481673E-2,-3.055187E-3,2.464103E-3,8.3082495E-4,1.6976828E-3,-9.421661E-3,-8.321195E-3,-4.97402E-3,-4.5766393E-3,-3.8612892E-3,-3.0837366E-2,-2.4729157E-2,-2.0215541E-2,-1.6323091E-2,-9.523941E-3,-3.9199265E-3,-1.5364737E-3,7.0293644E-4,4.771666E-3,-3.3432778E-3,-3.064872E-3,-2.8837102E-3,-2.4718458E-3,-2.20389E-3,-1.995735E-3,-1.6368369E-3,-1.3071116E-3,-1.0810331E-3,-6.7761977E-4,-5.297453E-4,-3.868744E-4,-1.5469732E-4,-2.9441382E-5,3.0077796E-5,1.4143063E-4,4.092832E-4,6.890725E-4],"categories":[],"categories_nodes":[],"categories_segments":[],"categories_sizes":[],"default_left":[0,0,0,0,0,0,0,0,0,0,0,0,0,0,0,0,0,0,0,0,0,0,0,0,0,0,0,0,0,0,0,0,0,0,0,0,0,0,0,0,0,0,0,0,0,0,0,0,0,0,0,0,0,0,0,0,0,0,0],"id":17,"left_children":[1,3,5,7,9,11,13,-1,-1,15,17,19,21,23,25,-1,27,-1,-1,29,31,33,35,37,39,-1,-1,-1,-1,-1,-1,-1,41,43,45,47,49,51,53,55,57,-1,-1,-1,-1,-1,-1,-1,-1,-1,-1,-1,-1,-1,-1,-1,-1,-1,-1],"loss_changes":[6.7817217E3,6.206636E2,3.7776044E2,1.8066406E-2,6.0478516E0,1.8617737E1,2.7572021E0,0E0,0E0,6.6352844E-2,4.8034668E-2,6.6038513E-1,3.0024834E0,5.7987828E-2,5.3100586E-3,0E0,5.7296753E-2,0E0,0E0,1.2140274E-3,1.4585876E-1,1.8339157E-2,5.246973E-1,7.2275847E-3,1.1818832E-2,0E0,0E0,0E0,0E0,0E0,0E0,0E0,2.0384789E-4,1.4343262E-3,6.4373016E-6,3.786087E-3,6.887758E-2,2.2691116E-4,2.5626738E-5,4.718983E-4,1.7828532E-3,0E0,0E0,0E0,0E0,0E0,0E0,0E0,0E0,0E0,0E0,0E0,0E0,0E0,0E0,0E0,0E0,0E0,0E0],"parents":[2147483647,0,0,1,1,2,2,3,3,4,4,5,5,6,6,9,9,10,10,11,11,12,12,13,13,14,14,16,16,19,19,20,20,21,21,22,22,23,23,24,24,32,32,33,33,34,34,35,35,36,36,37,37,38,38,39,39,40,40],"right_children":[2,4,6,8,10,12,14,-1,-1,16,18,20,22,24,26,-1,28,-1,-1,30,32,34,36,38,40,-1,-1,-1,-1,-1,-1,-1,42,44,46,48,50,52,54,56,58,-1,-1,-1,-1,-1,-1,-1,-1,-1,-1,-1,-1,-1,-1,-1,-1,-1,-1],"split_conditions":[6E-1,2.5E-1,8.666667E-1,2E-1,5E-1,7.2727275E-1,9.411765E-1,-1.4979439E-2,-1.0590237E-2,2.857143E-1,5.714286E-1,6.666667E-1,8E-1,9E-1,1E0,-1.0852317E-2,4E-1,-6.640963E-3,-5.4624593E-3,6.25E-1,7E-1,7.692308E-1,8.333333E-1,8.888889E-1,9.166667E-1,8.3082495E-4,1.6976828E-3,-9.421661E-3,-8.321195E-3,-4.97402E-3,-4.5766393E-3,-3.8612892E-3,7.1428573E-1,7.3333335E-1,7.777778E-1,8.181818E-1,8.5714287E-1,8.75E-1,8.947368E-1,9.0909094E-1,9.3333334E-1,-3.3432778E-3,-3.064872E-3,-2.8837102E-3,-2.4718458E-3,-2.20389E-3,-1.995735E-3,-1.6368369E-3,-1.3071116E-3,-1.0810331E-3,-6.7761977E-4,-5.297453E-4,-3.868744E-4,-1.5469732E-4,-2.9441382E-5,3.0077796E-5,1.4143063E-4,4.092832E-4,6.890725E-4],"split_indices":[4,4,4,4,4,4,4,0,0,4,4,4,4,4,4,0,4,0,0,4,4,4,4,4,4,0,0,0,0,0,0,0,4,4,4,4,4,4,4,4,4,0,0,0,0,0,0,0,0,0,0,0,0,0,0,0,0,0,0],"split_type":[0,0,0,0,0,0,0,0,0,0,0,0,0,0,0,0,0,0,0,0,0,0,0,0,0,0,0,0,0,0,0,0,0,0,0,0,0,0,0,0,0,0,0,0,0,0,0,0,0,0,0,0,0,0,0,0,0,0,0],"sum_hessian":[3.871011E6,4.1044E5,3.460571E6,2.68625E5,1.41815E5,1.89621E5,3.27095E6,2.68605E5,2E1,8.397E3,1.33418E5,9.3114E4,9.6507E4,8.415E3,3.262535E6,3.43E2,8.054E3,1.3304E5,3.78E2,5.628E3,8.7486E4,4.9836E4,4.6671E4,5.507E3,2.908E3,7.3E1,3.262462E6,7.467E3,5.87E2,5.386E3,2.42E2,8.4978E4,2.508E3,4.8889E4,9.47E2,2.7165E4,1.9506E4,3.508E3,1.999E3,1.65E3,1.258E3,1.58E2,2.35E3,1.2E2,4.8769E4,1.07E2,8.4E2,2.6788E4,3.77E2,1.3284E4,6.222E3,1.22E2,3.386E3,1.982E3,1.7E1,1.055E3,5.95E2,9.55E2,3.03E2],"tree_param":{"num_deleted":"0","num_feature":"6","num_nodes":"59","size_leaf_vector":"1"}},{"base_weights":[-3.672545E-7,-1.0938325E-1,1.2972985E-2,-1.3481246E-1,-6.12148E-2,-2.608155E-2,1.52370315E-2,-1.3481649E-2,-1.0717389E-2,-8.465252E-2,-5.9739064E-2,-3.5160534E-2,-1.7321493E-2,-1.033005E-3,1.5278997E-2,-9.756939E-3,-8.4078655E-2,-5.97687E-3,-4.9176533E-3,-4.462145E-2,-3.455141E-2,-2.2179589E-2,-1.2133583E-2,-2.749864E-3,2.2181098E-3,7.488648E-4,1.527917E-3,-8.479036E-3,-7.4904896E-3,-4.4767116E-3,-4.1208602E-3,-3.4752793E-3,-2.7788894E-2,-2.2256332E-2,-1.8198412E-2,-1.4690865E-2,-8.571618E-3,-3.5281756E-3,-1.3829415E-3,9.66118E-4,4.8644887E-3,-3.0227867E-3,-2.7585153E-3,-2.586757E-3,-2.2246323E-3,-1.9855425E-3,-1.7963982E-3,-1.4736458E-3,-1.2023658E-3,-9.768094E-4,-6.1631197E-4,-4.7719936E-4,-3.4819645E-4,-1.3923772E-4,-2.6660495E-5,6.3272826E-5,2.6515796E-4,4.3317265E-4,6.785796E-4],"categories":[],"categories_nodes":[],"categories_segments":[],"categories_sizes":[],"default_left":[0,0,0,0,0,0,0,0,0,0,0,0,0,0,0,0,0,0,0,0,0,0,0,0,0,0,0,0,0,0,0,0,0,0,0,0,0,0,0,0,0,0,0,0,0,0,0,0,0,0,0,0,0,0,0,0,0,0,0],"id":18,"left_children":[1,3,5,7,9,11,13,-1,-1,15,17,19,21,23,25,-1,27,-1,-1,29,31,33,35,37,39,-1,-1,-1,-1,-1,-1,-1,41,43,45,47,49,51,53,55,57,-1,-1,-1,-1,-1,-1,-1,-1,-1,-1,-1,-1,-1,-1,-1,-1,-1,-1],"loss_changes":[5.49321E3,5.0273584E2,3.059887E2,1.46484375E-2,4.9000244E0,1.508049E1,2.2333374E0,0E0,0E0,5.404663E-2,3.878784E-2,5.350723E-1,2.4320545E0,4.6981737E-2,4.272461E-3,0E0,4.61998E-2,0E0,0E0,9.536743E-4,1.1817932E-1,1.4823914E-2,4.250064E-1,5.855035E-3,9.633527E-3,0E0,0E0,0E0,0E0,0E0,0E0,0E0,4.259348E-4,1.1901855E-3,1.1563301E-5,3.127098E-3,5.6153417E-2,1.8507615E-4,2.0695617E-5,1.1086676E-3,9.2664734E-4,0E0,0E0,0E0,0E0,0E0,0E0,0E0,0E0,0E0,0E0,0E0,0E0,0E0,0E0,0E0,0E0,0E0,0E0],"parents":[2147483647,0,0,1,1,2,2,3,3,4,4,5,5,6,6,9,9,10,10,11,11,12,12,13,13,14,14,16,16,19,19,20,20,21,21,22,22,23,23,24,24,32,32,33,33,34,34,35,35,36,36,37,37,38,38,39,39,40,40],"right_children":[2,4,6,8,10,12,14,-1,-1,16,18,20,22,24,26,-1,28,-1,-1,30,32,34,36,38,40,-1,-1,-1,-1,-1,-1,-1,42,44,46,48,50,52,54,56,58,-1,-1,-1,-1,-1,-1,-1,-1,-1,-1,-1,-1,-1,-1,-1,-1,-1,-1],"split_conditions":[6E-1,2.5E-1,8.666667E-1,1.6666667E-1,5E-1,7.2727275E-1,9.411765E-1,-1.3481649E-2,-1.0717389E-2,3.3333334E-1,5.714286E-1,6.666667E-1,8E-1,9E-1,1E0,-9.756939E-3,4E-1,-5.97687E-3,-4.9176533E-3,6.25E-1,6.923077E-1,7.692308E-1,8.333333E-1,8.888889E-1,9.230769E-1,7.488648E-4,1.527917E-3,-8.479036E-3,-7.4904896E-3,-4.4767116E-3,-4.1208602E-3,-3.4752793E-3,7.1428573E-1,7.5E-1,7.777778E-1,8.125E-1,8.4210527E-1,8.75E-1,8.947368E-1,9.166667E-1,9.375E-1,-3.0227867E-3,-2.7585153E-3,-2.586757E-3,-2.2246323E-3,-1.9855425E-3,-1.7963982E-3,-1.4736458E-3,-1.2023658E-3,-9.768094E-4,-6.1631197E-4,-4.7719936E-4,-3.4819645E-4,-1.3923772E-4,-2.6660495E-5,6.3272826E-5,2.6515796E-4,4.3317265E-4,6.785796E-4],"split_indices":[4,4,4,4,4,4,4,0,0,4,4,4,4,4,4,0,4,0,0,4,4,4,4,4,4,0,0,0,0,0,0,0,4,4,4,4,4,4,4,4,4,0,0,0,0,0,0,0,0,0,0,0,0,0,0,0,0,0,0],"split_type":[0,0,0,0,0,0,0,0,0,0,0,0,0,0,0,0,0,0,0,0,0,0,0,0,0,0,0,0,0,0,0,0,0,0,0,0,0,0,0,0,0,0,0,0,0,0,0,0,0,0,0,0,0,0,0,0,0,0,0],"sum_hessian":[3.871011E6,4.1044E5,3.460571E6,2.68625E5,1.41815E5,1.89621E5,3.27095E6,2.68582E5,4.3E1,8.397E3,1.33418E5,9.3114E4,9.6507E4,8.415E3,3.262535E6,3.5E2,8.047E3,1.3304E5,3.78E2,5.628E3,8.7486E4,4.9836E4,4.6671E4,5.507E3,2.908E3,7.3E1,3.262462E6,7.46E3,5.87E2,5.386E3,2.42E2,8.4952E4,2.534E3,4.8889E4,9.47E2,2.7165E4,1.9506E4,3.508E3,1.999E3,1.975E3,9.33E2,1.84E2,2.35E3,1.28E2,4.8761E4,1.07E2,8.4E2,2.6704E4,4.61E2,1.303E4,6.476E3,1.22E2,3.386E3,1.982E3,1.7E1,1.65E3,3.25E2,7.33E2,2E2],"tree_param":{"num_deleted":"0","num_feature":"6","num_nodes":"59","size_leaf_vector":"1"}},{"base_weights":[-3.4381054E-7,-9.844508E-2,1.167569E-2,-1.212891E-1,-5.501325E-2,-2.3473544E-2,1.3713341E-2,-1.21333655E-2,-8.807911E-3,-7.567765E-2,-5.3765252E-2,-3.1644646E-2,-1.55894775E-2,-9.0993074E-4,1.3751162E-2,-7.6317126E-3,-6.7427154E-3,-5.3791893E-3,-4.427183E-3,-4.0178075E-2,-3.1097414E-2,-1.996181E-2,-1.0920308E-2,-2.4750496E-3,2.0305826E-3,6.622892E-4,1.3751256E-3,-4.029122E-3,-3.7251536E-3,-3.1278585E-3,-2.5012298E-2,-2.0030806E-2,-1.6382536E-2,-1.3221858E-2,-7.714544E-3,-3.182524E-3,-1.2547183E-3,8.696458E-4,4.4255466E-3,-2.7221418E-3,-2.4827824E-3,-2.3411799E-3,-2.0022008E-3,-1.788826E-3,-1.6169694E-3,-1.3262848E-3,-1.0823916E-3,-8.7913685E-4,-5.546903E-4,-4.2986783E-4,-3.1407675E-4,-1.2631851E-4,-2.4144187E-5,2.0746593E-5,1.6279436E-4,3.8991697E-4,6.130614E-4],"categories":[],"categories_nodes":[],"categories_segments":[],"categories_sizes":[],"default_left":[0,0,0,0,0,0,0,0,0,0,0,0,0,0,0,0,0,0,0,0,0,0,0,0,0,0,0,0,0,0,0,0,0,0,0,0,0,0,0,0,0,0,0,0,0,0,0,0,0,0,0,0,0,0,0,0,0],"id":19,"left_children":[1,3,5,7,9,11,13,-1,-1,15,17,19,21,23,25,-1,-1,-1,-1,27,29,31,33,35,37,-1,-1,-1,-1,-1,39,41,43,45,47,49,51,53,55,-1,-1,-1,-1,-1,-1,-1,-1,-1,-1,-1,-1,-1,-1,-1,-1,-1,-1],"loss_changes":[4.4495127E3,4.0721558E2,2.4785297E2,3.8720703E-1,3.6443787E0,1.2215233E1,1.809082E0,0E0,0E0,3.73497E-2,3.137207E-2,4.335785E-1,1.9700089E0,3.8843438E-2,2.0751953E-3,0E0,0E0,0E0,0E0,3.5572052E-4,9.5695496E-2,1.1980057E-2,3.4425402E-1,4.7513545E-3,8.148289E-3,0E0,0E0,0E0,0E0,0E0,3.5727024E-4,9.860992E-4,1.4573336E-5,2.527237E-3,4.5483828E-2,1.4897063E-4,1.7050654E-5,9.918703E-4,8.3501264E-4,0E0,0E0,0E0,0E0,0E0,0E0,0E0,0E0,0E0,0E0,0E0,0E0,0E0,0E0,0E0,0E0,0E0,0E0],"parents":[2147483647,0,0,1,1,2,2,3,3,4,4,5,5,6,6,9,9,10,10,11,11,12,12,13,13,14,14,19,19,20,20,21,21,22,22,23,23,24,24,30,30,31,31,32,32,33,33,34,34,35,35,36,36,37,37,38,38],"right_children":[2,4,6,8,10,12,14,-1,-1,16,18,20,22,24,26,-1,-1,-1,-1,28,30,32,34,36,38,-1,-1,-1,-1,-1,40,42,44,46,48,50,52,54,56,-1,-1,-1,-1,-1,-1,-1,-1,-1,-1,-1,-1,-1,-1,-1,-1,-1,-1],"split_conditions":[6E-1,2.857143E-1,8.666667E-1,2E-1,5E-1,7.2727275E-1,9.4736844E-1,-1.21333655E-2,-8.807911E-3,4E-1,5.714286E-1,6.363636E-1,8E-1,9E-1,9.5E-1,-7.6317126E-3,-6.7427154E-3,-5.3791893E-3,-4.427183E-3,6.25E-1,6.923077E-1,7.692308E-1,8.333333E-1,8.8235295E-1,9.230769E-1,6.622892E-4,1.3751256E-3,-4.029122E-3,-3.7251536E-3,-3.1278585E-3,7.1428573E-1,7.3333335E-1,7.777778E-1,8.125E-1,8.4210527E-1,8.75E-1,8.947368E-1,9.0909094E-1,9.375E-1,-2.7221418E-3,-2.4827824E-3,-2.3411799E-3,-2.0022008E-3,-1.788826E-3,-1.6169694E-3,-1.3262848E-3,-1.0823916E-3,-8.7913685E-4,-5.546903E-4,-4.2986783E-4,-3.1407675E-4,-1.2631851E-4,-2.4144187E-5,2.0746593E-5,1.6279436E-4,3.8991697E-4,6.130614E-4],"split_indices":[4,4,4,4,4,4,4,0,0,4,4,4,4,4,4,0,0,0,0,4,4,4,4,4,4,0,0,0,0,0,4,4,4,4,4,4,4,4,4,0,0,0,0,0,0,0,0,0,0,0,0,0,0,0,0,0,0],"split_type":[0,0,0,0,0,0,0,0,0,0,0,0,0,0,0,0,0,0,0,0,0,0,0,0,0,0,0,0,0,0,0,0,0,0,0,0,0,0,0,0,0,0,0,0,0,0,0,0,0,0,0,0,0,0,0,0,0],"sum_hessian":[3.871011E6,4.1044E5,3.460571E6,2.68968E5,1.41472E5,1.89621E5,3.27095E6,2.68605E5,3.63E2,8.054E3,1.33418E5,9.3114E4,9.6507E4,8.438E3,3.262512E6,7.467E3,5.87E2,1.3304E5,3.78E2,5.607E3,8.7507E4,4.9836E4,4.6671E4,5.507E3,2.931E3,4.4E1,3.262468E6,5.386E3,2.21E2,8.4973E4,2.534E3,4.8889E4,9.47E2,2.7165E4,1.9506E4,3.485E3,2.022E3,1.975E3,9.56E2,1.84E2,2.35E3,1.2E2,4.8769E4,1.07E2,8.4E2,2.6704E4,4.61E2,1.303E4,6.476E3,1.22E2,3.363E3,2.005E3,1.7E1,1.055E3,9.2E2,7.33E2,2.23E2],"tree_param":{"num_deleted":"0","num_feature":"6","num_nodes":"57","size_leaf_vector":"1"}},{"base_weights":[-3.384261E-7,-8.860067E-2,1.05081005E-2,-1.0916026E-1,-4.951209E-2,-2.1126341E-2,1.2341995E-2,-1.0920033E-2,-7.92954E-3,-6.8111666E-2,-4.838879E-2,-2.8471056E-2,-1.4021664E-2,-8.1891345E-4,1.2376034E-2,-6.8686428E-3,-6.0695903E-3,-4.841273E-3,-3.9856317E-3,-3.6147732E-2,-2.7977483E-2,-1.796974E-2,-9.840957E-3,-2.2277252E-3,1.8279329E-3,6.217045E-4,1.2376126E-3,-3.6262874E-3,-3.344645E-3,-2.814969E-3,-2.2456752E-2,-1.8019868E-3,-1.4902974E-3,-1.1910344E-2,-6.943185E-3,-2.8588169E-3,-1.119361E-3,4.9754785E-4,3.5398188E-3,-2.4513986E-3,-2.2293641E-3,-1.1943887E-3,-9.4887236E-4,-7.886688E-4,-4.9278565E-4,-3.8723045E-4,-2.821168E-4,-1.1269725E-4,-2.1864309E-5,1.8674316E-5,1.04740066E-4,2.6417768E-4,4.5919433E-4],"categories":[],"categories_nodes":[],"categories_segments":[],"categories_sizes":[],"default_left":[0,0,0,0,0,0,0,0,0,0,0,0,0,0,0,0,0,0,0,0,0,0,0,0,0,0,0,0,0,0,0,0,0,0,0,0,0,0,0,0,0,0,0,0,0,0,0,0,0,0,0,0,0],"id":20,"left_children":[1,3,5,7,9,11,13,-1,-1,15,17,19,21,23,25,-1,-1,-1,-1,27,29,31,33,35,37,-1,-1,-1,-1,-1,39,-1,-1,41,43,45,47,49,51,-1,-1,-1,-1,-1,-1,-1,-1,-1,-1,-1,-1,-1,-1],"loss_changes":[3.6041116E3,3.2984326E2,2.0076257E2,3.1347656E-1,2.9524841E0,9.894417E0,1.465332E0,0E0,0E0,3.0162811E-2,2.5299072E-2,3.5225677E-1,1.5907803E0,3.147233E-2,1.7700195E-3,0E0,0E0,0E0,0E0,5.3834915E-4,8.264923E-2,7.352829E-3,2.8066063E-1,3.8495306E-3,6.6757733E-3,0E0,0E0,0E0,0E0,0E0,3.4439564E-4,0E0,0E0,2.105236E-3,3.7053168E-2,1.2296811E-4,1.3465295E-5,2.819551E-4,1.1991691E-3,0E0,0E0,0E0,0E0,0E0,0E0,0E0,0E0,0E0,0E0,0E0,0E0,0E0,0E0],"parents":[2147483647,0,0,1,1,2,2,3,3,4,4,5,5,6,6,9,9,10,10,11,11,12,12,13,13,14,14,19,19,20,20,21,21,22,22,23,23,24,24,30,30,33,33,34,34,35,35,36,36,37,37,38,38],"right_children":[2,4,6,8,10,12,14,-1,-1,16,18,20,22,24,26,-1,-1,-1,-1,28,30,32,34,36,38,-1,-1,-1,-1,-1,40,-1,-1,42,44,46,48,50,52,-1,-1,-1,-1,-1,-1,-1,-1,-1,-1,-1,-1,-1,-1],"split_conditions":[6E-1,2.857143E-1,8.666667E-1,2E-1,5E-1,7.3333335E-1,9.4736844E-1,-1.0920033E-2,-7.92954E-3,4E-1,5.714286E-1,6.666667E-1,7.8571427E-1,9E-1,1E0,-6.8686428E-3,-6.0695903E-3,-4.841273E-3,-3.9856317E-3,6.25E-1,6.923077E-1,7.692308E-1,8.333333E-1,8.888889E-1,9.166667E-1,6.217045E-4,1.2376126E-3,-3.6262874E-3,-3.344645E-3,-2.814969E-3,7.1428573E-1,-1.8019868E-3,-1.4902974E-3,8.181818E-1,8.5714287E-1,8.75E-1,8.947368E-1,9.0909094E-1,9.285714E-1,-2.4513986E-3,-2.2293641E-3,-1.1943887E-3,-9.4887236E-4,-7.886688E-4,-4.9278565E-4,-3.8723045E-4,-2.821168E-4,-1.1269725E-4,-2.1864309E-5,1.8674316E-5,1.04740066E-4,2.6417768E-4,4.5919433E-4],"split_indices":[4,4,4,4,4,4,4,0,0,4,4,4,4,4,4,0,0,0,0,4,4,4,4,4,4,0,0,0,0,0,4,0,0,4,4,4,4,4,4,0,0,0,0,0,0,0,0,0,0,0,0,0,0],"split_type":[0,0,0,0,0,0,0,0,0,0,0,0,0,0,0,0,0,0,0,0,0,0,0,0,0,0,0,0,0,0,0,0,0,0,0,0,0,0,0,0,0,0,0,0,0,0,0,0,0,0,0,0,0],"sum_hessian":[3.871011E6,4.1044E5,3.460571E6,2.68968E5,1.41472E5,1.89621E5,3.27095E6,2.68605E5,3.63E2,8.054E3,1.33418E5,9.3234E4,9.6387E4,8.438E3,3.262512E6,7.467E3,5.87E2,1.3304E5,3.78E2,5.628E3,8.7606E4,4.9571E4,4.6816E4,5.507E3,2.931E3,5E1,3.262462E6,5.386E3,2.42E2,8.4952E4,2.654E3,4.8769E4,8.02E2,2.731E4,1.9506E4,3.508E3,1.999E3,1.65E3,1.281E3,1.84E2,2.47E3,2.6933E4,3.77E2,1.3284E4,6.222E3,1.22E2,3.386E3,1.982E3,1.7E1,1.055E3,5.95E2,6.93E2,5.88E2],"tree_param":{"num_deleted":"0","num_feature":"6","num_nodes":"53","size_leaf_vector":"1"}},{"base_weights":[-3.359896E-7,-7.974071E-2,9.457268E-3,-9.82443E-2,-4.456104E-2,-1.9013826E-2,1.1107777E-2,-9.828158E-3,-7.212374E-3,-6.1302114E-2,-4.3549985E-2,-2.5632614E-2,-1.2627543E-2,-7.533291E-4,1.113837E-2,-6.181872E-3,-5.4636626E-3,-4.3571503E-3,-3.5881188E-3,-3.2534197E-2,-2.5188265E-2,-1.6169628E-2,-8.844987E-3,-2.0050975E-3,1.6170711E-3,5.4913055E-4,1.1138496E-3,-3.2637257E-3,-3.011556E-3,-2.5334775E-3,-2.0268502E-2,-1.622169E-2,-1.3117152E-3,-1.0708816E-2,-6.2489104E-3,-2.5787966E-3,-1.0155177E-3,4.4788467E-4,3.1490088E-3,-2.2075817E-3,-2.0117664E-3,-1.8813255E-3,-1.6214518E-3,-1.0742262E-3,-8.7523967E-4,-7.1236986E-4,-4.4879696E-4,-3.4882015E-4,-2.544779E-4,-1.0223473E-4,-1.9798345E-5,1.6810458E-5,9.42851E-5,2.3779894E-4,4.0888294E-4],"categories":[],"categories_nodes":[],"categories_segments":[],"categories_sizes":[],"default_left":[0,0,0,0,0,0,0,0,0,0,0,0,0,0,0,0,0,0,0,0,0,0,0,0,0,0,0,0,0,0,0,0,0,0,0,0,0,0,0,0,0,0,0,0,0,0,0,0,0,0,0,0,0,0,0],"id":21,"left_children":[1,3,5,7,9,11,13,-1,-1,15,17,19,21,23,25,-1,-1,-1,-1,27,29,31,33,35,37,-1,-1,-1,-1,-1,39,41,-1,43,45,47,49,51,53,-1,-1,-1,-1,-1,-1,-1,-1,-1,-1,-1,-1,-1,-1,-1,-1],"loss_changes":[2.9193354E3,2.6717212E2,1.6261874E2,2.5512695E-1,2.3919373E0,8.014893E0,1.1869507E0,0E0,0E0,2.4356842E-2,2.0477295E-2,2.8474045E-1,1.2928839E0,2.497513E-2,2.2277832E-3,0E0,0E0,0E0,0E0,4.2009354E-4,6.254578E-2,7.707596E-3,2.2576213E-1,3.1243898E-3,5.20896E-3,0E0,0E0,0E0,0E0,0E0,2.4688244E-4,6.055832E-4,0E0,1.683712E-3,3.0017555E-2,9.896606E-5,1.109275E-5,2.2847479E-4,9.0257265E-4,0E0,0E0,0E0,0E0,0E0,0E0,0E0,0E0,0E0,0E0,0E0,0E0,0E0,0E0,0E0,0E0],"parents":[2147483647,0,0,1,1,2,2,3,3,4,4,5,5,6,6,9,9,10,10,11,11,12,12,13,13,14,14,19,19,20,20,21,21,22,22,23,23,24,24,30,30,31,31,33,33,34,34,35,35,36,36,37,37,38,38],"right_children":[2,4,6,8,10,12,14,-1,-1,16,18,20,22,24,26,-1,-1,-1,-1,28,30,32,34,36,38,-1,-1,-1,-1,-1,40,42,-1,44,46,48,50,52,54,-1,-1,-1,-1,-1,-1,-1,-1,-1,-1,-1,-1,-1,-1,-1,-1],"split_conditions":[6E-1,2.857143E-1,8.666667E-1,1.6666667E-1,5E-1,7.2727275E-1,9.411765E-1,-9.828158E-3,-7.212374E-3,4E-1,5.714286E-1,6.666667E-1,8E-1,9E-1,1E0,-6.181872E-3,-5.4636626E-3,-4.3571503E-3,-3.5881188E-3,6.25E-1,6.923077E-1,7.777778E-1,8.333333E-1,8.8235295E-1,9.166667E-1,5.4913055E-4,1.1138496E-3,-3.2637257E-3,-3.011556E-3,-2.5334775E-3,7.1428573E-1,7.5E-1,-1.3117152E-3,8.125E-1,8.4210527E-1,8.75E-1,8.947368E-1,9.0909094E-1,9.285714E-1,-2.2075817E-3,-2.0117664E-3,-1.8813255E-3,-1.6214518E-3,-1.0742262E-3,-8.7523967E-4,-7.1236986E-4,-4.4879696E-4,-3.4882015E-4,-2.544779E-4,-1.0223473E-4,-1.9798345E-5,1.6810458E-5,9.42851E-5,2.3779894E-4,4.0888294E-4],"split_indices":[4,4,4,4,4,4,4,0,0,4,4,4,4,4,4,0,0,0,0,4,4,4,4,4,4,0,0,0,0,0,4,4,0,4,4,4,4,4,4,0,0,0,0,0,0,0,0,0,0,0,0,0,0,0,0],"split_type":[0,0,0,0,0,0,0,0,0,0,0,0,0,0,0,0,0,0,0,0,0,0,0,0,0,0,0,0,0,0,0,0,0,0,0,0,0,0,0,0,0,0,0,0,0,0,0,0,0,0,0,0,0,0,0],"sum_hessian":[3.871011E6,4.1044E5,3.460571E6,2.68968E5,1.41472E5,1.89621E5,3.27095E6,2.68582E5,3.86E2,8.054E3,1.33418E5,9.3114E4,9.6507E4,8.415E3,3.262535E6,7.467E3,5.87E2,1.3304E5,3.78E2,5.628E3,8.7486E4,4.9836E4,4.6671E4,5.507E3,2.908E3,7.3E1,3.262462E6,5.386E3,2.42E2,8.4952E4,2.534E3,4.8996E4,8.4E2,2.7165E4,1.9506E4,3.485E3,2.022E3,1.65E3,1.258E3,1.84E2,2.35E3,1.28E2,4.8868E4,2.6704E4,4.61E2,1.303E4,6.476E3,1.22E2,3.363E3,2.005E3,1.7E1,1.055E3,5.95E2,6.93E2,5.65E2],"tree_param":{"num_deleted":"0","num_feature":"6","num_nodes":"55","size_leaf_vector":"1"}},{"base_weights":[-3.0141274E-7,-7.176673E-2,8.511553E-3,-8.845076E-2,-4.0163536E-2,-1.7112546E-2,9.997018E-3,-8.845346E-3,-6.9993073E-3,-5.554532E-2,-3.9195035E-2,-2.3069477E-2,-1.1364872E-2,-8.0795056E-4,1.0024223E-2,-6.402383E-3,-5.516864E-2,-3.9214375E-3,-3.2302514E-3,-2.9281903E-2,-2.2669498E-2,-1.4552787E-2,-7.960528E-3,-1.8097399E-3,1.2102566E-3,4.7382177E-4,1.0024664E-3,-5.5633034E-3,-4.9182256E-3,-2.9374154E-3,-2.711637E-3,-2.2800618E-3,-1.8219491E-2,-1.4602782E-2,-1.1959126E-3,-9.637979E-3,-5.6240535E-3,-2.3211152E-3,-9.201763E-4,3.9711755E-4,2.4898653E-3,-1.9772022E-3,-1.8106742E-3,-1.6946538E-3,-1.4596282E-3,-9.6653955E-4,-7.669469E-4,-6.3907576E-4,-3.9863735E-4,-3.1422309E-4,-2.2904023E-4,-1.5452976E-4,-9.121466E-5,1.4590695E-5,8.487146E-5,1.7244804E-4,2.8264127E-4],"categories":[],"categories_nodes":[],"categories_segments":[],"categories_sizes":[],"default_left":[0,0,0,0,0,0,0,0,0,0,0,0,0,0,0,0,0,0,0,0,0,0,0,0,0,0,0,0,0,0,0,0,0,0,0,0,0,0,0,0,0,0,0,0,0,0,0,0,0,0,0,0,0,0,0,0,0],"id":22,"left_children":[1,3,5,7,9,11,13,-1,-1,15,17,19,21,23,25,-1,27,-1,-1,29,31,33,35,37,39,-1,-1,-1,-1,-1,-1,-1,41,43,-1,45,47,49,51,53,55,-1,-1,-1,-1,-1,-1,-1,-1,-1,-1,-1,-1,-1,-1,-1,-1],"loss_changes":[2.3646675E3,2.1640894E2,1.3172237E2,7.3242188E-3,2.1105042E0,6.492111E0,9.6151733E-1,0E0,0E0,2.3288727E-2,1.6494751E-2,2.3071289E-1,1.0472622E0,1.6613448E-2,7.5683594E-3,0E0,1.9636154E-2,0E0,0E0,3.2758713E-4,5.0632477E-2,6.287575E-3,1.8286848E-1,2.4957266E-3,2.835414E-3,0E0,0E0,0E0,0E0,0E0,0E0,0E0,8.112192E-5,4.968643E-4,0E0,1.3921261E-3,2.4467766E-2,8.0714E-5,8.659903E-6,1.8910406E-4,2.6791217E-4,0E0,0E0,0E0,0E0,0E0,0E0,0E0,0E0,0E0,0E0,0E0,0E0,0E0,0E0,0E0,0E0],"parents":[2147483647,0,0,1,1,2,2,3,3,4,4,5,5,6,6,9,9,10,10,11,11,12,12,13,13,14,14,16,16,19,19,20,20,21,21,22,22,23,23,24,24,32,32,33,33,35,35,36,36,37,37,38,38,39,39,40,40],"right_children":[2,4,6,8,10,12,14,-1,-1,16,18,20,22,24,26,-1,28,-1,-1,30,32,34,36,38,40,-1,-1,-1,-1,-1,-1,-1,42,44,-1,46,48,50,52,54,56,-1,-1,-1,-1,-1,-1,-1,-1,-1,-1,-1,-1,-1,-1,-1,-1],"split_conditions":[6E-1,2.5E-1,8.666667E-1,1.6666667E-1,5E-1,7.2727275E-1,9.375E-1,-8.845346E-3,-6.9993073E-3,3.3333334E-1,5.714286E-1,6.666667E-1,8E-1,8.947368E-1,1E0,-6.402383E-3,4E-1,-3.9214375E-3,-3.2302514E-3,6.25E-1,7E-1,7.692308E-1,8.333333E-1,8.8235295E-1,9.166667E-1,4.7382177E-4,1.0024664E-3,-5.5633034E-3,-4.9182256E-3,-2.9374154E-3,-2.711637E-3,-2.2800618E-3,7.1428573E-1,7.5E-1,-1.1959126E-3,8.181818E-1,8.5714287E-1,8.75E-1,8.888889E-1,9.0909094E-1,9.230769E-1,-1.9772022E-3,-1.8106742E-3,-1.6946538E-3,-1.4596282E-3,-9.6653955E-4,-7.669469E-4,-6.3907576E-4,-3.9863735E-4,-3.1422309E-4,-2.2904023E-4,-1.5452976E-4,-9.121466E-5,1.4590695E-5,8.487146E-5,1.7244804E-4,2.8264127E-4],"split_indices":[4,4,4,4,4,4,4,0,0,4,4,4,4,4,4,0,4,0,0,4,4,4,4,4,4,0,0,0,0,0,0,0,4,4,0,4,4,4,4,4,4,0,0,0,0,0,0,0,0,0,0,0,0,0,0,0,0],"split_type":[0,0,0,0,0,0,0,0,0,0,0,0,0,0,0,0,0,0,0,0,0,0,0,0,0,0,0,0,0,0,0,0,0,0,0,0,0,0,0,0,0,0,0,0,0,0,0,0,0,0,0,0,0,0,0,0,0],"sum_hessian":[3.871011E6,4.1044E5,3.460571E6,2.68625E5,1.41815E5,1.89621E5,3.27095E6,2.68582E5,4.3E1,8.397E3,1.33418E5,9.3114E4,9.6507E4,8.215E3,3.262735E6,3.5E2,8.047E3,1.3304E5,3.78E2,5.628E3,8.7486E4,4.9836E4,4.6671E4,5.49E3,2.725E3,2.73E2,3.262462E6,7.46E3,5.87E2,5.386E3,2.42E2,8.4978E4,2.508E3,4.8889E4,9.47E2,2.7165E4,1.9506E4,3.485E3,2.005E3,1.667E3,1.058E3,1.58E2,2.35E3,1.28E2,4.8761E4,2.6788E4,3.77E2,1.3284E4,6.222E3,1.22E2,3.363E3,2.3E1,1.982E3,1.072E3,5.95E2,3.25E2,7.33E2],"tree_param":{"num_deleted":"0","num_feature":"6","num_nodes":"57","size_leaf_vector":"1"}},{"base_weights":[-3.0657267E-7,-6.459015E-2,7.660369E-3,-7.9578035E-2,-3.6094654E-2,-1.5401399E-2,8.997292E-3,-7.960728E-3,-5.7777516E-3,-4.9657036E-2,-3.5275575E-2,-2.0762658E-2,-1.022847E-2,-7.27182E-4,9.021777E-3,-5.007435E-3,-4.42724E-3,-3.5292958E-3,-2.9080766E-3,-2.6365925E-2,-2.0403333E-2,-1.3097625E-2,-7.1645277E-3,-1.6289037E-3,1.0894287E-3,4.2661495E-4,9.0221735E-4,-2.6437263E-3,-2.4516098E-3,-2.052198E-3,-1.6418157E-2,-1.3140013E-2,-1.0612507E-3,-8.674236E-3,-5.061698E-3,-2.0850021E-3,-8.2099745E-5,3.5745546E-4,2.2413095E-3,-1.7871093E-3,-1.6296844E-3,-1.5264995E-3,-1.3134135E-3,-8.698883E-4,-6.904564E-4,-5.751724E-4,-3.5878018E-4,-2.8305498E-4,-2.0573116E-4,1.3131742E-5,7.6398006E-5,1.5525731E-4,2.5441527E-4],"categories":[],"categories_nodes":[],"categories_segments":[],"categories_sizes":[],"default_left":[0,0,0,0,0,0,0,0,0,0,0,0,0,0,0,0,0,0,0,0,0,0,0,0,0,0,0,0,0,0,0,0,0,0,0,0,0,0,0,0,0,0,0,0,0,0,0,0,0,0,0,0,0],"id":23,"left_children":[1,3,5,7,9,11,13,-1,-1,15,17,19,21,23,25,-1,-1,-1,-1,27,29,31,33,35,37,-1,-1,-1,-1,-1,39,41,-1,43,45,47,-1,49,51,-1,-1,-1,-1,-1,-1,-1,-1,-1,-1,-1,-1,-1,-1],"loss_changes":[1.9153842E3,1.7529126E2,1.0669585E2,1.6687012E-1,1.5698242E0,5.258648E0,7.788086E-1,0E0,0E0,1.5882492E-2,1.3336182E-2,1.8694305E-1,8.4830093E-1,1.3460217E-2,6.1035156E-3,0E0,0E0,0E0,0E0,9.179115E-5,4.1038513E-2,5.109787E-3,1.4812374E-1,2.0216368E-3,2.2976145E-3,0E0,0E0,0E0,0E0,0E0,1.5556812E-4,4.119873E-4,0E0,1.1246204E-3,1.9818515E-2,6.6618435E-5,0E0,1.5324005E-4,2.169353E-4,0E0,0E0,0E0,0E0,0E0,0E0,0E0,0E0,0E0,0E0,0E0,0E0,0E0,0E0],"parents":[2147483647,0,0,1,1,2,2,3,3,4,4,5,5,6,6,9,9,10,10,11,11,12,12,13,13,14,14,19,19,20,20,21,21,22,22,23,23,24,24,30,30,31,31,33,33,34,34,35,35,37,37,38,38],"right_children":[2,4,6,8,10,12,14,-1,-1,16,18,20,22,24,26,-1,-1,-1,-1,28,30,32,34,36,38,-1,-1,-1,-1,-1,40,42,-1,44,46,48,-1,50,52,-1,-1,-1,-1,-1,-1,-1,-1,-1,-1,-1,-1,-1,-1],"split_conditions":[6E-1,2.857143E-1,8.666667E-1,2E-1,5E-1,7.2727275E-1,9.375E-1,-7.960728E-3,-5.7777516E-3,4E-1,5.714286E-1,6.363636E-1,8E-1,8.947368E-1,1E0,-5.007435E-3,-4.42724E-3,-3.5292958E-3,-2.9080766E-3,6.25E-1,6.923077E-1,7.777778E-1,8.333333E-1,8.888889E-1,9.166667E-1,4.2661495E-4,9.0221735E-4,-2.6437263E-3,-2.4516098E-3,-2.052198E-3,7.1428573E-1,7.5E-1,-1.0612507E-3,8.181818E-1,8.5714287E-1,8.75E-1,-8.2099745E-5,9.0909094E-1,9.230769E-1,-1.7871093E-3,-1.6296844E-3,-1.5264995E-3,-1.3134135E-3,-8.698883E-4,-6.904564E-4,-5.751724E-4,-3.5878018E-4,-2.8305498E-4,-2.0573116E-4,1.3131742E-5,7.6398006E-5,1.5525731E-4,2.5441527E-4],"split_indices":[4,4,4,4,4,4,4,0,0,4,4,4,4,4,4,0,0,0,0,4,4,4,4,4,4,0,0,0,0,0,4,4,0,4,4,4,0,4,4,0,0,0,0,0,0,0,0,0,0,0,0,0,0],"split_type":[0,0,0,0,0,0,0,0,0,0,0,0,0,0,0,0,0,0,0,0,0,0,0,0,0,0,0,0,0,0,0,0,0,0,0,0,0,0,0,0,0,0,0,0,0,0,0,0,0,0,0,0,0],"sum_hessian":[3.871011E6,4.1044E5,3.460571E6,2.68968E5,1.41472E5,1.89621E5,3.27095E6,2.68605E5,3.63E2,8.054E3,1.33418E5,9.3114E4,9.6507E4,8.215E3,3.262735E6,7.467E3,5.87E2,1.3304E5,3.78E2,5.607E3,8.7507E4,4.9836E4,4.6671E4,5.49E3,2.725E3,2.73E2,3.262462E6,5.386E3,2.21E2,8.4973E4,2.534E3,4.8996E4,8.4E2,2.7165E4,1.9506E4,3.508E3,1.982E3,1.667E3,1.058E3,1.84E2,2.35E3,1.28E2,4.8868E4,2.6788E4,3.77E2,1.3284E4,6.222E3,1.22E2,3.386E3,1.072E3,5.95E2,3.25E2,7.33E2],"tree_param":{"num_deleted":"0","num_feature":"6","num_nodes":"53","size_leaf_vector":"1"}},{"base_weights":[-3.0298835E-7,-5.81312E-2,6.8943095E-3,-7.1620286E-2,-3.2485288E-2,-1.3861362E-2,8.097545E-3,-7.164744E-3,-5.258529E-3,-4.469249E-2,-3.174805E-2,-1.8686516E-2,-9.205706E-3,-5.49568E-4,8.119849E-3,-4.5067575E-3,-3.9852676E-3,-3.1763674E-3,-2.6180388E-3,-2.372121E-2,-1.8362366E-2,-1.1787965E-2,-6.448138E-3,-1.4622575E-3,1.1787383E-3,4.061368E-4,8.119938E-4,-2.3794048E-3,-2.2008882E-3,-1.8469116E-3,-1.4777664E-2,-1.1828679E-2,-9.675881E-3,-7.8068874E-3,-4.555574E-3,-1.8807376E-3,-7.4041646E-4,5.040927E-4,2.604778E-3,-1.6093627E-3,-1.4667826E-3,-1.3818741E-3,-1.1823499E-3,-1.0546999E-3,-9.5525075E-4,-7.8316976E-4,-6.355904E-4,-5.1971857E-4,-3.2640202E-4,-2.549789E-4,-1.8557157E-4,-7.448475E-5,-2.0547046E-5,1.2362208E-5,9.397853E-5,2.2901063E-4,3.740918E-4],"categories":[],"categories_nodes":[],"categories_segments":[],"categories_sizes":[],"default_left":[0,0,0,0,0,0,0,0,0,0,0,0,0,0,0,0,0,0,0,0,0,0,0,0,0,0,0,0,0,0,0,0,0,0,0,0,0,0,0,0,0,0,0,0,0,0,0,0,0,0,0,0,0,0,0,0,0],"id":24,"left_children":[1,3,5,7,9,11,13,-1,-1,15,17,19,21,23,25,-1,-1,-1,-1,27,29,31,33,35,37,-1,-1,-1,-1,-1,39,41,43,45,47,49,51,53,55,-1,-1,-1,-1,-1,-1,-1,-1,-1,-1,-1,-1,-1,-1,-1,-1,-1,-1],"loss_changes":[1.5514633E3,1.419856E2,8.642432E1,1.352539E-1,1.2717896E0,4.2595444E0,6.308594E-1,0E0,0E0,1.2825012E-2,1.0757446E-2,1.515274E-1,6.871338E-1,1.32771805E-2,1.1444092E-3,0E0,0E0,0E0,0E0,1.7809868E-4,3.320694E-2,4.1708946E-3,1.1998236E-1,1.6624434E-3,2.7973526E-3,0E0,0E0,0E0,0E0,0E0,1.3029575E-4,3.4093857E-4,1.1324883E-6,9.281635E-4,1.614803E-2,5.3628348E-5,4.642294E-6,3.274419E-4,3.2534823E-4,0E0,0E0,0E0,0E0,0E0,0E0,0E0,0E0,0E0,0E0,0E0,0E0,0E0,0E0,0E0,0E0,0E0,0E0],"parents":[2147483647,0,0,1,1,2,2,3,3,4,4,5,5,6,6,9,9,10,10,11,11,12,12,13,13,14,14,19,19,20,20,21,21,22,22,23,23,24,24,30,30,31,31,32,32,33,33,34,34,35,35,36,36,37,37,38,38],"right_children":[2,4,6,8,10,12,14,-1,-1,16,18,20,22,24,26,-1,-1,-1,-1,28,30,32,34,36,38,-1,-1,-1,-1,-1,40,42,44,46,48,50,52,54,56,-1,-1,-1,-1,-1,-1,-1,-1,-1,-1,-1,-1,-1,-1,-1,-1,-1,-1],"split_conditions":[6E-1,2.857143E-1,8.666667E-1,1.6666667E-1,5E-1,7.2727275E-1,9.411765E-1,-7.164744E-3,-5.258529E-3,4E-1,5.714286E-1,6.666667E-1,8E-1,9E-1,1E0,-4.5067575E-3,-3.9852676E-3,-3.1763674E-3,-2.6180388E-3,6.25E-1,6.923077E-1,7.692308E-1,8.333333E-1,8.8235295E-1,9.230769E-1,4.061368E-4,8.119938E-4,-2.3794048E-3,-2.2008882E-3,-1.8469116E-3,7.1428573E-1,7.3333335E-1,7.777778E-1,8.125E-1,8.4210527E-1,8.75E-1,8.947368E-1,9.0909094E-1,9.375E-1,-1.6093627E-3,-1.4667826E-3,-1.3818741E-3,-1.1823499E-3,-1.0546999E-3,-9.5525075E-4,-7.8316976E-4,-6.355904E-4,-5.1971857E-4,-3.2640202E-4,-2.549789E-4,-1.8557157E-4,-7.448475E-5,-2.0547046E-5,1.2362208E-5,9.397853E-5,2.2901063E-4,3.740918E-4],"split_indices":[4,4,4,4,4,4,4,0,0,4,4,4,4,4,4,0,0,0,0,4,4,4,4,4,4,0,0,0,0,0,4,4,4,4,4,4,4,4,4,0,0,0,0,0,0,0,0,0,0,0,0,0,0,0,0,0,0],"split_type":[0,0,0,0,0,0,0,0,0,0,0,0,0,0,0,0,0,0,0,0,0,0,0,0,0,0,0,0,0,0,0,0,0,0,0,0,0,0,0,0,0,0,0,0,0,0,0,0,0,0,0,0,0,0,0,0,0],"sum_hessian":[3.871011E6,4.1044E5,3.460571E6,2.68968E5,1.41472E5,1.89621E5,3.27095E6,2.68582E5,3.86E2,8.054E3,1.33418E5,9.3114E4,9.6507E4,8.415E3,3.262535E6,7.467E3,5.87E2,1.3304E5,3.78E2,5.628E3,8.7486E4,4.9836E4,4.6671E4,5.507E3,2.908E3,7.3E1,3.262462E6,5.386E3,2.42E2,8.4952E4,2.534E3,4.8889E4,9.47E2,2.7165E4,1.9506E4,3.485E3,2.022E3,1.975E3,9.33E2,1.84E2,2.35E3,1.2E2,4.8769E4,1.07E2,8.4E2,2.6704E4,4.61E2,1.303E4,6.476E3,1.22E2,3.363E3,2.005E3,1.7E1,1.055E3,9.2E2,7.33E2,2E2],"tree_param":{"num_deleted":"0","num_feature":"6","num_nodes":"57","size_leaf_vector":"1"}},{"base_weights":[-2.8262318E-7,-5.2318133E-2,6.2048743E-3,-6.44808E-2,-2.9279416E-2,-1.2475311E-2,7.287791E-3,-6.4482726E-3,-5.122628E-3,-4.0494572E-2,-2.8573265E-2,-1.6812475E-2,-8.279892E-3,-5.8904523E-4,7.3076235E-3,-4.6665217E-3,-4.0220417E-2,-2.8587307E-3,-2.356928E-3,-2.134989E-2,-1.6520742E-2,-1.06116645E-2,-5.8107264E-3,-1.3195995E-3,8.8273117E-4,3.4130094E-4,7.307941E-4,-4.055755E-3,-3.5874199E-3,-2.141507E-3,-1.9817038E-3,-1.6622229E-3,-1.3267228E-2,-1.0641146E-3,-8.8079367E-4,-7.03235E-3,-4.1000796E-3,-1.6928115E-3,-6.703788E-4,2.8064605E-4,1.8302243E-3,-1.4492942E-3,-1.3170092E-3,-7.05464E-4,-5.721715E-4,-4.6775327E-4,-2.9376755E-4,-2.2968731E-4,-1.6702215E-4,-1.128599E-4,-6.6449495E-5,1.06411235E-5,5.9385628E-5,1.536827E-4,2.381556E-4],"categories":[],"categories_nodes":[],"categories_segments":[],"categories_sizes":[],"default_left":[0,0,0,0,0,0,0,0,0,0,0,0,0,0,0,0,0,0,0,0,0,0,0,0,0,0,0,0,0,0,0,0,0,0,0,0,0,0,0,0,0,0,0,0,0,0,0,0,0,0,0,0,0,0,0],"id":25,"left_children":[1,3,5,7,9,11,13,-1,-1,15,17,19,21,23,25,-1,27,-1,-1,29,31,33,35,37,39,-1,-1,-1,-1,-1,-1,-1,41,-1,-1,43,45,47,49,51,53,-1,-1,-1,-1,-1,-1,-1,-1,-1,-1,-1,-1,-1,-1],"loss_changes":[1.2566875E3,1.1500867E2,7.000429E1,3.540039E-3,1.1219711E0,3.450264E0,5.110016E-1,0E0,0E0,1.2330055E-2,8.705139E-3,1.2306595E-1,5.548954E-1,8.835111E-3,3.9978027E-3,0E0,1.0336876E-2,0E0,0E0,1.3804436E-4,2.8705597E-2,2.542019E-3,9.7807884E-2,1.3293168E-3,1.5545916E-3,0E0,0E0,0E0,0E0,0E0,0E0,0E0,1.2522936E-4,0E0,0E0,7.574558E-4,1.3080001E-2,4.3733045E-5,4.6584755E-6,9.096312E-5,1.6764295E-4,0E0,0E0,0E0,0E0,0E0,0E0,0E0,0E0,0E0,0E0,0E0,0E0,0E0,0E0],"parents":[2147483647,0,0,1,1,2,2,3,3,4,4,5,5,6,6,9,9,10,10,11,11,12,12,13,13,14,14,16,16,19,19,20,20,21,21,22,22,23,23,24,24,32,32,35,35,36,36,37,37,38,38,39,39,40,40],"right_children":[2,4,6,8,10,12,14,-1,-1,16,18,20,22,24,26,-1,28,-1,-1,30,32,34,36,38,40,-1,-1,-1,-1,-1,-1,-1,42,-1,-1,44,46,48,50,52,54,-1,-1,-1,-1,-1,-1,-1,-1,-1,-1,-1,-1,-1,-1],"split_conditions":[6E-1,2.5E-1,8.666667E-1,1.6666667E-1,5E-1,7.3333335E-1,9.375E-1,-6.4482726E-3,-5.122628E-3,3.3333334E-1,5.714286E-1,6.666667E-1,7.8571427E-1,8.947368E-1,9.5E-1,-4.6665217E-3,4E-1,-2.8587307E-3,-2.356928E-3,6.25E-1,6.923077E-1,7.692308E-1,8.333333E-1,8.8235295E-1,9.166667E-1,3.4130094E-4,7.307941E-4,-4.055755E-3,-3.5874199E-3,-2.141507E-3,-1.9817038E-3,-1.6622229E-3,7.1428573E-1,-1.0641146E-3,-8.8079367E-4,8.125E-1,8.4210527E-1,8.75E-1,8.888889E-1,9.0909094E-1,9.285714E-1,-1.4492942E-3,-1.3170092E-3,-7.05464E-4,-5.721715E-4,-4.6775327E-4,-2.9376755E-4,-2.2968731E-4,-1.6702215E-4,-1.128599E-4,-6.6449495E-5,1.06411235E-5,5.9385628E-5,1.536827E-4,2.381556E-4],"split_indices":[4,4,4,4,4,4,4,0,0,4,4,4,4,4,4,0,4,0,0,4,4,4,4,4,4,0,0,0,0,0,0,0,4,0,0,4,4,4,4,4,4,0,0,0,0,0,0,0,0,0,0,0,0,0,0],"split_type":[0,0,0,0,0,0,0,0,0,0,0,0,0,0,0,0,0,0,0,0,0,0,0,0,0,0,0,0,0,0,0,0,0,0,0,0,0,0,0,0,0,0,0,0,0,0,0,0,0,0,0,0,0,0,0],"sum_hessian":[3.871011E6,4.1044E5,3.460571E6,2.68625E5,1.41815E5,1.89621E5,3.27095E6,2.68582E5,4.3E1,8.397E3,1.33418E5,9.3234E4,9.6387E4,8.215E3,3.262735E6,3.5E2,8.047E3,1.3304E5,3.78E2,5.628E3,8.7606E4,4.9571E4,4.6816E4,5.49E3,2.725E3,2.67E2,3.262468E6,7.46E3,5.87E2,5.386E3,2.42E2,8.4952E4,2.654E3,4.8769E4,8.02E2,2.731E4,1.9506E4,3.485E3,2.005E3,1.667E3,1.058E3,1.84E2,2.47E3,2.6849E4,4.61E2,1.303E4,6.476E3,1.22E2,3.363E3,2.3E1,1.982E3,1.072E3,5.95E2,6.93E2,3.65E2],"tree_param":{"num_deleted":"0","num_feature":"6","num_nodes":"55","size_leaf_vector":"1"}},{"base_weights":[-2.796747E-7,-4.7086384E-2,5.5843657E-3,-5.803276E-2,-2.6351573E-2,-1.1227851E-2,6.558994E-3,-5.803389E-3,-4.0744613E-3,-3.6446568E-2,-2.571595E-2,-1.5136365E-2,-7.456635E-3,-4.35725E-4,6.577085E-3,-4.2012003E-3,-3.6199313E-2,-2.5728568E-3,-2.1218553E-3,-1.9215608E-2,-1.487373E-2,-9.548519E-3,-5.222733E-3,-1.1847215E-3,9.7147434E-4,3.2193342E-4,6.577129E-4,-3.650233E-3,-3.2292872E-3,-1.9273935E-3,-1.7843517E-3,-1.4960053E-3,-1.1974979E-2,-9.579212E-3,-7.748913E-4,-6.3230833E-3,-3.6900868E-3,-1.5206453E-3,-5.947508E-4,4.0489621E-4,2.1403215E-3,-1.3051488E-3,-1.1885175E-3,-1.1100433E-3,-9.5750013E-4,-6.3413556E-4,-5.0114165E-4,-4.1962095E-4,-2.6090126E-4,-2.0690246E-4,-1.500282E-4,-5.9806927E-5,-1.9612577E-5,2.5735164E-5,1.15088165E-4,1.7831704E-4,2.8229583E-4],"categories":[],"categories_nodes":[],"categories_segments":[],"categories_sizes":[],"default_left":[0,0,0,0,0,0,0,0,0,0,0,0,0,0,0,0,0,0,0,0,0,0,0,0,0,0,0,0,0,0,0,0,0,0,0,0,0,0,0,0,0,0,0,0,0,0,0,0,0,0,0,0,0,0,0,0,0],"id":26,"left_children":[1,3,5,7,9,11,13,-1,-1,15,17,19,21,23,25,-1,27,-1,-1,29,31,33,35,37,39,-1,-1,-1,-1,-1,-1,-1,41,43,-1,45,47,49,51,53,55,-1,-1,-1,-1,-1,-1,-1,-1,-1,-1,-1,-1,-1,-1,-1,-1],"loss_changes":[1.0179184E3,9.315668E1,5.670382E1,2.8686523E-3,9.090347E-1,2.7948856E0,4.1392517E-1,0E0,0E0,1.0035515E-2,7.0343018E-3,9.947395E-2,4.5093822E-1,8.895751E-3,4.7302246E-4,0E0,8.347511E-3,0E0,0E0,1.06573105E-4,2.1713257E-2,2.6788712E-3,7.8686595E-2,1.0906993E-3,1.9408304E-3,0E0,0E0,0E0,0E0,0E0,0E0,0E0,8.994341E-5,2.0742416E-4,0E0,6.1929226E-4,1.0662407E-2,3.6080368E-5,2.5283662E-6,2.171944E-4,2.2828765E-4,0E0,0E0,0E0,0E0,0E0,0E0,0E0,0E0,0E0,0E0,0E0,0E0,0E0,0E0,0E0,0E0],"parents":[2147483647,0,0,1,1,2,2,3,3,4,4,5,5,6,6,9,9,10,10,11,11,12,12,13,13,14,14,16,16,19,19,20,20,21,21,22,22,23,23,24,24,32,32,33,33,35,35,36,36,37,37,38,38,39,39,40,40],"right_children":[2,4,6,8,10,12,14,-1,-1,16,18,20,22,24,26,-1,28,-1,-1,30,32,34,36,38,40,-1,-1,-1,-1,-1,-1,-1,42,44,-1,46,48,50,52,54,56,-1,-1,-1,-1,-1,-1,-1,-1,-1,-1,-1,-1,-1,-1,-1,-1],"split_conditions":[6E-1,2.5E-1,8.666667E-1,2E-1,5E-1,7.2727275E-1,9.4736844E-1,-5.803389E-3,-4.0744613E-3,3.3333334E-1,5.714286E-1,6.666667E-1,8E-1,9E-1,9.5E-1,-4.2012003E-3,4E-1,-2.5728568E-3,-2.1218553E-3,6.25E-1,6.923077E-1,7.777778E-1,8.333333E-1,8.888889E-1,9.230769E-1,3.2193342E-4,6.577129E-4,-3.650233E-3,-3.2292872E-3,-1.9273935E-3,-1.7843517E-3,-1.4960053E-3,7.1428573E-1,7.5E-1,-7.748913E-4,8.181818E-1,8.5714287E-1,8.75E-1,8.947368E-1,9.166667E-1,9.3333334E-1,-1.3051488E-3,-1.1885175E-3,-1.1100433E-3,-9.5750013E-4,-6.3413556E-4,-5.0114165E-4,-4.1962095E-4,-2.6090126E-4,-2.0690246E-4,-1.500282E-4,-5.9806927E-5,-1.9612577E-5,2.5735164E-5,1.15088165E-4,1.7831704E-4,2.8229583E-4],"split_indices":[4,4,4,4,4,4,4,0,0,4,4,4,4,4,4,0,4,0,0,4,4,4,4,4,4,0,0,0,0,0,0,0,4,4,0,4,4,4,4,4,4,0,0,0,0,0,0,0,0,0,0,0,0,0,0,0,0],"split_type":[0,0,0,0,0,0,0,0,0,0,0,0,0,0,0,0,0,0,0,0,0,0,0,0,0,0,0,0,0,0,0,0,0,0,0,0,0,0,0,0,0,0,0,0,0,0,0,0,0,0,0,0,0,0,0,0,0],"sum_hessian":[3.871011E6,4.1044E5,3.460571E6,2.68625E5,1.41815E5,1.89621E5,3.27095E6,2.68605E5,2E1,8.397E3,1.33418E5,9.3114E4,9.6507E4,8.438E3,3.262512E6,3.5E2,8.047E3,1.3304E5,3.78E2,5.628E3,8.7486E4,4.9836E4,4.6671E4,5.507E3,2.931E3,4.4E1,3.262468E6,7.46E3,5.87E2,5.386E3,2.42E2,8.4952E4,2.534E3,4.8996E4,8.4E2,2.7165E4,1.9506E4,3.508E3,1.999E3,1.975E3,9.56E2,1.84E2,2.35E3,1.28E2,4.8868E4,2.6788E4,3.77E2,1.3284E4,6.222E3,1.22E2,3.386E3,1.982E3,1.7E1,1.65E3,3.25E2,6.3E2,3.26E2],"tree_param":{"num_deleted":"0","num_feature":"6","num_nodes":"57","size_leaf_vector":"1"}},{"base_weights":[-2.8264856E-7,-4.2377815E-2,5.0259028E-3,-5.221134E-2,-2.3681981E-2,-1.010513E-2,5.9030703E-3,-5.2230526E-3,-3.7910112E-3,-3.2583054E-2,-2.3144413E-2,-1.3622802E-2,-6.711027E-3,-4.7773193E-4,5.919136E-3,-3.285537E-3,-2.9069076E-3,-2.3155755E-3,-1.9102285E-3,-1.7302055E-2,-1.3386859E-2,-8.593734E-3,-4.7005024E-3,-1.0663394E-3,7.192144E-4,2.8154347E-4,5.919395E-4,-1.7346917E-3,-1.6135518E-3,-1.3464517E-3,-1.0778464E-2,-8.623246E-3,-7.062691E-4,-5.690818E-3,-3.3211196E-3,-1.3716808E-3,-5.3965306E-4,2.3161802E-4,1.4787067E-3,-1.175338E-3,-1.0697164E-3,-9.99902E-4,-8.6194294E-4,-5.7072454E-4,-4.5115864E-4,-3.7766242E-4,-2.3481649E-4,-1.8638189E-4,-1.3532786E-4,-8.766949E-5,-5.3533873E-5,7.4911636E-6,5.0888368E-5,1.2349231E-4,1.936923E-4],"categories":[],"categories_nodes":[],"categories_segments":[],"categories_sizes":[],"default_left":[0,0,0,0,0,0,0,0,0,0,0,0,0,0,0,0,0,0,0,0,0,0,0,0,0,0,0,0,0,0,0,0,0,0,0,0,0,0,0,0,0,0,0,0,0,0,0,0,0,0,0,0,0,0,0],"id":27,"left_children":[1,3,5,7,9,11,13,-1,-1,15,17,19,21,23,25,-1,-1,-1,-1,27,29,31,33,35,37,-1,-1,-1,-1,-1,39,41,-1,43,45,47,49,51,53,-1,-1,-1,-1,-1,-1,-1,-1,-1,-1,-1,-1,-1,-1,-1,-1],"loss_changes":[8.245155E2,7.5456726E1,4.593033E1,7.1777344E-2,6.76178E-1,2.2638702E0,3.3532715E-1,0E0,0E0,6.752968E-3,5.6762695E-3,8.060074E-2,3.6526442E-1,5.7891975E-3,2.609253E-3,0E0,0E0,0E0,0E0,1.347065E-5,1.7580032E-2,2.19059E-3,6.37362E-2,8.850517E-4,1.00287E-3,0E0,0E0,0E0,0E0,0E0,7.522106E-5,1.7094612E-4,0E0,5.004406E-4,8.63637E-3,2.9048417E-5,2.4723122E-6,7.169665E-5,1.1590426E-4,0E0,0E0,0E0,0E0,0E0,0E0,0E0,0E0,0E0,0E0,0E0,0E0,0E0,0E0,0E0,0E0],"parents":[2147483647,0,0,1,1,2,2,3,3,4,4,5,5,6,6,9,9,10,10,11,11,12,12,13,13,14,14,19,19,20,20,21,21,22,22,23,23,24,24,30,30,31,31,33,33,34,34,35,35,36,36,37,37,38,38],"right_children":[2,4,6,8,10,12,14,-1,-1,16,18,20,22,24,26,-1,-1,-1,-1,28,30,32,34,36,38,-1,-1,-1,-1,-1,40,42,-1,44,46,48,50,52,54,-1,-1,-1,-1,-1,-1,-1,-1,-1,-1,-1,-1,-1,-1,-1,-1],"split_conditions":[6E-1,2.857143E-1,8.666667E-1,2E-1,5E-1,7.2727275E-1,9.375E-1,-5.2230526E-3,-3.7910112E-3,4E-1,5.714286E-1,6.363636E-1,8E-1,9E-1,1E0,-3.285537E-3,-2.9069076E-3,-2.3155755E-3,-1.9102285E-3,6.25E-1,6.923077E-1,7.692308E-1,8.333333E-1,8.8235295E-1,9.166667E-1,2.8154347E-4,5.919395E-4,-1.7346917E-3,-1.6135518E-3,-1.3464517E-3,7.1428573E-1,7.5E-1,-7.062691E-4,8.181818E-1,8.5714287E-1,8.75E-1,8.888889E-1,9.0909094E-1,9.285714E-1,-1.175338E-3,-1.0697164E-3,-9.99902E-4,-8.6194294E-4,-5.7072454E-4,-4.5115864E-4,-3.7766242E-4,-2.3481649E-4,-1.8638189E-4,-1.3532786E-4,-8.766949E-5,-5.3533873E-5,7.4911636E-6,5.0888368E-5,1.2349231E-4,1.936923E-4],"split_indices":[4,4,4,4,4,4,4,0,0,4,4,4,4,4,4,0,0,0,0,4,4,4,4,4,4,0,0,0,0,0,4,4,0,4,4,4,4,4,4,0,0,0,0,0,0,0,0,0,0,0,0,0,0,0,0],"split_type":[0,0,0,0,0,0,0,0,0,0,0,0,0,0,0,0,0,0,0,0,0,0,0,0,0,0,0,0,0,0,0,0,0,0,0,0,0,0,0,0,0,0,0,0,0,0,0,0,0,0,0,0,0,0,0],